<?xml version="1.0"?>
<MethodSetup Method="BDT::BDTG">
  <GeneralInfo>
    <Info name="TMVA Release" value="4.1.0 [262400]"/>
    <Info name="ROOT Release" value="5.28/00 [334848]"/>
    <Info name="Creator" value="pandolf"/>
    <Info name="Date" value="Wed Apr 24 11:08:49 2013"/>
    <Info name="Host" value="Linux lxbuild148.cern.ch 2.6.18-194.26.1.el5 #1 SMP Wed Nov 10 09:45:46 CET 2010 x86_64 x86_64 x86_64 GNU/Linux"/>
    <Info name="Dir" value="/afs/cern.ch/work/p/pandolf/CMSSW_5_2_5/src/UserCode/pandolf/VHgg/VHggAnalysis/TMVA"/>
    <Info name="Training events" value="5938"/>
    <Info name="TrainingTime" value="3.67411"/>
    <Info name="AnalysisType" value="Classification"/>
  </GeneralInfo>
  <Options>
    <Option name="V" modified="Yes">False</Option>
    <Option name="VerbosityLevel" modified="No">Default</Option>
    <Option name="VarTransform" modified="No">None</Option>
    <Option name="H" modified="Yes">False</Option>
    <Option name="CreateMVAPdfs" modified="Yes">True</Option>
    <Option name="IgnoreNegWeightsInTraining" modified="No">False</Option>
    <Option name="NTrees" modified="Yes">500</Option>
    <Option name="RenormByClass" modified="No">False</Option>
    <Option name="BoostType" modified="Yes">Grad</Option>
    <Option name="AdaBoostR2Loss" modified="No">quadratic</Option>
    <Option name="UseBaggedGrad" modified="Yes">False</Option>
    <Option name="GradBaggingFraction" modified="No">6.000000e-01</Option>
    <Option name="Shrinkage" modified="Yes">5.000000e-02</Option>
    <Option name="AdaBoostBeta" modified="No">1.000000e+00</Option>
    <Option name="UseRandomisedTrees" modified="No">False</Option>
    <Option name="UseNvars" modified="No">3</Option>
    <Option name="UsePoissonNvars" modified="No">True</Option>
    <Option name="UseNTrainEvents" modified="No">5938</Option>
    <Option name="UseWeightedTrees" modified="No">True</Option>
    <Option name="UseYesNoLeaf" modified="No">True</Option>
    <Option name="NodePurityLimit" modified="No">5.000000e-01</Option>
    <Option name="SeparationType" modified="No">giniindex</Option>
    <Option name="nEventsMin" modified="Yes">100</Option>
    <Option name="nCuts" modified="Yes">200</Option>
    <Option name="UseFisherCuts" modified="No">False</Option>
    <Option name="MinLinCorrForFisher" modified="No">8.000000e-01</Option>
    <Option name="UseExclusiveVars" modified="No">False</Option>
    <Option name="PruneStrength" modified="No">0.000000e+00</Option>
    <Option name="PruneMethod" modified="No">nopruning</Option>
    <Option name="PruneBeforeBoost" modified="No">False</Option>
    <Option name="PruningValFraction" modified="No">5.000000e-01</Option>
    <Option name="NNodesMax" modified="Yes">5</Option>
    <Option name="MaxDepth" modified="No">3</Option>
  </Options>
  <Variables NVar="8">
    <Variable VarIndex="0" Expression="njets" Label="njets" Title="njets" Unit="" Internal="njets" Type="I" Min="2" Max="9"/>
    <Variable VarIndex="1" Expression="nbjets_loose" Label="nbjets_loose" Title="nbjets_loose" Unit="" Internal="nbjets_loose" Type="I" Min="1" Max="6"/>
    <Variable VarIndex="2" Expression="deltaPhi_top_higgs" Label="deltaPhi_top_higgs" Title="deltaPhi_top_higgs" Unit="" Internal="deltaPhi_top_higgs" Type="F" Min="0.00129688" Max="3.14158"/>
    <Variable VarIndex="3" Expression="mt_top" Label="mt_top" Title="mt_top" Unit="" Internal="mt_top" Type="F" Min="67.0273" Max="1174.32"/>
    <Variable VarIndex="4" Expression="eta_qJet" Label="eta_qJet" Title="eta_qJet" Unit="" Internal="eta_qJet" Type="F" Min="-4.95386" Max="4.96862"/>
    <Variable VarIndex="5" Expression="charge_lept" Label="charge_lept" Title="charge_lept" Unit="" Internal="charge_lept" Type="I" Min="-1" Max="1"/>
    <Variable VarIndex="6" Expression="deltaEta_lept_qJet" Label="deltaEta_lept_qJet" Title="deltaEta_lept_qJet" Unit="" Internal="deltaEta_lept_qJet" Type="F" Min="0.000402451" Max="6.91124"/>
    <Variable VarIndex="7" Expression="pt_bJet" Label="pt_bJet" Title="pt_bJet" Unit="" Internal="pt_bJet" Type="F" Min="20.0502" Max="584.196"/>
  </Variables>
  <Spectators NSpec="0"/>
  <Transformations NTransformations="0"/>
  <MVAPdfs>
    <PDF Name="BDTG_PDFSig" MinNSmooth="0" MaxNSmooth="0" InterpolMethod="2" KDE_type="1" KDE_iter="1" KDE_border="1" KDE_finefactor="1.0000000000000000e+00">
      <Histogram Name="BDT_tr_S_original" NBins="118" XMin="-9.9956715106964111e-01" XMax="9.7668081521987915e-01" HasEquidistantBins="1">
        0.0600092 0.0400061 0.0200031 0.0600092 0.200031 0.220034 0.100015 0.0400061 0.100015 0.0600092 0.0600092 0.120018 0.0400061 0.0800122 0.120018 0.160024 0.120018 0.140021 0.120018 0.120018 0.120018 0.100015 0.0400061 0.120018 0.160024 0.160024 0.0600092 0.140021 0.0800122 0.120018 0.140021 0.0800122 0.120018 0.140021 0.140021 0.180027 0.140021 0.180027 0.140021 0.120018 0.140021 0.100015 0.160024 0.0200031 0.0800122 0.160024 0.160024 0.0800122 0.120018 0.120018 0.100015 0.160024 0.200031 0.160024 0.140021 0.180027 0.0200031 0.140021 0.140021 0.26004 0.180027 0.160024 0.180027 0.140021 0.26004 0.160024 0.180027 0.220034 0.180027 0.420064 0.320049 0.240037 0.160024 0.140021 0.240037 0.0800122 0.320049 0.180027 0.220034 0.440067 0.360055 0.300046 0.340052 0.240037 0.380058 0.280043 0.340052 0.360055 0.540082 0.500076 0.340052 0.560085 0.540082 0.540082 0.740113 0.580088 0.560085 0.46007 0.600092 0.760116 0.900137 0.780119 0.500076 0.760116 0.680104 1.00015 0.960146 1.20018 1.40021 1.70026 1.90029 1.64025 2.6404 2.68041 2.78042 4.08062 5.42083 7.8412 
      </Histogram>
    </PDF>
    <PDF Name="BDTG_PDFBkg" MinNSmooth="0" MaxNSmooth="0" InterpolMethod="2" KDE_type="1" KDE_iter="1" KDE_border="1" KDE_finefactor="1.0000000000000000e+00">
      <Histogram Name="BDT_tr_B_original" NBins="118" XMin="-9.9956715106964111e-01" XMax="9.7668081521987915e-01" HasEquidistantBins="1">
        6.57367 5.19825 3.72171 3.47899 2.54856 1.86085 1.8204 1.43609 1.517 1.29451 0.869746 0.991106 1.05179 1.05179 0.78884 0.707933 0.707933 0.84952 0.889973 0.647253 0.6068 0.505667 0.66748 0.586573 0.525893 0.566347 0.748387 0.465213 0.465213 0.343853 0.566347 0.384307 0.525893 0.283173 0.343853 0.283173 0.24272 0.283173 0.54612 0.42476 0.161813 0.262947 0.18204 0.42476 0.54612 0.3034 0.222493 0.283173 0.24272 0.343853 0.101133 0.24272 0.24272 0.18204 0.262947 0.202267 0.222493 0.222493 0.12136 0.24272 0.222493 0.222493 0.161813 0.202267 0.18204 0.06068 0.141587 0.12136 0.12136 0.161813 0.161813 0.06068 0.18204 0.141587 0.222493 0.141587 0.202267 0.0404533 0.202267 0.24272 0.141587 0.262947 0.262947 0.18204 0.101133 0.06068 0.12136 0.06068 0.12136 0.202267 0.18204 0.0809066 0.0809066 0.12136 0.0404533 0.06068 0.12136 0.141587 0.161813 0.161813 0.141587 0 0.06068 0.101133 0.0809066 0.06068 0.161813 0.12136 0.141587 0.18204 0.12136 0.12136 0.0809066 0.06068 0.0202267 0 0 0 
      </Histogram>
    </PDF>
  </MVAPdfs>
  <Weights NTrees="500" AnalysisType="1">
    <BinaryTree type="DecisionTree" boostWeight="1.0000000000000000e+00" itree="0">
      <Node pos="s" depth="0" NCoef="0" IVar="0" Cut="3.0099501609802246e+00" cType="1" res="2.8629167936742306e-03" rms="4.9999180436134338e-01" purity="5.0286293029785156e-01" nType="0">
        <Node pos="l" depth="1" NCoef="0" IVar="-1" Cut="0.0000000000000000e+00" cType="1" res="2.6181980967521667e-02" rms="4.2596992850303650e-01" purity="7.6181977987289429e-01" nType="1"/>
        <Node pos="r" depth="1" NCoef="0" IVar="0" Cut="4.0248756408691406e+00" cType="1" res="-3.3533981442451477e-01" rms="3.7087357044219971e-01" purity="1.6466020047664642e-01" nType="0">
          <Node pos="l" depth="2" NCoef="0" IVar="-1" Cut="0.0000000000000000e+00" cType="1" res="-2.3444976657629013e-02" rms="4.4162574410438538e-01" purity="2.6555022597312927e-01" nType="-1"/>
          <Node pos="r" depth="2" NCoef="0" IVar="-1" Cut="0.0000000000000000e+00" cType="1" res="-4.3111279606819153e-02" rms="2.5326222181320190e-01" purity="6.8887203931808472e-02" nType="-1"/>
        </Node>
      </Node>
    </BinaryTree>
    <BinaryTree type="DecisionTree" boostWeight="1.0000000000000000e+00" itree="1">
      <Node pos="s" depth="0" NCoef="0" IVar="0" Cut="3.0099501609802246e+00" cType="1" res="2.7180458419024944e-03" rms="4.9096611142158508e-01" purity="5.0286293029785156e-01" nType="0">
        <Node pos="l" depth="1" NCoef="0" IVar="-1" Cut="0.0000000000000000e+00" cType="1" res="2.4890236556529999e-02" rms="4.2596992850303650e-01" purity="7.6181977987289429e-01" nType="1"/>
        <Node pos="r" depth="1" NCoef="0" IVar="0" Cut="4.0248756408691406e+00" cType="1" res="-3.1858071684837341e-01" rms="3.6960271000862122e-01" purity="1.6466020047664642e-01" nType="0">
          <Node pos="l" depth="2" NCoef="0" IVar="-1" Cut="0.0000000000000000e+00" cType="1" res="-2.2285187616944313e-02" rms="4.4162577390670776e-01" purity="2.6555022597312927e-01" nType="-1"/>
          <Node pos="r" depth="2" NCoef="0" IVar="-1" Cut="0.0000000000000000e+00" cType="1" res="-4.1033219546079636e-02" rms="2.5326225161552429e-01" purity="6.8887203931808472e-02" nType="-1"/>
        </Node>
      </Node>
    </BinaryTree>
    <BinaryTree type="DecisionTree" boostWeight="1.0000000000000000e+00" itree="2">
      <Node pos="s" depth="0" NCoef="0" IVar="0" Cut="3.0099501609802246e+00" cType="1" res="2.5759749114513397e-03" rms="4.8268416523933411e-01" purity="5.0286293029785156e-01" nType="0">
        <Node pos="l" depth="1" NCoef="0" IVar="-1" Cut="0.0000000000000000e+00" cType="1" res="2.3692278191447258e-02" rms="4.2596995830535889e-01" purity="7.6181977987289429e-01" nType="1"/>
        <Node pos="r" depth="1" NCoef="0" IVar="0" Cut="4.0248756408691406e+00" cType="1" res="-3.0267980694770813e-01" rms="3.6845538020133972e-01" purity="1.6466020047664642e-01" nType="0">
          <Node pos="l" depth="2" NCoef="0" IVar="-1" Cut="0.0000000000000000e+00" cType="1" res="-2.1204343065619469e-02" rms="4.4162574410438538e-01" purity="2.6555022597312927e-01" nType="-1"/>
          <Node pos="r" depth="2" NCoef="0" IVar="-1" Cut="0.0000000000000000e+00" cType="1" res="-3.9190128445625305e-02" rms="2.5326222181320190e-01" purity="6.8887203931808472e-02" nType="-1"/>
        </Node>
      </Node>
    </BinaryTree>
    <BinaryTree type="DecisionTree" boostWeight="1.0000000000000000e+00" itree="3">
      <Node pos="s" depth="0" NCoef="0" IVar="0" Cut="3.0099501609802246e+00" cType="1" res="2.4376171641051769e-03" rms="4.7509160637855530e-01" purity="5.0286293029785156e-01" nType="0">
        <Node pos="l" depth="1" NCoef="0" IVar="-1" Cut="0.0000000000000000e+00" cType="1" res="2.2576432675123215e-02" rms="4.2596992850303650e-01" purity="7.6181977987289429e-01" nType="1"/>
        <Node pos="r" depth="1" NCoef="0" IVar="0" Cut="4.0248756408691406e+00" cType="1" res="-2.8758937120437622e-01" rms="3.6741909384727478e-01" purity="1.6466020047664642e-01" nType="0">
          <Node pos="l" depth="2" NCoef="0" IVar="-1" Cut="0.0000000000000000e+00" cType="1" res="-2.0193440839648247e-02" rms="4.4162574410438538e-01" purity="2.6555022597312927e-01" nType="-1"/>
          <Node pos="r" depth="2" NCoef="0" IVar="-1" Cut="0.0000000000000000e+00" cType="1" res="-3.7540938705205917e-02" rms="2.5326225161552429e-01" purity="6.8887203931808472e-02" nType="-1"/>
        </Node>
      </Node>
    </BinaryTree>
    <BinaryTree type="DecisionTree" boostWeight="1.0000000000000000e+00" itree="4">
      <Node pos="s" depth="0" NCoef="0" IVar="0" Cut="3.0099501609802246e+00" cType="1" res="2.3035802878439426e-03" rms="4.6813738346099854e-01" purity="5.0286293029785156e-01" nType="0">
        <Node pos="l" depth="1" NCoef="0" IVar="-1" Cut="0.0000000000000000e+00" cType="1" res="2.1532997488975525e-02" rms="4.2596995830535889e-01" purity="7.6181977987289429e-01" nType="1"/>
        <Node pos="r" depth="1" NCoef="0" IVar="5" Cut="-9.9004977941513062e-01" cType="0" res="-2.7326509356498718e-01" rms="3.6648279428482056e-01" purity="1.6466020047664642e-01" nType="0">
          <Node pos="l" depth="2" NCoef="0" IVar="-1" Cut="0.0000000000000000e+00" cType="1" res="-2.0018335431814194e-02" rms="4.2272669076919556e-01" purity="2.4177396297454834e-01" nType="-1"/>
          <Node pos="r" depth="2" NCoef="0" IVar="-1" Cut="0.0000000000000000e+00" cType="1" res="-3.7031762301921844e-02" rms="2.5775313377380371e-01" purity="7.3067121207714081e-02" nType="-1"/>
        </Node>
      </Node>
    </BinaryTree>
    <BinaryTree type="DecisionTree" boostWeight="1.0000000000000000e+00" itree="5">
      <Node pos="s" depth="0" NCoef="0" IVar="0" Cut="2.0348258018493652e+00" cType="1" res="2.1776296198368073e-03" rms="4.6175590157508850e-01" purity="5.0286293029785156e-01" nType="0">
        <Node pos="l" depth="1" NCoef="0" IVar="-1" Cut="0.0000000000000000e+00" cType="1" res="3.5419251769781113e-02" rms="2.8847071528434753e-01" purity="9.0839278697967529e-01" nType="1"/>
        <Node pos="r" depth="1" NCoef="0" IVar="0" Cut="3.0298507213592529e+00" cType="1" res="-1.5157306194305420e-01" rms="4.4024103879928589e-01" purity="3.2320776581764221e-01" nType="0">
          <Node pos="l" depth="2" NCoef="0" IVar="-1" Cut="0.0000000000000000e+00" cType="1" res="2.9567030724138021e-03" rms="4.9213925004005432e-01" purity="5.8831167221069336e-01" nType="1"/>
          <Node pos="r" depth="2" NCoef="0" IVar="-1" Cut="0.0000000000000000e+00" cType="1" res="-2.6612551882863045e-02" rms="3.6559092998504639e-01" purity="1.6466020047664642e-01" nType="-1"/>
        </Node>
      </Node>
    </BinaryTree>
    <BinaryTree type="DecisionTree" boostWeight="1.0000000000000000e+00" itree="6">
      <Node pos="s" depth="0" NCoef="0" IVar="0" Cut="2.0348258018493652e+00" cType="1" res="2.0696336869150400e-03" rms="4.5468357205390930e-01" purity="5.0286293029785156e-01" nType="0">
        <Node pos="l" depth="1" NCoef="0" IVar="-1" Cut="0.0000000000000000e+00" cType="1" res="3.3981569111347198e-02" rms="2.8847071528434753e-01" purity="9.0839278697967529e-01" nType="1"/>
        <Node pos="r" depth="1" NCoef="0" IVar="0" Cut="3.0298507213592529e+00" cType="1" res="-1.4402861893177032e-01" rms="4.3810221552848816e-01" purity="3.2320776581764221e-01" nType="0">
          <Node pos="l" depth="2" NCoef="0" IVar="-1" Cut="0.0000000000000000e+00" cType="1" res="2.8109091799706221e-03" rms="4.9213925004005432e-01" purity="5.8831167221069336e-01" nType="1"/>
          <Node pos="r" depth="2" NCoef="0" IVar="-1" Cut="0.0000000000000000e+00" cType="1" res="-2.5509048253297806e-02" rms="3.6563202738761902e-01" purity="1.6466020047664642e-01" nType="-1"/>
        </Node>
      </Node>
    </BinaryTree>
    <BinaryTree type="DecisionTree" boostWeight="1.0000000000000000e+00" itree="7">
      <Node pos="s" depth="0" NCoef="0" IVar="0" Cut="2.0348258018493652e+00" cType="1" res="1.9694312941282988e-03" rms="4.4820964336395264e-01" purity="5.0286293029785156e-01" nType="0">
        <Node pos="l" depth="1" NCoef="0" IVar="-1" Cut="0.0000000000000000e+00" cType="1" res="3.2666325569152832e-02" rms="2.8847071528434753e-01" purity="9.0839278697967529e-01" nType="1"/>
        <Node pos="r" depth="1" NCoef="0" IVar="0" Cut="3.0298507213592529e+00" cType="1" res="-1.3686330616474152e-01" rms="4.3616724014282227e-01" purity="3.2320776581764221e-01" nType="0">
          <Node pos="l" depth="2" NCoef="0" IVar="-1" Cut="0.0000000000000000e+00" cType="1" res="2.6722538750618696e-03" rms="4.9213925004005432e-01" purity="5.8831167221069336e-01" nType="1"/>
          <Node pos="r" depth="2" NCoef="0" IVar="-1" Cut="0.0000000000000000e+00" cType="1" res="-2.4474434554576874e-02" rms="3.6567726731300354e-01" purity="1.6466020047664642e-01" nType="-1"/>
        </Node>
      </Node>
    </BinaryTree>
    <BinaryTree type="DecisionTree" boostWeight="1.0000000000000000e+00" itree="8">
      <Node pos="s" depth="0" NCoef="0" IVar="0" Cut="2.0348258018493652e+00" cType="1" res="1.8761021783575416e-03" rms="4.4228887557983398e-01" purity="5.0286293029785156e-01" nType="0">
        <Node pos="l" depth="1" NCoef="0" IVar="-1" Cut="0.0000000000000000e+00" cType="1" res="3.1455405056476593e-02" rms="2.8847071528434753e-01" purity="9.0839278697967529e-01" nType="1"/>
        <Node pos="r" depth="1" NCoef="0" IVar="5" Cut="-9.9004977941513062e-01" cType="0" res="-1.3005736470222473e-01" rms="4.3441745638847351e-01" purity="3.2320776581764221e-01" nType="0">
          <Node pos="l" depth="2" NCoef="0" IVar="-1" Cut="0.0000000000000000e+00" cType="1" res="-2.8063310310244560e-03" rms="4.6060276031494141e-01" purity="4.3778234720230103e-01" nType="-1"/>
          <Node pos="r" depth="2" NCoef="0" IVar="-1" Cut="0.0000000000000000e+00" cType="1" res="-2.9230395331978798e-02" rms="3.4222173690795898e-01" purity="1.5714286267757416e-01" nType="-1"/>
        </Node>
      </Node>
    </BinaryTree>
    <BinaryTree type="DecisionTree" boostWeight="1.0000000000000000e+00" itree="9">
      <Node pos="s" depth="0" NCoef="0" IVar="0" Cut="3.0099501609802246e+00" cType="1" res="1.7997017130255699e-03" rms="4.3679803609848022e-01" purity="5.0286293029785156e-01" nType="0">
        <Node pos="l" depth="1" NCoef="0" IVar="-1" Cut="0.0000000000000000e+00" cType="1" res="1.7530355602502823e-02" rms="4.1371101140975952e-01" purity="7.6181977987289429e-01" nType="1"/>
        <Node pos="r" depth="1" NCoef="0" IVar="0" Cut="4.0248756408691406e+00" cType="1" res="-2.1580702066421509e-01" rms="3.6445465683937073e-01" purity="1.6466020047664642e-01" nType="0">
          <Node pos="l" depth="2" NCoef="0" IVar="-1" Cut="0.0000000000000000e+00" cType="1" res="-1.3897484168410301e-02" rms="4.3879008293151855e-01" purity="2.6555022597312927e-01" nType="-1"/>
          <Node pos="r" depth="2" NCoef="0" IVar="-1" Cut="0.0000000000000000e+00" cType="1" res="-3.1819004565477371e-02" rms="2.5204133987426758e-01" purity="6.8887203931808472e-02" nType="-1"/>
        </Node>
      </Node>
    </BinaryTree>
    <BinaryTree type="DecisionTree" boostWeight="1.0000000000000000e+00" itree="10">
      <Node pos="s" depth="0" NCoef="0" IVar="0" Cut="2.0348258018493652e+00" cType="1" res="1.6922728391364217e-03" rms="4.3248647451400757e-01" purity="5.0286293029785156e-01" nType="0">
        <Node pos="l" depth="1" NCoef="0" IVar="-1" Cut="0.0000000000000000e+00" cType="1" res="2.9726289212703705e-02" rms="2.8847071528434753e-01" purity="9.0839278697967529e-01" nType="1"/>
        <Node pos="r" depth="1" NCoef="0" IVar="4" Cut="-2.2464709281921387e+00" cType="1" res="-1.2010189145803452e-01" rms="4.2979595065116882e-01" purity="3.2320776581764221e-01" nType="0">
          <Node pos="l" depth="2" NCoef="0" IVar="-1" Cut="0.0000000000000000e+00" cType="1" res="1.3761532492935658e-02" rms="4.4395422935485840e-01" purity="6.0505318641662598e-01" nType="1"/>
          <Node pos="r" depth="2" NCoef="0" IVar="-1" Cut="0.0000000000000000e+00" cType="1" res="-1.8627174198627472e-02" rms="4.0567803382873535e-01" purity="2.6018434762954712e-01" nType="-1"/>
        </Node>
      </Node>
    </BinaryTree>
    <BinaryTree type="DecisionTree" boostWeight="1.0000000000000000e+00" itree="11">
      <Node pos="s" depth="0" NCoef="0" IVar="0" Cut="3.0099501609802246e+00" cType="1" res="1.6296491958200932e-03" rms="4.2763221263885498e-01" purity="5.0286293029785156e-01" nType="0">
        <Node pos="l" depth="1" NCoef="0" IVar="-1" Cut="0.0000000000000000e+00" cType="1" res="1.6362868249416351e-02" rms="4.0992149710655212e-01" purity="7.6181977987289429e-01" nType="1"/>
        <Node pos="r" depth="1" NCoef="0" IVar="0" Cut="4.0248756408691406e+00" cType="1" res="-1.9863732159137726e-01" rms="3.6252757906913757e-01" purity="1.6466020047664642e-01" nType="0">
          <Node pos="l" depth="2" NCoef="0" IVar="-1" Cut="0.0000000000000000e+00" cType="1" res="-1.2701221741735935e-02" rms="4.3731194734573364e-01" purity="2.6555022597312927e-01" nType="-1"/>
          <Node pos="r" depth="2" NCoef="0" IVar="-1" Cut="0.0000000000000000e+00" cType="1" res="-3.0348598957061768e-02" rms="2.5158590078353882e-01" purity="6.8887203931808472e-02" nType="-1"/>
        </Node>
      </Node>
    </BinaryTree>
    <BinaryTree type="DecisionTree" boostWeight="1.0000000000000000e+00" itree="12">
      <Node pos="s" depth="0" NCoef="0" IVar="0" Cut="2.0348258018493652e+00" cType="1" res="1.5301253879442811e-03" rms="4.2391109466552734e-01" purity="5.0286293029785156e-01" nType="0">
        <Node pos="l" depth="1" NCoef="0" IVar="-1" Cut="0.0000000000000000e+00" cType="1" res="2.8181333094835281e-02" rms="2.8847071528434753e-01" purity="9.0839278697967529e-01" nType="1"/>
        <Node pos="r" depth="1" NCoef="0" IVar="5" Cut="-9.9004977941513062e-01" cType="0" res="-1.1095653474330902e-01" rms="4.2571100592613220e-01" purity="3.2320776581764221e-01" nType="0">
          <Node pos="l" depth="2" NCoef="0" IVar="-1" Cut="0.0000000000000000e+00" cType="1" res="-1.6341115115210414e-03" rms="4.5241475105285645e-01" purity="4.3778234720230103e-01" nType="-1"/>
          <Node pos="r" depth="2" NCoef="0" IVar="-1" Cut="0.0000000000000000e+00" cType="1" res="-2.7010280638933182e-02" rms="3.3892518281936646e-01" purity="1.5714286267757416e-01" nType="-1"/>
        </Node>
      </Node>
    </BinaryTree>
    <BinaryTree type="DecisionTree" boostWeight="1.0000000000000000e+00" itree="13">
      <Node pos="s" depth="0" NCoef="0" IVar="0" Cut="3.0099501609802246e+00" cType="1" res="1.4705944340676069e-03" rms="4.1960093379020691e-01" purity="5.0286293029785156e-01" nType="0">
        <Node pos="l" depth="1" NCoef="0" IVar="-1" Cut="0.0000000000000000e+00" cType="1" res="1.5293986536562443e-02" rms="4.0656968951225281e-01" purity="7.6181977987289429e-01" nType="1"/>
        <Node pos="r" depth="1" NCoef="0" IVar="4" Cut="-2.0566000938415527e+00" cType="1" res="-1.8288743495941162e-01" rms="3.6071270704269409e-01" purity="1.6466020047664642e-01" nType="0">
          <Node pos="l" depth="2" NCoef="0" IVar="-1" Cut="0.0000000000000000e+00" cType="1" res="-2.3395568132400513e-03" rms="4.6018120646476746e-01" purity="3.4151786565780640e-01" nType="-1"/>
          <Node pos="r" depth="2" NCoef="0" IVar="-1" Cut="0.0000000000000000e+00" cType="1" res="-2.4110164493322372e-02" rms="3.2600367069244385e-01" purity="1.2740950286388397e-01" nType="-1"/>
        </Node>
      </Node>
    </BinaryTree>
    <BinaryTree type="DecisionTree" boostWeight="1.0000000000000000e+00" itree="14">
      <Node pos="s" depth="0" NCoef="0" IVar="0" Cut="2.0348258018493652e+00" cType="1" res="1.3822136679664254e-03" rms="4.1639485955238342e-01" purity="5.0286293029785156e-01" nType="0">
        <Node pos="l" depth="1" NCoef="0" IVar="-1" Cut="0.0000000000000000e+00" cType="1" res="2.6784704998135567e-02" rms="2.8847071528434753e-01" purity="9.0839278697967529e-01" nType="1"/>
        <Node pos="r" depth="1" NCoef="0" IVar="4" Cut="-2.2464709281921387e+00" cType="1" res="-1.0256094485521317e-01" rms="4.2206490039825439e-01" purity="3.2320776581764221e-01" nType="0">
          <Node pos="l" depth="2" NCoef="0" IVar="-1" Cut="0.0000000000000000e+00" cType="1" res="1.3416100293397903e-02" rms="4.3763467669487000e-01" purity="6.0505318641662598e-01" nType="1"/>
          <Node pos="r" depth="2" NCoef="0" IVar="-1" Cut="0.0000000000000000e+00" cType="1" res="-1.6749583184719086e-02" rms="4.0088543295860291e-01" purity="2.6018434762954712e-01" nType="-1"/>
        </Node>
      </Node>
    </BinaryTree>
    <BinaryTree type="DecisionTree" boostWeight="1.0000000000000000e+00" itree="15">
      <Node pos="s" depth="0" NCoef="0" IVar="0" Cut="3.0099501609802246e+00" cType="1" res="1.3347907224670053e-03" rms="4.1263091564178467e-01" purity="5.0286293029785156e-01" nType="0">
        <Node pos="l" depth="1" NCoef="0" IVar="-1" Cut="0.0000000000000000e+00" cType="1" res="1.4306244440376759e-02" rms="4.0362271666526794e-01" purity="7.6181977987289429e-01" nType="1"/>
        <Node pos="r" depth="1" NCoef="0" IVar="0" Cut="4.0248756408691406e+00" cType="1" res="-1.6837398707866669e-01" rms="3.5918486118316650e-01" purity="1.6466020047664642e-01" nType="0">
          <Node pos="l" depth="2" NCoef="0" IVar="-1" Cut="0.0000000000000000e+00" cType="1" res="-1.0223546996712685e-02" rms="4.3360778689384460e-01" purity="2.6555022597312927e-01" nType="-1"/>
          <Node pos="r" depth="2" NCoef="0" IVar="-1" Cut="0.0000000000000000e+00" cType="1" res="-2.8089873492717743e-02" rms="2.5051826238632202e-01" purity="6.8887203931808472e-02" nType="-1"/>
        </Node>
      </Node>
    </BinaryTree>
    <BinaryTree type="DecisionTree" boostWeight="1.0000000000000000e+00" itree="16">
      <Node pos="s" depth="0" NCoef="0" IVar="0" Cut="2.0348258018493652e+00" cType="1" res="1.2499004369601607e-03" rms="4.0985035896301270e-01" purity="5.0286293029785156e-01" nType="0">
        <Node pos="l" depth="1" NCoef="0" IVar="-1" Cut="0.0000000000000000e+00" cType="1" res="2.5509111583232880e-02" rms="2.8847071528434753e-01" purity="9.0839278697967529e-01" nType="1"/>
        <Node pos="r" depth="1" NCoef="0" IVar="5" Cut="-9.9004977941513062e-01" cType="0" res="-9.4848267734050751e-02" rms="4.1886463761329651e-01" purity="3.2320776581764221e-01" nType="0">
          <Node pos="l" depth="2" NCoef="0" IVar="-1" Cut="0.0000000000000000e+00" cType="1" res="-6.4959115115925670e-04" rms="4.4598427414894104e-01" purity="4.3778234720230103e-01" nType="-1"/>
          <Node pos="r" depth="2" NCoef="0" IVar="-1" Cut="0.0000000000000000e+00" cType="1" res="-2.5170691311359406e-02" rms="3.3680933713912964e-01" purity="1.5714286267757416e-01" nType="-1"/>
        </Node>
      </Node>
    </BinaryTree>
    <BinaryTree type="DecisionTree" boostWeight="1.0000000000000000e+00" itree="17">
      <Node pos="s" depth="0" NCoef="0" IVar="0" Cut="2.0348258018493652e+00" cType="1" res="1.2023415183648467e-03" rms="4.0645611286163330e-01" purity="5.0286293029785156e-01" nType="0">
        <Node pos="l" depth="1" NCoef="0" IVar="-1" Cut="0.0000000000000000e+00" cType="1" res="2.4735067039728165e-02" rms="2.8847071528434753e-01" purity="9.0839278697967529e-01" nType="1"/>
        <Node pos="r" depth="1" NCoef="0" IVar="4" Cut="-2.2464709281921387e+00" cType="1" res="-9.0131767094135284e-02" rms="4.1756185889244080e-01" purity="3.2320776581764221e-01" nType="0">
          <Node pos="l" depth="2" NCoef="0" IVar="-1" Cut="0.0000000000000000e+00" cType="1" res="1.3321159407496452e-02" rms="4.3325853347778320e-01" purity="6.0505318641662598e-01" nType="1"/>
          <Node pos="r" depth="2" NCoef="0" IVar="-1" Cut="0.0000000000000000e+00" cType="1" res="-1.5369998291134834e-02" rms="3.9836189150810242e-01" purity="2.6018434762954712e-01" nType="-1"/>
        </Node>
      </Node>
    </BinaryTree>
    <BinaryTree type="DecisionTree" boostWeight="1.0000000000000000e+00" itree="18">
      <Node pos="s" depth="0" NCoef="0" IVar="0" Cut="3.0099501609802246e+00" cType="1" res="1.1625648476183414e-03" rms="4.0339276194572449e-01" purity="5.0286293029785156e-01" nType="0">
        <Node pos="l" depth="1" NCoef="0" IVar="-1" Cut="0.0000000000000000e+00" cType="1" res="1.3105780817568302e-02" rms="3.9846962690353394e-01" purity="7.6181977987289429e-01" nType="1"/>
        <Node pos="r" depth="1" NCoef="0" IVar="4" Cut="2.0730922222137451e+00" cType="0" res="-1.5032327175140381e-01" rms="3.5687896609306335e-01" purity="1.6466020047664642e-01" nType="0">
          <Node pos="l" depth="2" NCoef="0" IVar="-1" Cut="0.0000000000000000e+00" cType="1" res="1.2129679089412093e-03" rms="4.5202571153640747e-01" purity="3.2093024253845215e-01" nType="-1"/>
          <Node pos="r" depth="2" NCoef="0" IVar="-1" Cut="0.0000000000000000e+00" cType="1" res="-2.1281415596604347e-02" rms="3.2515048980712891e-01" purity="1.3333334028720856e-01" nType="-1"/>
        </Node>
      </Node>
    </BinaryTree>
    <BinaryTree type="DecisionTree" boostWeight="1.0000000000000000e+00" itree="19">
      <Node pos="s" depth="0" NCoef="0" IVar="0" Cut="2.0348258018493652e+00" cType="1" res="1.0908178519457579e-03" rms="4.0113192796707153e-01" purity="5.0286293029785156e-01" nType="0">
        <Node pos="l" depth="1" NCoef="0" IVar="-1" Cut="0.0000000000000000e+00" cType="1" res="2.3606935515999794e-02" rms="2.8847071528434753e-01" purity="9.0839278697967529e-01" nType="1"/>
        <Node pos="r" depth="1" NCoef="0" IVar="5" Cut="-9.9004977941513062e-01" cType="0" res="-8.3374164998531342e-02" rms="4.1483339667320251e-01" purity="3.2320776581764221e-01" nType="0">
          <Node pos="l" depth="2" NCoef="0" IVar="-1" Cut="0.0000000000000000e+00" cType="1" res="1.9509117919369601e-05" rms="4.4271141290664673e-01" purity="4.3778234720230103e-01" nType="-1"/>
          <Node pos="r" depth="2" NCoef="0" IVar="-1" Cut="0.0000000000000000e+00" cType="1" res="-2.3684885352849960e-02" rms="3.3563712239265442e-01" purity="1.5714286267757416e-01" nType="-1"/>
        </Node>
      </Node>
    </BinaryTree>
    <BinaryTree type="DecisionTree" boostWeight="1.0000000000000000e+00" itree="20">
      <Node pos="s" depth="0" NCoef="0" IVar="0" Cut="3.0099501609802246e+00" cType="1" res="1.0490739950910211e-03" rms="3.9834871888160706e-01" purity="5.0286293029785156e-01" nType="0">
        <Node pos="l" depth="1" NCoef="0" IVar="-1" Cut="0.0000000000000000e+00" cType="1" res="1.2282026000320911e-02" rms="3.9629822969436646e-01" purity="7.6181977987289429e-01" nType="1"/>
        <Node pos="r" depth="1" NCoef="0" IVar="0" Cut="4.0248756408691406e+00" cType="1" res="-1.3853795826435089e-01" rms="3.5553652048110962e-01" purity="1.6466020047664642e-01" nType="0">
          <Node pos="l" depth="2" NCoef="0" IVar="-1" Cut="0.0000000000000000e+00" cType="1" res="-7.6336096972227097e-03" rms="4.2925292253494263e-01" purity="2.6555022597312927e-01" nType="-1"/>
          <Node pos="r" depth="2" NCoef="0" IVar="-1" Cut="0.0000000000000000e+00" cType="1" res="-2.5939889252185822e-02" rms="2.4929986894130707e-01" purity="6.8887203931808472e-02" nType="-1"/>
        </Node>
      </Node>
    </BinaryTree>
    <BinaryTree type="DecisionTree" boostWeight="1.0000000000000000e+00" itree="21">
      <Node pos="s" depth="0" NCoef="0" IVar="0" Cut="2.0348258018493652e+00" cType="1" res="9.7909069154411554e-04" rms="3.9637756347656250e-01" purity="5.0286293029785156e-01" nType="0">
        <Node pos="l" depth="1" NCoef="0" IVar="-1" Cut="0.0000000000000000e+00" cType="1" res="2.2553969174623489e-02" rms="2.8847071528434753e-01" purity="9.0839278697967529e-01" nType="1"/>
        <Node pos="r" depth="1" NCoef="0" IVar="3" Cut="2.3229522705078125e+02" cType="1" res="-7.7179722487926483e-02" rms="4.1225692629814148e-01" purity="3.2320776581764221e-01" nType="0">
          <Node pos="l" depth="2" NCoef="0" IVar="-1" Cut="0.0000000000000000e+00" cType="1" res="3.6530897486954927e-03" rms="4.3282580375671387e-01" purity="4.5272824168205261e-01" nType="-1"/>
          <Node pos="r" depth="2" NCoef="0" IVar="-1" Cut="0.0000000000000000e+00" cType="1" res="-1.9136784598231316e-02" rms="3.7125685811042786e-01" purity="2.1731448173522949e-01" nType="-1"/>
        </Node>
      </Node>
    </BinaryTree>
    <BinaryTree type="DecisionTree" boostWeight="1.0000000000000000e+00" itree="22">
      <Node pos="s" depth="0" NCoef="0" IVar="1" Cut="1.0248756408691406e+00" cType="1" res="9.4564142636954784e-04" rms="3.9386713504791260e-01" purity="5.0286293029785156e-01" nType="0">
        <Node pos="l" depth="1" NCoef="0" IVar="-1" Cut="0.0000000000000000e+00" cType="1" res="1.2975380755960941e-02" rms="3.6911347508430481e-01" purity="7.0345491170883179e-01" nType="1"/>
        <Node pos="r" depth="1" NCoef="0" IVar="3" Cut="2.3229522705078125e+02" cType="1" res="-1.1902287602424622e-01" rms="3.8572996854782104e-01" purity="2.7987197041511536e-01" nType="0">
          <Node pos="l" depth="2" NCoef="0" IVar="-1" Cut="0.0000000000000000e+00" cType="1" res="-1.0906660463660955e-03" rms="4.1278117895126343e-01" purity="4.2265427112579346e-01" nType="-1"/>
          <Node pos="r" depth="2" NCoef="0" IVar="-1" Cut="0.0000000000000000e+00" cType="1" res="-2.3573324084281921e-02" rms="3.4357145428657532e-01" purity="1.7618170380592346e-01" nType="-1"/>
        </Node>
      </Node>
    </BinaryTree>
    <BinaryTree type="DecisionTree" boostWeight="1.0000000000000000e+00" itree="23">
      <Node pos="s" depth="0" NCoef="0" IVar="6" Cut="1.1006355285644531e+00" cType="0" res="8.8999530998989940e-04" rms="3.9178487658500671e-01" purity="5.0286293029785156e-01" nType="0">
        <Node pos="l" depth="1" NCoef="0" IVar="-1" Cut="0.0000000000000000e+00" cType="1" res="8.2027716562151909e-03" rms="3.8079950213432312e-01" purity="5.9671068191528320e-01" nType="1"/>
        <Node pos="r" depth="1" NCoef="0" IVar="4" Cut="2.1200973987579346e+00" cType="0" res="-1.8029941618442535e-01" rms="3.6185801029205322e-01" purity="2.5293028354644775e-01" nType="0">
          <Node pos="l" depth="2" NCoef="0" IVar="-1" Cut="0.0000000000000000e+00" cType="1" res="9.2923901975154877e-03" rms="4.0820947289466858e-01" purity="5.8823531866073608e-01" nType="1"/>
          <Node pos="r" depth="2" NCoef="0" IVar="-1" Cut="0.0000000000000000e+00" cType="1" res="-2.3925995454192162e-02" rms="3.4982267022132874e-01" purity="2.2636485099792480e-01" nType="-1"/>
        </Node>
      </Node>
    </BinaryTree>
    <BinaryTree type="DecisionTree" boostWeight="1.0000000000000000e+00" itree="24">
      <Node pos="s" depth="0" NCoef="0" IVar="0" Cut="3.0099501609802246e+00" cType="1" res="8.3839124999940395e-04" rms="3.9005127549171448e-01" purity="5.0286293029785156e-01" nType="0">
        <Node pos="l" depth="1" NCoef="0" IVar="-1" Cut="0.0000000000000000e+00" cType="1" res="1.1239896528422832e-02" rms="3.9075350761413574e-01" purity="7.6181977987289429e-01" nType="1"/>
        <Node pos="r" depth="1" NCoef="0" IVar="4" Cut="2.0730922222137451e+00" cType="0" res="-1.2402678281068802e-01" rms="3.5198655724525452e-01" purity="1.6466020047664642e-01" nType="0">
          <Node pos="l" depth="2" NCoef="0" IVar="-1" Cut="0.0000000000000000e+00" cType="1" res="2.7147252112627029e-03" rms="4.4768309593200684e-01" purity="3.2093024253845215e-01" nType="-1"/>
          <Node pos="r" depth="2" NCoef="0" IVar="-1" Cut="0.0000000000000000e+00" cType="1" res="-1.8965655937790871e-02" rms="3.2153573632240295e-01" purity="1.3333334028720856e-01" nType="-1"/>
        </Node>
      </Node>
    </BinaryTree>
    <BinaryTree type="DecisionTree" boostWeight="1.0000000000000000e+00" itree="25">
      <Node pos="s" depth="0" NCoef="0" IVar="0" Cut="2.0348258018493652e+00" cType="1" res="7.8384176595136523e-04" rms="3.8848128914833069e-01" purity="5.0286293029785156e-01" nType="0">
        <Node pos="l" depth="1" NCoef="0" IVar="-1" Cut="0.0000000000000000e+00" cType="1" res="2.1187137812376022e-02" rms="2.8606885671615601e-01" purity="9.0839278697967529e-01" nType="1"/>
        <Node pos="r" depth="1" NCoef="0" IVar="5" Cut="-9.9004977941513062e-01" cType="0" res="-6.9408461451530457e-02" rms="4.0678453445434570e-01" purity="3.2320776581764221e-01" nType="0">
          <Node pos="l" depth="2" NCoef="0" IVar="-1" Cut="0.0000000000000000e+00" cType="1" res="8.8915909873321652e-04" rms="4.3458306789398193e-01" purity="4.3778234720230103e-01" nType="-1"/>
          <Node pos="r" depth="2" NCoef="0" IVar="-1" Cut="0.0000000000000000e+00" cType="1" res="-2.2038636729121208e-02" rms="3.3215931057929993e-01" purity="1.5714286267757416e-01" nType="-1"/>
        </Node>
      </Node>
    </BinaryTree>
    <BinaryTree type="DecisionTree" boostWeight="1.0000000000000000e+00" itree="26">
      <Node pos="s" depth="0" NCoef="0" IVar="6" Cut="1.1006355285644531e+00" cType="0" res="7.5423467205837369e-04" rms="3.8635820150375366e-01" purity="5.0286293029785156e-01" nType="0">
        <Node pos="l" depth="1" NCoef="0" IVar="-1" Cut="0.0000000000000000e+00" cType="1" res="7.7794729731976986e-03" rms="3.7702673673629761e-01" purity="5.9671068191528320e-01" nType="1"/>
        <Node pos="r" depth="1" NCoef="0" IVar="3" Cut="2.5434526062011719e+02" cType="1" res="-1.6794954240322113e-01" rms="3.5929921269416809e-01" purity="2.5293028354644775e-01" nType="0">
          <Node pos="l" depth="2" NCoef="0" IVar="-1" Cut="0.0000000000000000e+00" cType="1" res="-1.2042783200740814e-02" rms="3.8427487015724182e-01" purity="3.5371702909469604e-01" nType="-1"/>
          <Node pos="r" depth="2" NCoef="0" IVar="-1" Cut="0.0000000000000000e+00" cType="1" res="-2.9705019667744637e-02" rms="3.1501823663711548e-01" purity="1.4612452685832977e-01" nType="-1"/>
        </Node>
      </Node>
    </BinaryTree>
    <BinaryTree type="DecisionTree" boostWeight="1.0000000000000000e+00" itree="27">
      <Node pos="s" depth="0" NCoef="0" IVar="1" Cut="1.0248756408691406e+00" cType="1" res="7.0721778320148587e-04" rms="3.8482058048248291e-01" purity="5.0286293029785156e-01" nType="0">
        <Node pos="l" depth="1" NCoef="0" IVar="-1" Cut="0.0000000000000000e+00" cType="1" res="1.1925081722438335e-02" rms="3.6300224065780640e-01" purity="7.0345491170883179e-01" nType="1"/>
        <Node pos="r" depth="1" NCoef="0" IVar="3" Cut="2.3229522705078125e+02" cType="1" res="-1.0641401261091232e-01" rms="3.8003656268119812e-01" purity="2.7987197041511536e-01" nType="0">
          <Node pos="l" depth="2" NCoef="0" IVar="-1" Cut="0.0000000000000000e+00" cType="1" res="-7.0356222568079829e-04" rms="4.0743628144264221e-01" purity="4.2265427112579346e-01" nType="-1"/>
          <Node pos="r" depth="2" NCoef="0" IVar="-1" Cut="0.0000000000000000e+00" cType="1" res="-2.2071022540330887e-02" rms="3.4074941277503967e-01" purity="1.7618170380592346e-01" nType="-1"/>
        </Node>
      </Node>
    </BinaryTree>
    <BinaryTree type="DecisionTree" boostWeight="1.0000000000000000e+00" itree="28">
      <Node pos="s" depth="0" NCoef="0" IVar="0" Cut="3.0099501609802246e+00" cType="1" res="6.6361983772367239e-04" rms="3.8311228156089783e-01" purity="5.0286293029785156e-01" nType="0">
        <Node pos="l" depth="1" NCoef="0" IVar="-1" Cut="0.0000000000000000e+00" cType="1" res="1.0301648639142513e-02" rms="3.8589534163475037e-01" purity="7.6181977987289429e-01" nType="1"/>
        <Node pos="r" depth="1" NCoef="0" IVar="0" Cut="4.0248756408691406e+00" cType="1" res="-1.1114021390676498e-01" rms="3.4915417432785034e-01" purity="1.6466020047664642e-01" nType="0">
          <Node pos="l" depth="2" NCoef="0" IVar="-1" Cut="0.0000000000000000e+00" cType="1" res="-5.2973572164773941e-03" rms="4.2184478044509888e-01" purity="2.6555022597312927e-01" nType="-1"/>
          <Node pos="r" depth="2" NCoef="0" IVar="-1" Cut="0.0000000000000000e+00" cType="1" res="-2.3835266008973122e-02" rms="2.4615500867366791e-01" purity="6.8887203931808472e-02" nType="-1"/>
        </Node>
      </Node>
    </BinaryTree>
    <BinaryTree type="DecisionTree" boostWeight="1.0000000000000000e+00" itree="29">
      <Node pos="s" depth="0" NCoef="0" IVar="6" Cut="1.1006355285644531e+00" cType="0" res="6.1421946156769991e-04" rms="3.8179466128349304e-01" purity="5.0286293029785156e-01" nType="0">
        <Node pos="l" depth="1" NCoef="0" IVar="-1" Cut="0.0000000000000000e+00" cType="1" res="7.3804622516036034e-03" rms="3.7381142377853394e-01" purity="5.9671068191528320e-01" nType="1"/>
        <Node pos="r" depth="1" NCoef="0" IVar="4" Cut="2.1200973987579346e+00" cType="0" res="-1.5713468194007874e-01" rms="3.5721582174301147e-01" purity="2.5293028354644775e-01" nType="0">
          <Node pos="l" depth="2" NCoef="0" IVar="-1" Cut="0.0000000000000000e+00" cType="1" res="9.5577118918299675e-03" rms="4.0332737565040588e-01" purity="5.8823531866073608e-01" nType="1"/>
          <Node pos="r" depth="2" NCoef="0" IVar="-1" Cut="0.0000000000000000e+00" cType="1" res="-2.2028066217899323e-02" rms="3.4650719165802002e-01" purity="2.2636485099792480e-01" nType="-1"/>
        </Node>
      </Node>
    </BinaryTree>
    <BinaryTree type="DecisionTree" boostWeight="1.0000000000000000e+00" itree="30">
      <Node pos="s" depth="0" NCoef="0" IVar="5" Cut="-9.9004977941513062e-01" cType="0" res="5.7651166571304202e-04" rms="3.8043475151062012e-01" purity="5.0286293029785156e-01" nType="0">
        <Node pos="l" depth="1" NCoef="0" IVar="-1" Cut="0.0000000000000000e+00" cType="1" res="8.5181174799799919e-03" rms="3.7725317478179932e-01" purity="6.2331956624984741e-01" nType="1"/>
        <Node pos="r" depth="1" NCoef="0" IVar="0" Cut="2.0348258018493652e+00" cType="1" res="-1.2862785160541534e-01" rms="3.5157859325408936e-01" purity="2.7777779102325439e-01" nType="0">
          <Node pos="l" depth="2" NCoef="0" IVar="-1" Cut="0.0000000000000000e+00" cType="1" res="4.7555211931467056e-03" rms="3.9455845952033997e-01" purity="7.9743587970733643e-01" nType="1"/>
          <Node pos="r" depth="2" NCoef="0" IVar="-1" Cut="0.0000000000000000e+00" cType="1" res="-2.0904308184981346e-02" rms="3.2949516177177429e-01" purity="1.5714286267757416e-01" nType="-1"/>
        </Node>
      </Node>
    </BinaryTree>
    <BinaryTree type="DecisionTree" boostWeight="1.0000000000000000e+00" itree="31">
      <Node pos="s" depth="0" NCoef="0" IVar="3" Cut="2.5433094787597656e+02" cType="1" res="5.3468730766326189e-04" rms="3.7903434038162231e-01" purity="5.0286293029785156e-01" nType="0">
        <Node pos="l" depth="1" NCoef="0" IVar="-1" Cut="0.0000000000000000e+00" cType="1" res="9.4693480059504509e-03" rms="3.6725786328315735e-01" purity="6.2378168106079102e-01" nType="1"/>
        <Node pos="r" depth="1" NCoef="0" IVar="2" Cut="2.7201757431030273e+00" cType="0" res="-1.1543539166450500e-01" rms="3.6725333333015442e-01" purity="3.1785258650779724e-01" nType="0">
          <Node pos="l" depth="2" NCoef="0" IVar="-1" Cut="0.0000000000000000e+00" cType="1" res="-3.6899722181260586e-03" rms="3.9207226037979126e-01" purity="4.7359597682952881e-01" nType="-1"/>
          <Node pos="r" depth="2" NCoef="0" IVar="-1" Cut="0.0000000000000000e+00" cType="1" res="-2.5862123817205429e-02" rms="3.1605002284049988e-01" purity="1.5684574842453003e-01" nType="-1"/>
        </Node>
      </Node>
    </BinaryTree>
    <BinaryTree type="DecisionTree" boostWeight="1.0000000000000000e+00" itree="32">
      <Node pos="s" depth="0" NCoef="0" IVar="1" Cut="1.0248756408691406e+00" cType="1" res="4.9718556692823768e-04" rms="3.7748610973358154e-01" purity="5.0286293029785156e-01" nType="0">
        <Node pos="l" depth="1" NCoef="0" IVar="-1" Cut="0.0000000000000000e+00" cType="1" res="1.1032842099666595e-02" rms="3.5799270868301392e-01" purity="7.0345491170883179e-01" nType="1"/>
        <Node pos="r" depth="1" NCoef="0" IVar="4" Cut="-2.0139315128326416e+00" cType="1" res="-9.6332229673862457e-02" rms="3.7499809265136719e-01" purity="2.7987197041511536e-01" nType="0">
          <Node pos="l" depth="2" NCoef="0" IVar="-1" Cut="0.0000000000000000e+00" cType="1" res="7.3739248327910900e-03" rms="4.1306471824645996e-01" purity="5.0816696882247925e-01" nType="1"/>
          <Node pos="r" depth="2" NCoef="0" IVar="-1" Cut="0.0000000000000000e+00" cType="1" res="-1.7054524272680283e-02" rms="3.5442107915878296e-01" purity="2.2423706948757172e-01" nType="-1"/>
        </Node>
      </Node>
    </BinaryTree>
    <BinaryTree type="DecisionTree" boostWeight="1.0000000000000000e+00" itree="33">
      <Node pos="s" depth="0" NCoef="0" IVar="6" Cut="1.3756937980651855e+00" cType="0" res="4.6669959556311369e-04" rms="3.7606683373451233e-01" purity="5.0286293029785156e-01" nType="0">
        <Node pos="l" depth="1" NCoef="0" IVar="-1" Cut="0.0000000000000000e+00" cType="1" res="8.3695808425545692e-03" rms="3.6456319689750671e-01" purity="6.1598539352416992e-01" nType="1"/>
        <Node pos="r" depth="1" NCoef="0" IVar="4" Cut="-2.0566511154174805e+00" cType="1" res="-1.2092903256416321e-01" rms="3.6640059947967529e-01" purity="2.9566046595573425e-01" nType="0">
          <Node pos="l" depth="2" NCoef="0" IVar="-1" Cut="0.0000000000000000e+00" cType="1" res="1.4836286194622517e-02" rms="3.6343142390251160e-01" purity="6.5753424167633057e-01" nType="1"/>
          <Node pos="r" depth="2" NCoef="0" IVar="-1" Cut="0.0000000000000000e+00" cType="1" res="-1.9015150144696236e-02" rms="3.5604563355445862e-01" purity="2.5346112251281738e-01" nType="-1"/>
        </Node>
      </Node>
    </BinaryTree>
    <BinaryTree type="DecisionTree" boostWeight="1.0000000000000000e+00" itree="34">
      <Node pos="s" depth="0" NCoef="0" IVar="0" Cut="2.0348258018493652e+00" cType="1" res="4.3794931843876839e-04" rms="3.7469723820686340e-01" purity="5.0286293029785156e-01" nType="0">
        <Node pos="l" depth="1" NCoef="0" IVar="-1" Cut="0.0000000000000000e+00" cType="1" res="1.9199214875698090e-02" rms="2.7971735596656799e-01" purity="9.0839278697967529e-01" nType="1"/>
        <Node pos="r" depth="1" NCoef="0" IVar="4" Cut="2.4053664207458496e+00" cType="0" res="-5.8633491396903992e-02" rms="3.9568680524826050e-01" purity="3.2320776581764221e-01" nType="0">
          <Node pos="l" depth="2" NCoef="0" IVar="-1" Cut="0.0000000000000000e+00" cType="1" res="1.6772260889410973e-02" rms="4.1846269369125366e-01" purity="5.9966218471527100e-01" nType="1"/>
          <Node pos="r" depth="2" NCoef="0" IVar="-1" Cut="0.0000000000000000e+00" cType="1" res="-1.1343264952301979e-02" rms="3.8071972131729126e-01" purity="2.7675276994705200e-01" nType="-1"/>
        </Node>
      </Node>
    </BinaryTree>
    <BinaryTree type="DecisionTree" boostWeight="1.0000000000000000e+00" itree="35">
      <Node pos="s" depth="0" NCoef="0" IVar="5" Cut="-9.9004977941513062e-01" cType="0" res="4.3001491576433182e-04" rms="3.7309229373931885e-01" purity="5.0286293029785156e-01" nType="0">
        <Node pos="l" depth="1" NCoef="0" IVar="-1" Cut="0.0000000000000000e+00" cType="1" res="8.0279251560568810e-03" rms="3.7134873867034912e-01" purity="6.2331956624984741e-01" nType="1"/>
        <Node pos="r" depth="1" NCoef="0" IVar="4" Cut="-2.2420785427093506e+00" cType="1" res="-1.1887519806623459e-01" rms="3.4608122706413269e-01" purity="2.7777779102325439e-01" nType="0">
          <Node pos="l" depth="2" NCoef="0" IVar="-1" Cut="0.0000000000000000e+00" cType="1" res="4.3172738514840603e-03" rms="3.7607115507125854e-01" purity="5.5898874998092651e-01" nType="1"/>
          <Node pos="r" depth="2" NCoef="0" IVar="-1" Cut="0.0000000000000000e+00" cType="1" res="-2.0145146176218987e-02" rms="3.3069694042205811e-01" purity="2.1936988830566406e-01" nType="-1"/>
        </Node>
      </Node>
    </BinaryTree>
    <BinaryTree type="DecisionTree" boostWeight="1.0000000000000000e+00" itree="36">
      <Node pos="s" depth="0" NCoef="0" IVar="3" Cut="2.3229522705078125e+02" cType="1" res="4.0045334026217461e-04" rms="3.7185049057006836e-01" purity="5.0286293029785156e-01" nType="0">
        <Node pos="l" depth="1" NCoef="0" IVar="-1" Cut="0.0000000000000000e+00" cType="1" res="1.0885545983910561e-02" rms="3.5453197360038757e-01" purity="6.4877402782440186e-01" nType="1"/>
        <Node pos="r" depth="1" NCoef="0" IVar="2" Cut="2.7357800006866455e+00" cType="0" res="-8.7852098047733307e-02" rms="3.6871495842933655e-01" purity="3.5205480456352234e-01" nType="0">
          <Node pos="l" depth="2" NCoef="0" IVar="-1" Cut="0.0000000000000000e+00" cType="1" res="-8.4229942876845598e-04" rms="3.8499850034713745e-01" purity="5.1060819625854492e-01" nType="1"/>
          <Node pos="r" depth="2" NCoef="0" IVar="-1" Cut="0.0000000000000000e+00" cType="1" res="-2.1296937018632889e-02" rms="3.3527961373329163e-01" purity="2.0318725705146790e-01" nType="-1"/>
        </Node>
      </Node>
    </BinaryTree>
    <BinaryTree type="DecisionTree" boostWeight="1.0000000000000000e+00" itree="37">
      <Node pos="s" depth="0" NCoef="0" IVar="3" Cut="2.5433094787597656e+02" cType="1" res="3.7288706516847014e-04" rms="3.7043914198875427e-01" purity="5.0286293029785156e-01" nType="0">
        <Node pos="l" depth="1" NCoef="0" IVar="-1" Cut="0.0000000000000000e+00" cType="1" res="8.6028743535280228e-03" rms="3.6126139760017395e-01" purity="6.2378168106079102e-01" nType="1"/>
        <Node pos="r" depth="1" NCoef="0" IVar="2" Cut="2.7045712471008301e+00" cType="0" res="-1.0255058109760284e-01" rms="3.6053177714347839e-01" purity="3.1785258650779724e-01" nType="0">
          <Node pos="l" depth="2" NCoef="0" IVar="-1" Cut="0.0000000000000000e+00" cType="1" res="-3.7160171195864677e-03" rms="3.8503333926200867e-01" purity="4.7087776660919189e-01" nType="-1"/>
          <Node pos="r" depth="2" NCoef="0" IVar="-1" Cut="0.0000000000000000e+00" cType="1" res="-2.4104708805680275e-02" rms="3.1327998638153076e-01" purity="1.5248227119445801e-01" nType="-1"/>
        </Node>
      </Node>
    </BinaryTree>
    <BinaryTree type="DecisionTree" boostWeight="1.0000000000000000e+00" itree="38">
      <Node pos="s" depth="0" NCoef="0" IVar="6" Cut="1.1006355285644531e+00" cType="0" res="3.4414729452691972e-04" rms="3.6920171976089478e-01" purity="5.0286293029785156e-01" nType="0">
        <Node pos="l" depth="1" NCoef="0" IVar="-1" Cut="0.0000000000000000e+00" cType="1" res="6.4948964864015579e-03" rms="3.6360925436019897e-01" purity="5.9671068191528320e-01" nType="1"/>
        <Node pos="r" depth="1" NCoef="0" IVar="4" Cut="2.0192036628723145e+00" cType="0" res="-1.3416761159896851e-01" rms="3.4976679086685181e-01" purity="2.5293028354644775e-01" nType="0">
          <Node pos="l" depth="2" NCoef="0" IVar="-1" Cut="0.0000000000000000e+00" cType="1" res="7.7387071214616299e-03" rms="3.9999091625213623e-01" purity="5.5944055318832397e-01" nType="1"/>
          <Node pos="r" depth="2" NCoef="0" IVar="-1" Cut="0.0000000000000000e+00" cType="1" res="-2.0183837041258812e-02" rms="3.3854365348815918e-01" purity="2.2327469289302826e-01" nType="-1"/>
        </Node>
      </Node>
    </BinaryTree>
    <BinaryTree type="DecisionTree" boostWeight="1.0000000000000000e+00" itree="39">
      <Node pos="s" depth="0" NCoef="0" IVar="0" Cut="3.0099501609802246e+00" cType="1" res="3.2034458126872778e-04" rms="3.6816239356994629e-01" purity="5.0286293029785156e-01" nType="0">
        <Node pos="l" depth="1" NCoef="0" IVar="-1" Cut="0.0000000000000000e+00" cType="1" res="8.9925779029726982e-03" rms="3.7204277515411377e-01" purity="7.6181977987289429e-01" nType="1"/>
        <Node pos="r" depth="1" NCoef="0" IVar="0" Cut="4.0248756408691406e+00" cType="1" res="-9.3200728297233582e-02" rms="3.4110006690025330e-01" purity="1.6466020047664642e-01" nType="0">
          <Node pos="l" depth="2" NCoef="0" IVar="-1" Cut="0.0000000000000000e+00" cType="1" res="-3.9537395350635052e-03" rms="4.1153496503829956e-01" purity="2.6555022597312927e-01" nType="-1"/>
          <Node pos="r" depth="2" NCoef="0" IVar="-1" Cut="0.0000000000000000e+00" cType="1" res="-2.2415921092033386e-02" rms="2.4322500824928284e-01" purity="6.8887203931808472e-02" nType="-1"/>
        </Node>
      </Node>
    </BinaryTree>
    <BinaryTree type="DecisionTree" boostWeight="1.0000000000000000e+00" itree="40">
      <Node pos="s" depth="0" NCoef="0" IVar="5" Cut="-9.9004977941513062e-01" cType="0" res="2.8966026729904115e-04" rms="3.6721175909042358e-01" purity="5.0286293029785156e-01" nType="0">
        <Node pos="l" depth="1" NCoef="0" IVar="-1" Cut="0.0000000000000000e+00" cType="1" res="7.6023493893444538e-03" rms="3.6645761132240295e-01" purity="6.2331956624984741e-01" nType="1"/>
        <Node pos="r" depth="1" NCoef="0" IVar="4" Cut="-1.9477640390396118e+00" cType="1" res="-1.1063818633556366e-01" rms="3.4203541278839111e-01" purity="2.7777779102325439e-01" nType="0">
          <Node pos="l" depth="2" NCoef="0" IVar="-1" Cut="0.0000000000000000e+00" cType="1" res="1.4156003016978502e-03" rms="3.6759376525878906e-01" purity="5.1868134737014771e-01" nType="1"/>
          <Node pos="r" depth="2" NCoef="0" IVar="-1" Cut="0.0000000000000000e+00" cType="1" res="-1.9963456317782402e-02" rms="3.2639139890670776e-01" purity="2.0990711450576782e-01" nType="-1"/>
        </Node>
      </Node>
    </BinaryTree>
    <BinaryTree type="DecisionTree" boostWeight="1.0000000000000000e+00" itree="41">
      <Node pos="s" depth="0" NCoef="0" IVar="4" Cut="-2.2387492656707764e+00" cType="1" res="2.6740576140582561e-04" rms="3.6611694097518921e-01" purity="5.0286293029785156e-01" nType="0">
        <Node pos="l" depth="1" NCoef="0" IVar="-1" Cut="0.0000000000000000e+00" cType="1" res="1.8786706030368805e-02" rms="3.1662693619728088e-01" purity="7.7476155757904053e-01" nType="1"/>
        <Node pos="r" depth="1" NCoef="0" IVar="4" Cut="2.0286877155303955e+00" cType="0" res="-4.2980626225471497e-02" rms="3.6872705817222595e-01" purity="4.2185792326927185e-01" nType="0">
          <Node pos="l" depth="2" NCoef="0" IVar="-1" Cut="0.0000000000000000e+00" cType="1" res="1.6987930983304977e-02" rms="3.3595767617225647e-01" purity="7.2625327110290527e-01" nType="1"/>
          <Node pos="r" depth="2" NCoef="0" IVar="-1" Cut="0.0000000000000000e+00" cType="1" res="-1.6921844333410263e-02" rms="3.5377797484397888e-01" purity="2.7100360393524170e-01" nType="-1"/>
        </Node>
      </Node>
    </BinaryTree>
    <BinaryTree type="DecisionTree" boostWeight="1.0000000000000000e+00" itree="42">
      <Node pos="s" depth="0" NCoef="0" IVar="1" Cut="1.0248756408691406e+00" cType="1" res="2.5647255824878812e-04" rms="3.6369404196739197e-01" purity="5.0286293029785156e-01" nType="0">
        <Node pos="l" depth="1" NCoef="0" IVar="-1" Cut="0.0000000000000000e+00" cType="1" res="9.7825946286320686e-03" rms="3.4639558196067810e-01" purity="7.0345491170883179e-01" nType="1"/>
        <Node pos="r" depth="1" NCoef="0" IVar="7" Cut="7.9022422790527344e+01" cType="1" res="-8.1543624401092529e-02" rms="3.6499050259590149e-01" purity="2.7987197041511536e-01" nType="0">
          <Node pos="l" depth="2" NCoef="0" IVar="-1" Cut="0.0000000000000000e+00" cType="1" res="-4.9401039723306894e-04" rms="3.8729286193847656e-01" purity="4.0097010135650635e-01" nType="-1"/>
          <Node pos="r" depth="2" NCoef="0" IVar="-1" Cut="0.0000000000000000e+00" cType="1" res="-1.9040878862142563e-02" rms="3.3405151963233948e-01" purity="1.8476191163063049e-01" nType="-1"/>
        </Node>
      </Node>
    </BinaryTree>
    <BinaryTree type="DecisionTree" boostWeight="1.0000000000000000e+00" itree="43">
      <Node pos="s" depth="0" NCoef="0" IVar="3" Cut="2.3229522705078125e+02" cType="1" res="2.3753951245453209e-04" rms="3.6262199282646179e-01" purity="5.0286293029785156e-01" nType="0">
        <Node pos="l" depth="1" NCoef="0" IVar="-1" Cut="0.0000000000000000e+00" cType="1" res="9.7860386595129967e-03" rms="3.4806564450263977e-01" purity="6.4877402782440186e-01" nType="1"/>
        <Node pos="r" depth="1" NCoef="0" IVar="4" Cut="2.8729324340820312e+00" cType="0" res="-7.6851978898048401e-02" rms="3.6123999953269958e-01" purity="3.5205480456352234e-01" nType="0">
          <Node pos="l" depth="2" NCoef="0" IVar="-1" Cut="0.0000000000000000e+00" cType="1" res="1.9199602305889130e-02" rms="3.1552124023437500e-01" purity="7.4264705181121826e-01" nType="1"/>
          <Node pos="r" depth="2" NCoef="0" IVar="-1" Cut="0.0000000000000000e+00" cType="1" res="-1.3303481973707676e-02" rms="3.5793846845626831e-01" purity="3.1193354725837708e-01" nType="-1"/>
        </Node>
      </Node>
    </BinaryTree>
    <BinaryTree type="DecisionTree" boostWeight="1.0000000000000000e+00" itree="44">
      <Node pos="s" depth="0" NCoef="0" IVar="5" Cut="-9.9004977941513062e-01" cType="0" res="2.2496850579045713e-04" rms="3.6149939894676208e-01" purity="5.0286293029785156e-01" nType="0">
        <Node pos="l" depth="1" NCoef="0" IVar="-1" Cut="0.0000000000000000e+00" cType="1" res="7.1706804446876049e-03" rms="3.6177575588226318e-01" purity="6.2331956624984741e-01" nType="1"/>
        <Node pos="r" depth="1" NCoef="0" IVar="0" Cut="2.0348258018493652e+00" cType="1" res="-1.0276705026626587e-01" rms="3.3767488598823547e-01" purity="2.7777779102325439e-01" nType="0">
          <Node pos="l" depth="2" NCoef="0" IVar="-1" Cut="0.0000000000000000e+00" cType="1" res="3.2227197661995888e-03" rms="3.7972474098205566e-01" purity="7.9743587970733643e-01" nType="1"/>
          <Node pos="r" depth="2" NCoef="0" IVar="-1" Cut="0.0000000000000000e+00" cType="1" res="-1.8053514882922173e-02" rms="3.2023653388023376e-01" purity="1.5714286267757416e-01" nType="-1"/>
        </Node>
      </Node>
    </BinaryTree>
    <BinaryTree type="DecisionTree" boostWeight="1.0000000000000000e+00" itree="45">
      <Node pos="s" depth="0" NCoef="0" IVar="4" Cut="-2.0412869453430176e+00" cType="1" res="2.0356103777885437e-04" rms="3.6059057712554932e-01" purity="5.0286293029785156e-01" nType="0">
        <Node pos="l" depth="1" NCoef="0" IVar="-1" Cut="0.0000000000000000e+00" cType="1" res="1.6512693837285042e-02" rms="3.2272493839263916e-01" purity="7.4725276231765747e-01" nType="1"/>
        <Node pos="r" depth="1" NCoef="0" IVar="4" Cut="2.0739874839782715e+00" cType="0" res="-4.3922562152147293e-02" rms="3.6286020278930664e-01" purity="4.1676154732704163e-01" nType="0">
          <Node pos="l" depth="2" NCoef="0" IVar="-1" Cut="0.0000000000000000e+00" cType="1" res="1.6327442601323128e-02" rms="3.3108097314834595e-01" purity="7.3220336437225342e-01" nType="1"/>
          <Node pos="r" depth="2" NCoef="0" IVar="-1" Cut="0.0000000000000000e+00" cType="1" res="-1.7181929200887680e-02" rms="3.4881711006164551e-01" purity="2.5720164179801941e-01" nType="-1"/>
        </Node>
      </Node>
    </BinaryTree>
    <BinaryTree type="DecisionTree" boostWeight="1.0000000000000000e+00" itree="46">
      <Node pos="s" depth="0" NCoef="0" IVar="0" Cut="4.0199003219604492e+00" cType="1" res="1.9360946316737682e-04" rms="3.5838726162910461e-01" purity="5.0286293029785156e-01" nType="0">
        <Node pos="l" depth="1" NCoef="0" IVar="-1" Cut="0.0000000000000000e+00" cType="1" res="5.0176740624010563e-03" rms="3.7632936239242554e-01" purity="6.2703055143356323e-01" nType="1"/>
        <Node pos="r" depth="1" NCoef="0" IVar="0" Cut="5.0199003219604492e+00" cType="1" res="-1.3569401204586029e-01" rms="2.4211420118808746e-01" purity="6.8887203931808472e-02" nType="0">
          <Node pos="l" depth="2" NCoef="0" IVar="-1" Cut="0.0000000000000000e+00" cType="1" res="-1.6786338761448860e-02" rms="2.8197109699249268e-01" purity="9.9226802587509155e-02" nType="-1"/>
          <Node pos="r" depth="2" NCoef="0" IVar="-1" Cut="0.0000000000000000e+00" cType="1" res="-2.8122952207922935e-02" rms="1.6123096644878387e-01" purity="2.5688072666525841e-02" nType="-1"/>
        </Node>
      </Node>
    </BinaryTree>
    <BinaryTree type="DecisionTree" boostWeight="1.0000000000000000e+00" itree="47">
      <Node pos="s" depth="0" NCoef="0" IVar="0" Cut="2.0348258018493652e+00" cType="1" res="1.6563317331019789e-04" rms="3.5767704248428345e-01" purity="5.0286293029785156e-01" nType="0">
        <Node pos="l" depth="1" NCoef="0" IVar="-1" Cut="0.0000000000000000e+00" cType="1" res="1.6974618658423424e-02" rms="2.7055680751800537e-01" purity="9.0839278697967529e-01" nType="1"/>
        <Node pos="r" depth="1" NCoef="0" IVar="4" Cut="2.4053664207458496e+00" cType="0" res="-4.7287829220294952e-02" rms="3.8058510422706604e-01" purity="3.2320776581764221e-01" nType="0">
          <Node pos="l" depth="2" NCoef="0" IVar="-1" Cut="0.0000000000000000e+00" cType="1" res="1.3886928558349609e-02" rms="4.0669140219688416e-01" purity="5.9966218471527100e-01" nType="1"/>
          <Node pos="r" depth="2" NCoef="0" IVar="-1" Cut="0.0000000000000000e+00" cType="1" res="-9.7204465419054031e-03" rms="3.6855766177177429e-01" purity="2.7675276994705200e-01" nType="-1"/>
        </Node>
      </Node>
    </BinaryTree>
    <BinaryTree type="DecisionTree" boostWeight="1.0000000000000000e+00" itree="48">
      <Node pos="s" depth="0" NCoef="0" IVar="3" Cut="2.5433094787597656e+02" cType="1" res="1.6883599164430052e-04" rms="3.5663849115371704e-01" purity="5.0286293029785156e-01" nType="0">
        <Node pos="l" depth="1" NCoef="0" IVar="-1" Cut="0.0000000000000000e+00" cType="1" res="7.7065774239599705e-03" rms="3.4927403926849365e-01" purity="6.2378168106079102e-01" nType="1"/>
        <Node pos="r" depth="1" NCoef="0" IVar="2" Cut="2.7045712471008301e+00" cType="0" res="-8.7346732616424561e-02" rms="3.4997209906578064e-01" purity="3.1785258650779724e-01" nType="0">
          <Node pos="l" depth="2" NCoef="0" IVar="-1" Cut="0.0000000000000000e+00" cType="1" res="-3.2902099192142487e-03" rms="3.7263754010200500e-01" purity="4.7087776660919189e-01" nType="-1"/>
          <Node pos="r" depth="2" NCoef="0" IVar="-1" Cut="0.0000000000000000e+00" cType="1" res="-2.2229908034205437e-02" rms="3.0971482396125793e-01" purity="1.5248227119445801e-01" nType="-1"/>
        </Node>
      </Node>
    </BinaryTree>
    <BinaryTree type="DecisionTree" boostWeight="1.0000000000000000e+00" itree="49">
      <Node pos="s" depth="0" NCoef="0" IVar="4" Cut="-2.2387492656707764e+00" cType="1" res="1.5177021850831807e-04" rms="3.5569140315055847e-01" purity="5.0286293029785156e-01" nType="0">
        <Node pos="l" depth="1" NCoef="0" IVar="-1" Cut="0.0000000000000000e+00" cType="1" res="1.7406916245818138e-02" rms="3.1171503663063049e-01" purity="7.7476155757904053e-01" nType="1"/>
        <Node pos="r" depth="1" NCoef="0" IVar="4" Cut="2.0286877155303955e+00" cType="0" res="-3.8201849907636642e-02" rms="3.5895955562591553e-01" purity="4.2185792326927185e-01" nType="0">
          <Node pos="l" depth="2" NCoef="0" IVar="-1" Cut="0.0000000000000000e+00" cType="1" res="1.4851991087198257e-02" rms="3.3059817552566528e-01" purity="7.2625327110290527e-01" nType="1"/>
          <Node pos="r" depth="2" NCoef="0" IVar="-1" Cut="0.0000000000000000e+00" cType="1" res="-1.5215659514069557e-02" rms="3.4998235106468201e-01" purity="2.7100360393524170e-01" nType="-1"/>
        </Node>
      </Node>
    </BinaryTree>
    <BinaryTree type="DecisionTree" boostWeight="1.0000000000000000e+00" itree="50">
      <Node pos="s" depth="0" NCoef="0" IVar="5" Cut="-9.9004977941513062e-01" cType="0" res="1.4633152750320733e-04" rms="3.5384401679039001e-01" purity="5.0286293029785156e-01" nType="0">
        <Node pos="l" depth="1" NCoef="0" IVar="-1" Cut="0.0000000000000000e+00" cType="1" res="6.7668566480278969e-03" rms="3.5472449660301208e-01" purity="6.2331956624984741e-01" nType="1"/>
        <Node pos="r" depth="1" NCoef="0" IVar="3" Cut="2.7252291870117188e+02" cType="1" res="-9.4145059585571289e-02" rms="3.3225122094154358e-01" purity="2.7777779102325439e-01" nType="0">
          <Node pos="l" depth="2" NCoef="0" IVar="-1" Cut="0.0000000000000000e+00" cType="1" res="-7.5182081200182438e-03" rms="3.4759283065795898e-01" purity="3.5966256260871887e-01" nType="-1"/>
          <Node pos="r" depth="2" NCoef="0" IVar="-1" Cut="0.0000000000000000e+00" cType="1" res="-2.4767562747001648e-02" rms="2.9178661108016968e-01" purity="1.3838119804859161e-01" nType="-1"/>
        </Node>
      </Node>
    </BinaryTree>
    <BinaryTree type="DecisionTree" boostWeight="1.0000000000000000e+00" itree="51">
      <Node pos="s" depth="0" NCoef="0" IVar="4" Cut="-2.0412869453430176e+00" cType="1" res="1.3168445730116218e-04" rms="3.5301104187965393e-01" purity="5.0286293029785156e-01" nType="0">
        <Node pos="l" depth="1" NCoef="0" IVar="-1" Cut="0.0000000000000000e+00" cType="1" res="1.5354061499238014e-02" rms="3.1909525394439697e-01" purity="7.4725276231765747e-01" nType="1"/>
        <Node pos="r" depth="1" NCoef="0" IVar="4" Cut="1.7949863672256470e+00" cType="0" res="-3.9566691964864731e-02" rms="3.5580691695213318e-01" purity="4.1676154732704163e-01" nType="0">
          <Node pos="l" depth="2" NCoef="0" IVar="-1" Cut="0.0000000000000000e+00" cType="1" res="1.1806018650531769e-02" rms="3.4103238582611084e-01" purity="6.8332397937774658e-01" nType="1"/>
          <Node pos="r" depth="2" NCoef="0" IVar="-1" Cut="0.0000000000000000e+00" cType="1" res="-1.7449539154767990e-02" rms="3.3975642919540405e-01" purity="2.3486590385437012e-01" nType="-1"/>
        </Node>
      </Node>
    </BinaryTree>
    <BinaryTree type="DecisionTree" boostWeight="1.0000000000000000e+00" itree="52">
      <Node pos="s" depth="0" NCoef="0" IVar="0" Cut="4.0199003219604492e+00" cType="1" res="1.2212104047648609e-04" rms="3.5124102234840393e-01" purity="5.0286293029785156e-01" nType="0">
        <Node pos="l" depth="1" NCoef="0" IVar="-1" Cut="0.0000000000000000e+00" cType="1" res="4.6654231846332550e-03" rms="3.6941882967948914e-01" purity="6.2703055143356323e-01" nType="1"/>
        <Node pos="r" depth="1" NCoef="0" IVar="0" Cut="5.0199003219604492e+00" cType="1" res="-1.2299147248268127e-01" rms="2.4102075397968292e-01" purity="6.8887203931808472e-02" nType="0">
          <Node pos="l" depth="2" NCoef="0" IVar="-1" Cut="0.0000000000000000e+00" cType="1" res="-1.5813237056136131e-02" rms="2.8001320362091064e-01" purity="9.9226802587509155e-02" nType="-1"/>
          <Node pos="r" depth="2" NCoef="0" IVar="-1" Cut="0.0000000000000000e+00" cType="1" res="-2.7469068765640259e-02" rms="1.6312874853610992e-01" purity="2.5688072666525841e-02" nType="-1"/>
        </Node>
      </Node>
    </BinaryTree>
    <BinaryTree type="DecisionTree" boostWeight="1.0000000000000000e+00" itree="53">
      <Node pos="s" depth="0" NCoef="0" IVar="3" Cut="2.3229522705078125e+02" cType="1" res="9.9405857326928526e-05" rms="3.5064294934272766e-01" purity="5.0286293029785156e-01" nType="0">
        <Node pos="l" depth="1" NCoef="0" IVar="-1" Cut="0.0000000000000000e+00" cType="1" res="8.7940329685807228e-03" rms="3.3803722262382507e-01" purity="6.4877402782440186e-01" nType="1"/>
        <Node pos="r" depth="1" NCoef="0" IVar="2" Cut="2.7357800006866455e+00" cType="0" res="-6.5864980220794678e-02" rms="3.5122904181480408e-01" purity="3.5205480456352234e-01" nType="0">
          <Node pos="l" depth="2" NCoef="0" IVar="-1" Cut="0.0000000000000000e+00" cType="1" res="-5.3272774675861001e-04" rms="3.6678138375282288e-01" purity="5.1060819625854492e-01" nType="1"/>
          <Node pos="r" depth="2" NCoef="0" IVar="-1" Cut="0.0000000000000000e+00" cType="1" res="-1.7998855561017990e-02" rms="3.2540151476860046e-01" purity="2.0318725705146790e-01" nType="-1"/>
        </Node>
      </Node>
    </BinaryTree>
    <BinaryTree type="DecisionTree" boostWeight="1.0000000000000000e+00" itree="54">
      <Node pos="s" depth="0" NCoef="0" IVar="5" Cut="-9.9004977941513062e-01" cType="0" res="8.8913358922582120e-05" rms="3.4979018568992615e-01" purity="5.0286293029785156e-01" nType="0">
        <Node pos="l" depth="1" NCoef="0" IVar="-1" Cut="0.0000000000000000e+00" cType="1" res="6.4264554530382156e-03" rms="3.5125213861465454e-01" purity="6.2331956624984741e-01" nType="1"/>
        <Node pos="r" depth="1" NCoef="0" IVar="4" Cut="2.5160038471221924e+00" cType="0" res="-8.8063269853591919e-02" rms="3.2940644025802612e-01" purity="2.7777779102325439e-01" nType="0">
          <Node pos="l" depth="2" NCoef="0" IVar="-1" Cut="0.0000000000000000e+00" cType="1" res="5.5749807506799698e-03" rms="3.6452525854110718e-01" purity="5.6370657682418823e-01" nType="1"/>
          <Node pos="r" depth="2" NCoef="0" IVar="-1" Cut="0.0000000000000000e+00" cType="1" res="-1.5930388122797012e-02" rms="3.1979799270629883e-01" purity="2.3688569664955139e-01" nType="-1"/>
        </Node>
      </Node>
    </BinaryTree>
    <BinaryTree type="DecisionTree" boostWeight="1.0000000000000000e+00" itree="55">
      <Node pos="s" depth="0" NCoef="0" IVar="6" Cut="1.0318709611892700e+00" cType="0" res="7.9614983405917883e-05" rms="3.4907016158103943e-01" purity="5.0286293029785156e-01" nType="0">
        <Node pos="l" depth="1" NCoef="0" IVar="-1" Cut="0.0000000000000000e+00" cType="1" res="5.1267943345010281e-03" rms="3.4462645649909973e-01" purity="5.9030437469482422e-01" nType="1"/>
        <Node pos="r" depth="1" NCoef="0" IVar="4" Cut="1.5529733896255493e+00" cType="0" res="-1.0856054723262787e-01" rms="3.3932781219482422e-01" purity="2.4484364688396454e-01" nType="0">
          <Node pos="l" depth="2" NCoef="0" IVar="-1" Cut="0.0000000000000000e+00" cType="1" res="-3.1334412051364779e-04" rms="3.9083266258239746e-01" purity="4.3143811821937561e-01" nType="-1"/>
          <Node pos="r" depth="2" NCoef="0" IVar="-1" Cut="0.0000000000000000e+00" cType="1" res="-1.9693333655595779e-02" rms="3.1985044479370117e-01" purity="1.9850498437881470e-01" nType="-1"/>
        </Node>
      </Node>
    </BinaryTree>
    <BinaryTree type="DecisionTree" boostWeight="1.0000000000000000e+00" itree="56">
      <Node pos="s" depth="0" NCoef="0" IVar="1" Cut="1.0248756408691406e+00" cType="1" res="6.9976762461010367e-05" rms="3.4838625788688660e-01" purity="5.0286293029785156e-01" nType="0">
        <Node pos="l" depth="1" NCoef="0" IVar="-1" Cut="0.0000000000000000e+00" cType="1" res="8.4057124331593513e-03" rms="3.3313798904418945e-01" purity="7.0345491170883179e-01" nType="1"/>
        <Node pos="r" depth="1" NCoef="0" IVar="7" Cut="7.9022422790527344e+01" cType="1" res="-6.5726116299629211e-02" rms="3.5313180088996887e-01" purity="2.7987197041511536e-01" nType="0">
          <Node pos="l" depth="2" NCoef="0" IVar="-1" Cut="0.0000000000000000e+00" cType="1" res="-1.4271956752054393e-04" rms="3.7451305985450745e-01" purity="4.0097010135650635e-01" nType="-1"/>
          <Node pos="r" depth="2" NCoef="0" IVar="-1" Cut="0.0000000000000000e+00" cType="1" res="-1.6854980960488319e-02" rms="3.2653087377548218e-01" purity="1.8476191163063049e-01" nType="-1"/>
        </Node>
      </Node>
    </BinaryTree>
    <BinaryTree type="DecisionTree" boostWeight="1.0000000000000000e+00" itree="57">
      <Node pos="s" depth="0" NCoef="0" IVar="4" Cut="-2.0412869453430176e+00" cType="1" res="6.1555743741337210e-05" rms="3.4765374660491943e-01" purity="5.0286293029785156e-01" nType="0">
        <Node pos="l" depth="1" NCoef="0" IVar="-1" Cut="0.0000000000000000e+00" cType="1" res="1.4568323269486427e-02" rms="3.1565600633621216e-01" purity="7.4725276231765747e-01" nType="1"/>
        <Node pos="r" depth="1" NCoef="0" IVar="4" Cut="2.1437377929687500e+00" cType="0" res="-3.6687951534986496e-02" rms="3.5093712806701660e-01" purity="4.1676154732704163e-01" nType="0">
          <Node pos="l" depth="2" NCoef="0" IVar="-1" Cut="0.0000000000000000e+00" cType="1" res="1.4083071611821651e-02" rms="3.2192367315292358e-01" purity="7.3787772655487061e-01" nType="1"/>
          <Node pos="r" depth="2" NCoef="0" IVar="-1" Cut="0.0000000000000000e+00" cType="1" res="-1.4504344202578068e-02" rms="3.4540280699729919e-01" purity="2.6280322670936584e-01" nType="-1"/>
        </Node>
      </Node>
    </BinaryTree>
    <BinaryTree type="DecisionTree" boostWeight="1.0000000000000000e+00" itree="58">
      <Node pos="s" depth="0" NCoef="0" IVar="3" Cut="2.6534881591796875e+02" cType="1" res="5.9359885199228302e-05" rms="3.4616237878799438e-01" purity="5.0286293029785156e-01" nType="0">
        <Node pos="l" depth="1" NCoef="0" IVar="-1" Cut="0.0000000000000000e+00" cType="1" res="6.2469211407005787e-03" rms="3.4049275517463684e-01" purity="6.0744762420654297e-01" nType="1"/>
        <Node pos="r" depth="1" NCoef="0" IVar="2" Cut="2.6888828277587891e+00" cType="0" res="-8.2856751978397369e-02" rms="3.4138032793998718e-01" purity="3.0758088827133179e-01" nType="0">
          <Node pos="l" depth="2" NCoef="0" IVar="-1" Cut="0.0000000000000000e+00" cType="1" res="-4.0132752619683743e-03" rms="3.6367854475975037e-01" purity="4.5381164550781250e-01" nType="-1"/>
          <Node pos="r" depth="2" NCoef="0" IVar="-1" Cut="0.0000000000000000e+00" cType="1" res="-2.2276511415839195e-02" rms="3.0141624808311462e-01" purity="1.3702929019927979e-01" nType="-1"/>
        </Node>
      </Node>
    </BinaryTree>
    <BinaryTree type="DecisionTree" boostWeight="1.0000000000000000e+00" itree="59">
      <Node pos="s" depth="0" NCoef="0" IVar="0" Cut="4.0199003219604492e+00" cType="1" res="4.8689111281419173e-05" rms="3.4542602300643921e-01" purity="5.0286293029785156e-01" nType="0">
        <Node pos="l" depth="1" NCoef="0" IVar="-1" Cut="0.0000000000000000e+00" cType="1" res="4.3538552708923817e-03" rms="3.6374205350875854e-01" purity="6.2703055143356323e-01" nType="1"/>
        <Node pos="r" depth="1" NCoef="0" IVar="0" Cut="5.0199003219604492e+00" cType="1" res="-1.1243233829736710e-01" rms="2.4010232090950012e-01" purity="6.8887203931808472e-02" nType="0">
          <Node pos="l" depth="2" NCoef="0" IVar="-1" Cut="0.0000000000000000e+00" cType="1" res="-1.5011577866971493e-02" rms="2.7857887744903564e-01" purity="9.9226802587509155e-02" nType="-1"/>
          <Node pos="r" depth="2" NCoef="0" IVar="-1" Cut="0.0000000000000000e+00" cType="1" res="-2.6914274320006371e-02" rms="1.6432063281536102e-01" purity="2.5688072666525841e-02" nType="-1"/>
        </Node>
      </Node>
    </BinaryTree>
    <BinaryTree type="DecisionTree" boostWeight="1.0000000000000000e+00" itree="60">
      <Node pos="s" depth="0" NCoef="0" IVar="5" Cut="-9.9004977941513062e-01" cType="0" res="3.1145002139965072e-05" rms="3.4491470456123352e-01" purity="5.0286293029785156e-01" nType="0">
        <Node pos="l" depth="1" NCoef="0" IVar="-1" Cut="0.0000000000000000e+00" cType="1" res="6.0936855152249336e-03" rms="3.4686273336410522e-01" purity="6.2331956624984741e-01" nType="1"/>
        <Node pos="r" depth="1" NCoef="0" IVar="4" Cut="-1.8496593236923218e+00" cType="1" res="-8.1720136106014252e-02" rms="3.2586523890495300e-01" purity="2.7777779102325439e-01" nType="0">
          <Node pos="l" depth="2" NCoef="0" IVar="-1" Cut="0.0000000000000000e+00" cType="1" res="-1.3863286585547030e-04" rms="3.5503855347633362e-01" purity="4.9595141410827637e-01" nType="-1"/>
          <Node pos="r" depth="2" NCoef="0" IVar="-1" Cut="0.0000000000000000e+00" cType="1" res="-1.6727913171052933e-02" rms="3.1189697980880737e-01" purity="2.0939086377620697e-01" nType="-1"/>
        </Node>
      </Node>
    </BinaryTree>
    <BinaryTree type="DecisionTree" boostWeight="1.0000000000000000e+00" itree="61">
      <Node pos="s" depth="0" NCoef="0" IVar="0" Cut="2.0348258018493652e+00" cType="1" res="2.4343964469153434e-05" rms="3.4427881240844727e-01" purity="5.0286293029785156e-01" nType="0">
        <Node pos="l" depth="1" NCoef="0" IVar="-1" Cut="0.0000000000000000e+00" cType="1" res="1.5255241654813290e-02" rms="2.6210045814514160e-01" purity="9.0839278697967529e-01" nType="1"/>
        <Node pos="r" depth="1" NCoef="0" IVar="4" Cut="-2.2464709281921387e+00" cType="1" res="-3.9024788886308670e-02" rms="3.6828929185867310e-01" purity="3.2320776581764221e-01" nType="0">
          <Node pos="l" depth="2" NCoef="0" IVar="-1" Cut="0.0000000000000000e+00" cType="1" res="9.2584295198321342e-03" rms="3.9467215538024902e-01" purity="6.0505318641662598e-01" nType="1"/>
          <Node pos="r" depth="2" NCoef="0" IVar="-1" Cut="0.0000000000000000e+00" cType="1" res="-8.9989900588989258e-03" rms="3.5685986280441284e-01" purity="2.6018434762954712e-01" nType="-1"/>
        </Node>
      </Node>
    </BinaryTree>
    <BinaryTree type="DecisionTree" boostWeight="1.0000000000000000e+00" itree="62">
      <Node pos="s" depth="0" NCoef="0" IVar="3" Cut="2.6534881591796875e+02" cType="1" res="3.1914423743728548e-05" rms="3.4360811114311218e-01" purity="5.0286293029785156e-01" nType="0">
        <Node pos="l" depth="1" NCoef="0" IVar="-1" Cut="0.0000000000000000e+00" cType="1" res="5.9576453641057014e-03" rms="3.3853682875633240e-01" purity="6.0744762420654297e-01" nType="1"/>
        <Node pos="r" depth="1" NCoef="0" IVar="2" Cut="2.6888828277587891e+00" cType="0" res="-7.7714473009109497e-02" rms="3.3947640657424927e-01" purity="3.0758088827133179e-01" nType="0">
          <Node pos="l" depth="2" NCoef="0" IVar="-1" Cut="0.0000000000000000e+00" cType="1" res="-3.9062639698386192e-03" rms="3.6210051178932190e-01" purity="4.5381164550781250e-01" nType="-1"/>
          <Node pos="r" depth="2" NCoef="0" IVar="-1" Cut="0.0000000000000000e+00" cType="1" res="-2.1447911858558655e-02" rms="3.0069059133529663e-01" purity="1.3702929019927979e-01" nType="-1"/>
        </Node>
      </Node>
    </BinaryTree>
    <BinaryTree type="DecisionTree" boostWeight="1.0000000000000000e+00" itree="63">
      <Node pos="s" depth="0" NCoef="0" IVar="5" Cut="-9.9004977941513062e-01" cType="0" res="2.3221236915560439e-05" rms="3.4295400977134705e-01" purity="5.0286293029785156e-01" nType="0">
        <Node pos="l" depth="1" NCoef="0" IVar="-1" Cut="0.0000000000000000e+00" cType="1" res="5.8033103123307228e-03" rms="3.4551703929901123e-01" purity="6.2331956624984741e-01" nType="1"/>
        <Node pos="r" depth="1" NCoef="0" IVar="4" Cut="2.5160038471221924e+00" cType="0" res="-7.6897524297237396e-02" rms="3.2440242171287537e-01" purity="2.7777779102325439e-01" nType="0">
          <Node pos="l" depth="2" NCoef="0" IVar="-1" Cut="0.0000000000000000e+00" cType="1" res="5.2838097326457500e-03" rms="3.6073917150497437e-01" purity="5.6370657682418823e-01" nType="1"/>
          <Node pos="r" depth="2" NCoef="0" IVar="-1" Cut="0.0000000000000000e+00" cType="1" res="-1.4640648849308491e-02" rms="3.1543025374412537e-01" purity="2.3688569664955139e-01" nType="-1"/>
        </Node>
      </Node>
    </BinaryTree>
    <BinaryTree type="DecisionTree" boostWeight="1.0000000000000000e+00" itree="64">
      <Node pos="s" depth="0" NCoef="0" IVar="6" Cut="1.1006355285644531e+00" cType="0" res="1.8003389413934201e-05" rms="3.4238845109939575e-01" purity="5.0286293029785156e-01" nType="0">
        <Node pos="l" depth="1" NCoef="0" IVar="-1" Cut="0.0000000000000000e+00" cType="1" res="4.9170712009072304e-03" rms="3.3889529109001160e-01" purity="5.9671068191528320e-01" nType="1"/>
        <Node pos="r" depth="1" NCoef="0" IVar="4" Cut="-1.7474911212921143e+00" cType="1" res="-9.0932838618755341e-02" rms="3.3494716882705688e-01" purity="2.5293028354644775e-01" nType="0">
          <Node pos="l" depth="2" NCoef="0" IVar="-1" Cut="0.0000000000000000e+00" cType="1" res="2.1250171121209860e-03" rms="3.4305676817893982e-01" purity="4.6413502097129822e-01" nType="-1"/>
          <Node pos="r" depth="2" NCoef="0" IVar="-1" Cut="0.0000000000000000e+00" cType="1" res="-1.6645289957523346e-02" rms="3.3012884855270386e-01" purity="2.1676300466060638e-01" nType="-1"/>
        </Node>
      </Node>
    </BinaryTree>
    <BinaryTree type="DecisionTree" boostWeight="1.0000000000000000e+00" itree="65">
      <Node pos="s" depth="0" NCoef="0" IVar="0" Cut="4.0199003219604492e+00" cType="1" res="1.2779500139004085e-05" rms="3.4185534715652466e-01" purity="5.0286293029785156e-01" nType="0">
        <Node pos="l" depth="1" NCoef="0" IVar="-1" Cut="0.0000000000000000e+00" cType="1" res="4.0985038504004478e-03" rms="3.6040645837783813e-01" purity="6.2703055143356323e-01" nType="1"/>
        <Node pos="r" depth="1" NCoef="0" IVar="0" Cut="5.0199003219604492e+00" cType="1" res="-1.0386770218610764e-01" rms="2.3969438672065735e-01" purity="6.8887203931808472e-02" nType="0">
          <Node pos="l" depth="2" NCoef="0" IVar="-1" Cut="0.0000000000000000e+00" cType="1" res="-1.4270348474383354e-02" rms="2.7793836593627930e-01" purity="9.9226802587509155e-02" nType="-1"/>
          <Node pos="r" depth="2" NCoef="0" IVar="-1" Cut="0.0000000000000000e+00" cType="1" res="-2.6430025696754456e-02" rms="1.6504502296447754e-01" purity="2.5688072666525841e-02" nType="-1"/>
        </Node>
      </Node>
    </BinaryTree>
    <BinaryTree type="DecisionTree" boostWeight="1.0000000000000000e+00" itree="66">
      <Node pos="s" depth="0" NCoef="0" IVar="4" Cut="-2.0412869453430176e+00" cType="1" res="-1.7428085357096279e-06" rms="3.4140944480895996e-01" purity="5.0286293029785156e-01" nType="0">
        <Node pos="l" depth="1" NCoef="0" IVar="-1" Cut="0.0000000000000000e+00" cType="1" res="1.3221559114754200e-02" rms="3.1158128380775452e-01" purity="7.4725276231765747e-01" nType="1"/>
        <Node pos="r" depth="1" NCoef="0" IVar="4" Cut="1.7949863672256470e+00" cType="0" res="-3.2142784446477890e-02" rms="3.4562599658966064e-01" purity="4.1676154732704163e-01" nType="0">
          <Node pos="l" depth="2" NCoef="0" IVar="-1" Cut="0.0000000000000000e+00" cType="1" res="1.0539477691054344e-02" rms="3.3313870429992676e-01" purity="6.8332397937774658e-01" nType="1"/>
          <Node pos="r" depth="2" NCoef="0" IVar="-1" Cut="0.0000000000000000e+00" cType="1" res="-1.5423133969306946e-02" rms="3.3562973141670227e-01" purity="2.3486590385437012e-01" nType="-1"/>
        </Node>
      </Node>
    </BinaryTree>
    <BinaryTree type="DecisionTree" boostWeight="1.0000000000000000e+00" itree="67">
      <Node pos="s" depth="0" NCoef="0" IVar="3" Cut="2.3229522705078125e+02" cType="1" res="-3.7928027722955449e-06" rms="3.4015521407127380e-01" purity="5.0286293029785156e-01" nType="0">
        <Node pos="l" depth="1" NCoef="0" IVar="-1" Cut="0.0000000000000000e+00" cType="1" res="7.6763392426073551e-03" rms="3.2957595586776733e-01" purity="6.4877402782440186e-01" nType="1"/>
        <Node pos="r" depth="1" NCoef="0" IVar="4" Cut="2.9215278625488281e+00" cType="0" res="-5.4584506899118423e-02" rms="3.4229701757431030e-01" purity="3.5205480456352234e-01" nType="0">
          <Node pos="l" depth="2" NCoef="0" IVar="-1" Cut="0.0000000000000000e+00" cType="1" res="1.6401637345552444e-02" rms="3.0127850174903870e-01" purity="7.5903612375259399e-01" nType="1"/>
          <Node pos="r" depth="2" NCoef="0" IVar="-1" Cut="0.0000000000000000e+00" cType="1" res="-1.0516043752431870e-02" rms="3.4179335832595825e-01" purity="3.1411457061767578e-01" nType="-1"/>
        </Node>
      </Node>
    </BinaryTree>
    <BinaryTree type="DecisionTree" boostWeight="1.0000000000000000e+00" itree="68">
      <Node pos="s" depth="0" NCoef="0" IVar="0" Cut="2.0348258018493652e+00" cType="1" res="-3.7207041714282241e-06" rms="3.3954879641532898e-01" purity="5.0286293029785156e-01" nType="0">
        <Node pos="l" depth="1" NCoef="0" IVar="-1" Cut="0.0000000000000000e+00" cType="1" res="1.4407088048756123e-02" rms="2.5913482904434204e-01" purity="9.0839278697967529e-01" nType="1"/>
        <Node pos="r" depth="1" NCoef="0" IVar="4" Cut="2.4053664207458496e+00" cType="0" res="-3.5285439342260361e-02" rms="3.6409687995910645e-01" purity="3.2320776581764221e-01" nType="0">
          <Node pos="l" depth="2" NCoef="0" IVar="-1" Cut="0.0000000000000000e+00" cType="1" res="1.0225780308246613e-02" rms="3.9480704069137573e-01" purity="5.9966218471527100e-01" nType="1"/>
          <Node pos="r" depth="2" NCoef="0" IVar="-1" Cut="0.0000000000000000e+00" cType="1" res="-7.8141065314412117e-03" rms="3.5464158654212952e-01" purity="2.7675276994705200e-01" nType="-1"/>
        </Node>
      </Node>
    </BinaryTree>
    <BinaryTree type="DecisionTree" boostWeight="1.0000000000000000e+00" itree="69">
      <Node pos="s" depth="0" NCoef="0" IVar="5" Cut="-9.9004977941513062e-01" cType="0" res="4.7014914343890268e-06" rms="3.3900910615921021e-01" purity="5.0286293029785156e-01" nType="0">
        <Node pos="l" depth="1" NCoef="0" IVar="-1" Cut="0.0000000000000000e+00" cType="1" res="5.5246949195861816e-03" rms="3.4187158942222595e-01" purity="6.2331956624984741e-01" nType="1"/>
        <Node pos="r" depth="1" NCoef="0" IVar="3" Cut="2.7252291870117188e+02" cType="1" res="-7.1464501321315765e-02" rms="3.2162696123123169e-01" purity="2.7777779102325439e-01" nType="0">
          <Node pos="l" depth="2" NCoef="0" IVar="-1" Cut="0.0000000000000000e+00" cType="1" res="-6.1852345243096352e-03" rms="3.3817908167839050e-01" purity="3.5966256260871887e-01" nType="-1"/>
          <Node pos="r" depth="2" NCoef="0" IVar="-1" Cut="0.0000000000000000e+00" cType="1" res="-2.1438075229525566e-02" rms="2.8394037485122681e-01" purity="1.3838119804859161e-01" nType="-1"/>
        </Node>
      </Node>
    </BinaryTree>
    <BinaryTree type="DecisionTree" boostWeight="1.0000000000000000e+00" itree="70">
      <Node pos="s" depth="0" NCoef="0" IVar="4" Cut="-2.2387492656707764e+00" cType="1" res="-7.9743796277398360e-07" rms="3.3849313855171204e-01" purity="5.0286293029785156e-01" nType="0">
        <Node pos="l" depth="1" NCoef="0" IVar="-1" Cut="0.0000000000000000e+00" cType="1" res="1.4064039103686810e-02" rms="3.0246254801750183e-01" purity="7.7476155757904053e-01" nType="1"/>
        <Node pos="r" depth="1" NCoef="0" IVar="4" Cut="2.0286877155303955e+00" cType="0" res="-2.8214547783136368e-02" rms="3.4349668025970459e-01" purity="4.2185792326927185e-01" nType="0">
          <Node pos="l" depth="2" NCoef="0" IVar="-1" Cut="0.0000000000000000e+00" cType="1" res="1.1718125082552433e-02" rms="3.2115903496742249e-01" purity="7.2625327110290527e-01" nType="1"/>
          <Node pos="r" depth="2" NCoef="0" IVar="-1" Cut="0.0000000000000000e+00" cType="1" res="-1.2157809920608997e-02" rms="3.4191784262657166e-01" purity="2.7100360393524170e-01" nType="-1"/>
        </Node>
      </Node>
    </BinaryTree>
    <BinaryTree type="DecisionTree" boostWeight="1.0000000000000000e+00" itree="71">
      <Node pos="s" depth="0" NCoef="0" IVar="0" Cut="4.0199003219604492e+00" cType="1" res="9.0635097649283125e-07" rms="3.3747178316116333e-01" purity="5.0286293029785156e-01" nType="0">
        <Node pos="l" depth="1" NCoef="0" IVar="-1" Cut="0.0000000000000000e+00" cType="1" res="3.8673565723001957e-03" rms="3.5599640011787415e-01" purity="6.2703055143356323e-01" nType="1"/>
        <Node pos="r" depth="1" NCoef="0" IVar="0" Cut="5.0199003219604492e+00" cType="1" res="-9.5621660351753235e-02" rms="2.3922535777091980e-01" purity="6.8887203931808472e-02" nType="0">
          <Node pos="l" depth="2" NCoef="0" IVar="-1" Cut="0.0000000000000000e+00" cType="1" res="-1.3546608388423920e-02" rms="2.7694404125213623e-01" purity="9.9226802587509155e-02" nType="-1"/>
          <Node pos="r" depth="2" NCoef="0" IVar="-1" Cut="0.0000000000000000e+00" cType="1" res="-2.5976184755563736e-02" rms="1.6637948155403137e-01" purity="2.5688072666525841e-02" nType="-1"/>
        </Node>
      </Node>
    </BinaryTree>
    <BinaryTree type="DecisionTree" boostWeight="1.0000000000000000e+00" itree="72">
      <Node pos="s" depth="0" NCoef="0" IVar="3" Cut="2.3229522705078125e+02" cType="1" res="-1.1812046977865975e-05" rms="3.3708208799362183e-01" purity="5.0286293029785156e-01" nType="0">
        <Node pos="l" depth="1" NCoef="0" IVar="-1" Cut="0.0000000000000000e+00" cType="1" res="7.2514293715357780e-03" rms="3.2717472314834595e-01" purity="6.4877402782440186e-01" nType="1"/>
        <Node pos="r" depth="1" NCoef="0" IVar="2" Cut="2.7045712471008301e+00" cType="0" res="-5.0439786165952682e-02" rms="3.3973938226699829e-01" purity="3.5205480456352234e-01" nType="0">
          <Node pos="l" depth="2" NCoef="0" IVar="-1" Cut="0.0000000000000000e+00" cType="1" res="-5.2519701421260834e-04" rms="3.5396575927734375e-01" purity="5.0337839126586914e-01" nType="1"/>
          <Node pos="r" depth="2" NCoef="0" IVar="-1" Cut="0.0000000000000000e+00" cType="1" res="-1.5922084450721741e-02" rms="3.1734034419059753e-01" purity="1.9652777910232544e-01" nType="-1"/>
        </Node>
      </Node>
    </BinaryTree>
    <BinaryTree type="DecisionTree" boostWeight="1.0000000000000000e+00" itree="73">
      <Node pos="s" depth="0" NCoef="0" IVar="1" Cut="1.0248756408691406e+00" cType="1" res="-1.5320365491788834e-05" rms="3.3654147386550903e-01" purity="5.0286293029785156e-01" nType="0">
        <Node pos="l" depth="1" NCoef="0" IVar="-1" Cut="0.0000000000000000e+00" cType="1" res="7.1583297103643417e-03" rms="3.2260453701019287e-01" purity="7.0345491170883179e-01" nType="1"/>
        <Node pos="r" depth="1" NCoef="0" IVar="7" Cut="7.9022422790527344e+01" cType="1" res="-5.1940500736236572e-02" rms="3.4402152895927429e-01" purity="2.7987197041511536e-01" nType="0">
          <Node pos="l" depth="2" NCoef="0" IVar="-1" Cut="0.0000000000000000e+00" cType="1" res="1.7996573296841234e-04" rms="3.6445385217666626e-01" purity="4.0097010135650635e-01" nType="-1"/>
          <Node pos="r" depth="2" NCoef="0" IVar="-1" Cut="0.0000000000000000e+00" cType="1" res="-1.4816648326814175e-02" rms="3.2094973325729370e-01" purity="1.8476191163063049e-01" nType="-1"/>
        </Node>
      </Node>
    </BinaryTree>
    <BinaryTree type="DecisionTree" boostWeight="1.0000000000000000e+00" itree="74">
      <Node pos="s" depth="0" NCoef="0" IVar="5" Cut="-9.9004977941513062e-01" cType="0" res="-1.8283020835951902e-05" rms="3.3605423569679260e-01" purity="5.0286293029785156e-01" nType="0">
        <Node pos="l" depth="1" NCoef="0" IVar="-1" Cut="0.0000000000000000e+00" cType="1" res="5.2669807337224483e-03" rms="3.3921337127685547e-01" purity="6.2331956624984741e-01" nType="1"/>
        <Node pos="r" depth="1" NCoef="0" IVar="4" Cut="-1.8496593236923218e+00" cType="1" res="-6.6864870488643646e-02" rms="3.1950959563255310e-01" purity="2.7777779102325439e-01" nType="0">
          <Node pos="l" depth="2" NCoef="0" IVar="-1" Cut="0.0000000000000000e+00" cType="1" res="-9.1674686700571328e-05" rms="3.5009253025054932e-01" purity="4.9595141410827637e-01" nType="-1"/>
          <Node pos="r" depth="2" NCoef="0" IVar="-1" Cut="0.0000000000000000e+00" cType="1" res="-1.4814137481153011e-02" rms="3.0636882781982422e-01" purity="2.0939086377620697e-01" nType="-1"/>
        </Node>
      </Node>
    </BinaryTree>
    <BinaryTree type="DecisionTree" boostWeight="1.0000000000000000e+00" itree="75">
      <Node pos="s" depth="0" NCoef="0" IVar="4" Cut="-2.0412869453430176e+00" cType="1" res="-2.1347432266338728e-05" rms="3.3560961484909058e-01" purity="5.0286293029785156e-01" nType="0">
        <Node pos="l" depth="1" NCoef="0" IVar="-1" Cut="0.0000000000000000e+00" cType="1" res="1.2220834381878376e-02" rms="3.0822092294692993e-01" purity="7.4725276231765747e-01" nType="1"/>
        <Node pos="r" depth="1" NCoef="0" IVar="4" Cut="1.7949863672256470e+00" cType="0" res="-2.8602201491594315e-02" rms="3.4016305208206177e-01" purity="4.1676154732704163e-01" nType="0">
          <Node pos="l" depth="2" NCoef="0" IVar="-1" Cut="0.0000000000000000e+00" cType="1" res="9.3492241576313972e-03" rms="3.2933208346366882e-01" purity="6.8332397937774658e-01" nType="1"/>
          <Node pos="r" depth="2" NCoef="0" IVar="-1" Cut="0.0000000000000000e+00" cType="1" res="-1.4005380682647228e-02" rms="3.3352211117744446e-01" purity="2.3486590385437012e-01" nType="-1"/>
        </Node>
      </Node>
    </BinaryTree>
    <BinaryTree type="DecisionTree" boostWeight="1.0000000000000000e+00" itree="76">
      <Node pos="s" depth="0" NCoef="0" IVar="0" Cut="4.0199003219604492e+00" cType="1" res="-2.2009926397004165e-05" rms="3.3463817834854126e-01" purity="5.0286293029785156e-01" nType="0">
        <Node pos="l" depth="1" NCoef="0" IVar="-1" Cut="0.0000000000000000e+00" cType="1" res="3.6444058641791344e-03" rms="3.5324841737747192e-01" purity="6.2703055143356323e-01" nType="1"/>
        <Node pos="r" depth="1" NCoef="0" IVar="0" Cut="5.0199003219604492e+00" cType="1" res="-8.8747084140777588e-02" rms="2.3898771405220032e-01" purity="6.8887203931808472e-02" nType="0">
          <Node pos="l" depth="2" NCoef="0" IVar="-1" Cut="0.0000000000000000e+00" cType="1" res="-1.2928807176649570e-02" rms="2.7668762207031250e-01" purity="9.9226802587509155e-02" nType="-1"/>
          <Node pos="r" depth="2" NCoef="0" IVar="-1" Cut="0.0000000000000000e+00" cType="1" res="-2.5502048432826996e-02" rms="1.6678899526596069e-01" purity="2.5688072666525841e-02" nType="-1"/>
        </Node>
      </Node>
    </BinaryTree>
    <BinaryTree type="DecisionTree" boostWeight="1.0000000000000000e+00" itree="77">
      <Node pos="s" depth="0" NCoef="0" IVar="3" Cut="2.6534881591796875e+02" cType="1" res="-3.2561358239036053e-05" rms="3.3429604768753052e-01" purity="5.0286293029785156e-01" nType="0">
        <Node pos="l" depth="1" NCoef="0" IVar="-1" Cut="0.0000000000000000e+00" cType="1" res="5.1770694553852081e-03" rms="3.3027431368827820e-01" purity="6.0744762420654297e-01" nType="1"/>
        <Node pos="r" depth="1" NCoef="0" IVar="2" Cut="2.6888828277587891e+00" cType="0" res="-6.3852749764919281e-02" rms="3.3240044116973877e-01" purity="3.0758088827133179e-01" nType="0">
          <Node pos="l" depth="2" NCoef="0" IVar="-1" Cut="0.0000000000000000e+00" cType="1" res="-3.3377432264387608e-03" rms="3.5377207398414612e-01" purity="4.5381164550781250e-01" nType="-1"/>
          <Node pos="r" depth="2" NCoef="0" IVar="-1" Cut="0.0000000000000000e+00" cType="1" res="-1.9372543320059776e-02" rms="2.9841917753219604e-01" purity="1.3702929019927979e-01" nType="-1"/>
        </Node>
      </Node>
    </BinaryTree>
    <BinaryTree type="DecisionTree" boostWeight="1.0000000000000000e+00" itree="78">
      <Node pos="s" depth="0" NCoef="0" IVar="5" Cut="-9.9004977941513062e-01" cType="0" res="-3.6410954635357484e-05" rms="3.3382549881935120e-01" purity="5.0286293029785156e-01" nType="0">
        <Node pos="l" depth="1" NCoef="0" IVar="-1" Cut="0.0000000000000000e+00" cType="1" res="5.0255386158823967e-03" rms="3.3724474906921387e-01" purity="6.2331956624984741e-01" nType="1"/>
        <Node pos="r" depth="1" NCoef="0" IVar="0" Cut="2.0348258018493652e+00" cType="1" res="-6.2935136258602142e-02" rms="3.1792828440666199e-01" purity="2.7777779102325439e-01" nType="0">
          <Node pos="l" depth="2" NCoef="0" IVar="-1" Cut="0.0000000000000000e+00" cType="1" res="1.4005616540089250e-03" rms="3.5327523946762085e-01" purity="7.9743587970733643e-01" nType="1"/>
          <Node pos="r" depth="2" NCoef="0" IVar="-1" Cut="0.0000000000000000e+00" cType="1" res="-1.3269387185573578e-02" rms="3.0674970149993896e-01" purity="1.5714286267757416e-01" nType="-1"/>
        </Node>
      </Node>
    </BinaryTree>
    <BinaryTree type="DecisionTree" boostWeight="1.0000000000000000e+00" itree="79">
      <Node pos="s" depth="0" NCoef="0" IVar="6" Cut="1.1006355285644531e+00" cType="0" res="-3.9576119888806716e-05" rms="3.3347392082214355e-01" purity="5.0286293029785156e-01" nType="0">
        <Node pos="l" depth="1" NCoef="0" IVar="-1" Cut="0.0000000000000000e+00" cType="1" res="4.2757573537528515e-03" rms="3.3049607276916504e-01" purity="5.9671068191528320e-01" nType="1"/>
        <Node pos="r" depth="1" NCoef="0" IVar="4" Cut="1.5483669042587280e+00" cType="0" res="-7.4563987553119659e-02" rms="3.2989570498466492e-01" purity="2.5293028354644775e-01" nType="0">
          <Node pos="l" depth="2" NCoef="0" IVar="-1" Cut="0.0000000000000000e+00" cType="1" res="-2.0817099721170962e-04" rms="3.7812712788581848e-01" purity="4.2388060688972473e-01" nType="-1"/>
          <Node pos="r" depth="2" NCoef="0" IVar="-1" Cut="0.0000000000000000e+00" cType="1" res="-1.5413678251206875e-02" rms="3.1333407759666443e-01" purity="2.0839813351631165e-01" nType="-1"/>
        </Node>
      </Node>
    </BinaryTree>
    <BinaryTree type="DecisionTree" boostWeight="1.0000000000000000e+00" itree="80">
      <Node pos="s" depth="0" NCoef="0" IVar="0" Cut="2.0348258018493652e+00" cType="1" res="-4.0946029912447557e-05" rms="3.3309361338615417e-01" purity="5.0286293029785156e-01" nType="0">
        <Node pos="l" depth="1" NCoef="0" IVar="-1" Cut="0.0000000000000000e+00" cType="1" res="1.3136248104274273e-02" rms="2.5525110960006714e-01" purity="9.0839278697967529e-01" nType="1"/>
        <Node pos="r" depth="1" NCoef="0" IVar="4" Cut="-2.2464709281921387e+00" cType="1" res="-3.0095390975475311e-02" rms="3.5818764567375183e-01" purity="3.2320776581764221e-01" nType="0">
          <Node pos="l" depth="2" NCoef="0" IVar="-1" Cut="0.0000000000000000e+00" cType="1" res="7.1474877186119556e-03" rms="3.8569942116737366e-01" purity="6.0505318641662598e-01" nType="1"/>
          <Node pos="r" depth="2" NCoef="0" IVar="-1" Cut="0.0000000000000000e+00" cType="1" res="-7.3959683068096638e-03" rms="3.4869092702865601e-01" purity="2.6018434762954712e-01" nType="-1"/>
        </Node>
      </Node>
    </BinaryTree>
    <BinaryTree type="DecisionTree" boostWeight="1.0000000000000000e+00" itree="81">
      <Node pos="s" depth="0" NCoef="0" IVar="0" Cut="4.0199003219604492e+00" cType="1" res="-3.2589287002338096e-05" rms="3.3272528648376465e-01" purity="5.0286293029785156e-01" nType="0">
        <Node pos="l" depth="1" NCoef="0" IVar="-1" Cut="0.0000000000000000e+00" cType="1" res="3.4378140699118376e-03" rms="3.5157087445259094e-01" purity="6.2703055143356323e-01" nType="1"/>
        <Node pos="r" depth="1" NCoef="0" IVar="0" Cut="5.0199003219604492e+00" cType="1" res="-8.2426704466342926e-02" rms="2.3854249715805054e-01" purity="6.8887203931808472e-02" nType="0">
          <Node pos="l" depth="2" NCoef="0" IVar="-1" Cut="0.0000000000000000e+00" cType="1" res="-1.2272377498447895e-02" rms="2.7630561590194702e-01" purity="9.9226802587509155e-02" nType="-1"/>
          <Node pos="r" depth="2" NCoef="0" IVar="-1" Cut="0.0000000000000000e+00" cType="1" res="-2.5025917217135429e-02" rms="1.6659101843833923e-01" purity="2.5688072666525841e-02" nType="-1"/>
        </Node>
      </Node>
    </BinaryTree>
    <BinaryTree type="DecisionTree" boostWeight="1.0000000000000000e+00" itree="82">
      <Node pos="s" depth="0" NCoef="0" IVar="3" Cut="2.7085775756835938e+02" cType="1" res="-4.1692106606205925e-05" rms="3.3242532610893250e-01" purity="5.0286293029785156e-01" nType="0">
        <Node pos="l" depth="1" NCoef="0" IVar="-1" Cut="0.0000000000000000e+00" cType="1" res="4.7831735573709011e-03" rms="3.2922917604446411e-01" purity="6.0201764106750488e-01" nType="1"/>
        <Node pos="r" depth="1" NCoef="0" IVar="2" Cut="2.7356946468353271e+00" cType="0" res="-6.2204044312238693e-02" rms="3.3010530471801758e-01" purity="3.0359858274459839e-01" nType="0">
          <Node pos="l" depth="2" NCoef="0" IVar="-1" Cut="0.0000000000000000e+00" cType="1" res="-2.6799142360687256e-03" rms="3.5723507404327393e-01" purity="4.6407186985015869e-01" nType="-1"/>
          <Node pos="r" depth="2" NCoef="0" IVar="-1" Cut="0.0000000000000000e+00" cType="1" res="-1.9020313397049904e-02" rms="2.9257750511169434e-01" purity="1.3800205290317535e-01" nType="-1"/>
        </Node>
      </Node>
    </BinaryTree>
    <BinaryTree type="DecisionTree" boostWeight="1.0000000000000000e+00" itree="83">
      <Node pos="s" depth="0" NCoef="0" IVar="5" Cut="-9.9004977941513062e-01" cType="0" res="-4.4925709516974166e-05" rms="3.3199948072433472e-01" purity="5.0286293029785156e-01" nType="0">
        <Node pos="l" depth="1" NCoef="0" IVar="-1" Cut="0.0000000000000000e+00" cType="1" res="4.8074824735522270e-03" rms="3.3560442924499512e-01" purity="6.2331956624984741e-01" nType="1"/>
        <Node pos="r" depth="1" NCoef="0" IVar="4" Cut="2.5160038471221924e+00" cType="0" res="-5.9191890060901642e-02" rms="3.1679013371467590e-01" purity="2.7777779102325439e-01" nType="0">
          <Node pos="l" depth="2" NCoef="0" IVar="-1" Cut="0.0000000000000000e+00" cType="1" res="4.1832914575934410e-03" rms="3.5529261827468872e-01" purity="5.6370657682418823e-01" nType="1"/>
          <Node pos="r" depth="2" NCoef="0" IVar="-1" Cut="0.0000000000000000e+00" cType="1" res="-1.2429176829755306e-02" rms="3.0884060263633728e-01" purity="2.3688569664955139e-01" nType="-1"/>
        </Node>
      </Node>
    </BinaryTree>
    <BinaryTree type="DecisionTree" boostWeight="1.0000000000000000e+00" itree="84">
      <Node pos="s" depth="0" NCoef="0" IVar="4" Cut="-2.0412869453430176e+00" cType="1" res="-4.5382126700133085e-05" rms="3.3164885640144348e-01" purity="5.0286293029785156e-01" nType="0">
        <Node pos="l" depth="1" NCoef="0" IVar="-1" Cut="0.0000000000000000e+00" cType="1" res="1.1368035338819027e-02" rms="3.0494102835655212e-01" purity="7.4725276231765747e-01" nType="1"/>
