<?xml version="1.0"?>
<MethodSetup Method="BDT::BDTG">
  <GeneralInfo>
    <Info name="TMVA Release" value="4.1.0 [262400]"/>
    <Info name="ROOT Release" value="5.28/00 [334848]"/>
    <Info name="Creator" value="pandolf"/>
    <Info name="Date" value="Tue Apr 23 16:56:34 2013"/>
    <Info name="Host" value="Linux lxbuild148.cern.ch 2.6.18-194.26.1.el5 #1 SMP Wed Nov 10 09:45:46 CET 2010 x86_64 x86_64 x86_64 GNU/Linux"/>
    <Info name="Dir" value="/afs/cern.ch/work/p/pandolf/CMSSW_5_2_5/src/UserCode/pandolf/VHgg/VHggAnalysis/TMVA"/>
    <Info name="Training events" value="4155"/>
    <Info name="TrainingTime" value="1.9007"/>
    <Info name="AnalysisType" value="Classification"/>
  </GeneralInfo>
  <Options>
    <Option name="V" modified="Yes">False</Option>
    <Option name="VerbosityLevel" modified="No">Default</Option>
    <Option name="VarTransform" modified="No">None</Option>
    <Option name="H" modified="Yes">False</Option>
    <Option name="CreateMVAPdfs" modified="Yes">True</Option>
    <Option name="IgnoreNegWeightsInTraining" modified="No">False</Option>
    <Option name="NTrees" modified="Yes">500</Option>
    <Option name="RenormByClass" modified="No">False</Option>
    <Option name="BoostType" modified="Yes">Grad</Option>
    <Option name="AdaBoostR2Loss" modified="No">quadratic</Option>
    <Option name="UseBaggedGrad" modified="Yes">False</Option>
    <Option name="GradBaggingFraction" modified="No">6.000000e-01</Option>
    <Option name="Shrinkage" modified="Yes">5.000000e-02</Option>
    <Option name="AdaBoostBeta" modified="No">1.000000e+00</Option>
    <Option name="UseRandomisedTrees" modified="No">False</Option>
    <Option name="UseNvars" modified="No">2</Option>
    <Option name="UsePoissonNvars" modified="No">True</Option>
    <Option name="UseNTrainEvents" modified="No">4155</Option>
    <Option name="UseWeightedTrees" modified="No">True</Option>
    <Option name="UseYesNoLeaf" modified="No">True</Option>
    <Option name="NodePurityLimit" modified="No">5.000000e-01</Option>
    <Option name="SeparationType" modified="No">giniindex</Option>
    <Option name="nEventsMin" modified="Yes">100</Option>
    <Option name="nCuts" modified="Yes">200</Option>
    <Option name="UseFisherCuts" modified="No">False</Option>
    <Option name="MinLinCorrForFisher" modified="No">8.000000e-01</Option>
    <Option name="UseExclusiveVars" modified="No">False</Option>
    <Option name="PruneStrength" modified="No">0.000000e+00</Option>
    <Option name="PruneMethod" modified="No">nopruning</Option>
    <Option name="PruneBeforeBoost" modified="No">False</Option>
    <Option name="PruningValFraction" modified="No">5.000000e-01</Option>
    <Option name="NNodesMax" modified="Yes">5</Option>
    <Option name="MaxDepth" modified="No">3</Option>
  </Options>
  <Variables NVar="5">
    <Variable VarIndex="0" Expression="njets" Label="njets" Title="njets" Unit="" Internal="njets" Type="I" Min="2" Max="9"/>
    <Variable VarIndex="1" Expression="mt_top" Label="mt_top" Title="mt_top" Unit="" Internal="mt_top" Type="F" Min="65.1578" Max="895.958"/>
    <Variable VarIndex="2" Expression="eta_qJet" Label="eta_qJet" Title="eta_qJet" Unit="" Internal="eta_qJet" Type="F" Min="-4.89675" Max="4.96254"/>
    <Variable VarIndex="3" Expression="charge_lept" Label="charge_lept" Title="charge_lept" Unit="" Internal="charge_lept" Type="I" Min="-1" Max="1"/>
    <Variable VarIndex="4" Expression="deltaEta_lept_qJet" Label="deltaEta_lept_qJet" Title="deltaEta_lept_qJet" Unit="" Internal="deltaEta_lept_qJet" Type="F" Min="0.000792503" Max="6.18952"/>
  </Variables>
  <Spectators NSpec="0"/>
  <Transformations NTransformations="0"/>
  <MVAPdfs>
    <PDF Name="BDTG_PDFSig" MinNSmooth="0" MaxNSmooth="0" InterpolMethod="2" KDE_type="1" KDE_iter="1" KDE_border="1" KDE_finefactor="1.0000000000000000e+00">
      <Histogram Name="BDT_tr_S_original" NBins="83" XMin="-9.9639058113098145e-01" XMax="9.9147719144821167e-01" HasEquidistantBins="1">
        0.0303992 0.0455988 0.0151996 0 0.075998 0.0455988 0.0151996 0.106397 0.121597 0 0.0911976 0.0911976 0.075998 0.0455988 0.075998 0.0607984 0.151996 0.0455988 0.0455988 0.0911976 0.0303992 0.075998 0.0911976 0.0303992 0.136796 0.0911976 0.075998 0.0911976 0.106397 0.0911976 0.136796 0.0607984 0.121597 0.0455988 0.121597 0.0911976 0.106397 0.106397 0.121597 0.167196 0.0911976 0.0911976 0.136796 0.106397 0.075998 0.212794 0.106397 0.227994 0.258393 0.197595 0.106397 0.212794 0.273593 0.303992 0.182395 0.227994 0.0911976 0.227994 0.197595 0.212794 0.273593 0.334391 0.349591 0.349591 0.319191 0.471187 0.592784 0.395189 0.75998 0.592784 0.820778 0.683982 0.699181 0.835978 0.881576 0.972774 1.38316 1.94555 2.20394 2.61433 4.19509 6.56622 6.83982 
      </Histogram>
    </PDF>
    <PDF Name="BDTG_PDFBkg" MinNSmooth="0" MaxNSmooth="0" InterpolMethod="2" KDE_type="1" KDE_iter="1" KDE_border="1" KDE_finefactor="1.0000000000000000e+00">
      <Histogram Name="BDT_tr_B_original" NBins="83" XMin="-9.9639058113098145e-01" XMax="9.9147719144821167e-01" HasEquidistantBins="1">
        2.81916 2.58176 2.61143 1.83987 1.9289 1.72117 1.21669 1.03864 0.919937 0.623183 0.890262 0.593508 0.712209 0.593508 0.860586 0.741885 0.741885 0.563833 0.445131 0.534157 0.830911 0.623183 0.682534 0.356105 0.415456 0.474806 0.415456 0.326429 0.267079 0.415456 0.356105 0.267079 0.237403 0.445131 0.296754 0.237403 0.326429 0.296754 0.326429 0.326429 0.296754 0.326429 0.237403 0.267079 0.267079 0.237403 0.296754 0.356105 0.178052 0.237403 0.178052 0.178052 0.593508 0.207728 0.326429 0.178052 0.326429 0.296754 0.118702 0.0593508 0.237403 0.178052 0.326429 0.296754 0.0593508 0.237403 0.207728 0.326429 0.415456 0.207728 0.237403 0.178052 0.0296754 0.445131 0.0593508 0.118702 0.267079 0.237403 0.296754 0.178052 0.118702 0 0.0296754 
      </Histogram>
    </PDF>
  </MVAPdfs>
  <Weights NTrees="500" AnalysisType="1">
    <BinaryTree type="DecisionTree" boostWeight="1.0000000000000000e+00" itree="0">
      <Node pos="s" depth="0" NCoef="0" IVar="0" Cut="3.0099501609802246e+00" cType="1" res="1.6137184202671051e-01" rms="4.7324320673942566e-01" purity="6.6137182712554932e-01" nType="0">
        <Node pos="l" depth="1" NCoef="0" IVar="-1" Cut="0.0000000000000000e+00" cType="1" res="3.2972134649753571e-02" rms="3.7587741017341614e-01" purity="8.2972139120101929e-01" nType="1"/>
        <Node pos="r" depth="1" NCoef="0" IVar="2" Cut="-2.1457514762878418e+00" cType="1" res="-2.3076923191547394e-01" rms="4.4356009364128113e-01" purity="2.6923078298568726e-01" nType="0">
          <Node pos="l" depth="2" NCoef="0" IVar="-1" Cut="0.0000000000000000e+00" cType="1" res="1.2048192322254181e-02" rms="4.8526704311370850e-01" purity="6.2048190832138062e-01" nType="1"/>
          <Node pos="r" depth="2" NCoef="0" IVar="-1" Cut="0.0000000000000000e+00" cType="1" res="-2.8465803712606430e-02" rms="4.1105934977531433e-01" purity="2.1534195542335510e-01" nType="-1"/>
        </Node>
      </Node>
    </BinaryTree>
    <BinaryTree type="DecisionTree" boostWeight="1.0000000000000000e+00" itree="1">
      <Node pos="s" depth="0" NCoef="0" IVar="0" Cut="3.0099501609802246e+00" cType="1" res="1.5330643951892853e-01" rms="4.6580076217651367e-01" purity="6.6137182712554932e-01" nType="0">
        <Node pos="l" depth="1" NCoef="0" IVar="-1" Cut="0.0000000000000000e+00" cType="1" res="3.1358193606138229e-02" rms="3.7587741017341614e-01" purity="8.2972139120101929e-01" nType="1"/>
        <Node pos="r" depth="1" NCoef="0" IVar="2" Cut="-2.1457514762878418e+00" cType="1" res="-2.1923406422138214e-01" rms="4.4147524237632751e-01" purity="2.6923078298568726e-01" nType="0">
          <Node pos="l" depth="2" NCoef="0" IVar="-1" Cut="0.0000000000000000e+00" cType="1" res="1.1447473429143429e-02" rms="4.8526707291603088e-01" purity="6.2048190832138062e-01" nType="1"/>
          <Node pos="r" depth="2" NCoef="0" IVar="-1" Cut="0.0000000000000000e+00" cType="1" res="-2.7064817026257515e-02" rms="4.1105934977531433e-01" purity="2.1534195542335510e-01" nType="-1"/>
        </Node>
      </Node>
    </BinaryTree>
    <BinaryTree type="DecisionTree" boostWeight="1.0000000000000000e+00" itree="2">
      <Node pos="s" depth="0" NCoef="0" IVar="0" Cut="3.0099501609802246e+00" cType="1" res="1.4565248787403107e-01" rms="4.5898604393005371e-01" purity="6.6137182712554932e-01" nType="0">
        <Node pos="l" depth="1" NCoef="0" IVar="-1" Cut="0.0000000000000000e+00" cType="1" res="2.9883379116654396e-02" rms="3.7587741017341614e-01" purity="8.2972139120101929e-01" nType="1"/>
        <Node pos="r" depth="1" NCoef="0" IVar="3" Cut="-9.9004977941513062e-01" cType="0" res="-2.0828409492969513e-01" rms="4.3958619236946106e-01" purity="2.6923078298568726e-01" nType="0">
          <Node pos="l" depth="2" NCoef="0" IVar="-1" Cut="0.0000000000000000e+00" cType="1" res="-1.0284063406288624e-02" rms="4.8026147484779358e-01" purity="3.7653478980064392e-01" nType="-1"/>
          <Node pos="r" depth="2" NCoef="0" IVar="-1" Cut="0.0000000000000000e+00" cType="1" res="-3.5978663712739944e-02" rms="3.1849226355552673e-01" purity="1.1650485545396805e-01" nType="-1"/>
        </Node>
      </Node>
    </BinaryTree>
    <BinaryTree type="DecisionTree" boostWeight="1.0000000000000000e+00" itree="3">
      <Node pos="s" depth="0" NCoef="0" IVar="0" Cut="3.0099501609802246e+00" cType="1" res="1.3838756084442139e-01" rms="4.5273733139038086e-01" purity="6.6137182712554932e-01" nType="0">
        <Node pos="l" depth="1" NCoef="0" IVar="-1" Cut="0.0000000000000000e+00" cType="1" res="2.8527060523629189e-02" rms="3.7587741017341614e-01" purity="8.2972139120101929e-01" nType="1"/>
        <Node pos="r" depth="1" NCoef="0" IVar="2" Cut="2.3816213607788086e+00" cType="0" res="-1.9788761436939240e-01" rms="4.3782636523246765e-01" purity="2.6923078298568726e-01" nType="0">
          <Node pos="l" depth="2" NCoef="0" IVar="-1" Cut="0.0000000000000000e+00" cType="1" res="1.4957079663872719e-02" rms="4.8586630821228027e-01" purity="6.1267608404159546e-01" nType="1"/>
          <Node pos="r" depth="2" NCoef="0" IVar="-1" Cut="0.0000000000000000e+00" cType="1" res="-2.4368489161133766e-02" rms="4.1059055924415588e-01" purity="2.2513562440872192e-01" nType="-1"/>
        </Node>
      </Node>
    </BinaryTree>
    <BinaryTree type="DecisionTree" boostWeight="1.0000000000000000e+00" itree="4">
      <Node pos="s" depth="0" NCoef="0" IVar="0" Cut="3.0099501609802246e+00" cType="1" res="1.3149131834506989e-01" rms="4.4699195027351379e-01" purity="6.6137182712554932e-01" nType="0">
        <Node pos="l" depth="1" NCoef="0" IVar="-1" Cut="0.0000000000000000e+00" cType="1" res="2.7272509410977364e-02" rms="3.7587741017341614e-01" purity="8.2972139120101929e-01" nType="1"/>
        <Node pos="r" depth="1" NCoef="0" IVar="2" Cut="-2.1457514762878418e+00" cType="1" res="-1.8801315128803253e-01" rms="4.3612045049667358e-01" purity="2.6923078298568726e-01" nType="0">
          <Node pos="l" depth="2" NCoef="0" IVar="-1" Cut="0.0000000000000000e+00" cType="1" res="1.2913004495203495e-02" rms="4.8382928967475891e-01" purity="6.2048190832138062e-01" nType="1"/>
          <Node pos="r" depth="2" NCoef="0" IVar="-1" Cut="0.0000000000000000e+00" cType="1" res="-2.3895420134067535e-02" rms="4.0703216195106506e-01" purity="2.1534195542335510e-01" nType="-1"/>
        </Node>
      </Node>
    </BinaryTree>
    <BinaryTree type="DecisionTree" boostWeight="1.0000000000000000e+00" itree="5">
      <Node pos="s" depth="0" NCoef="0" IVar="0" Cut="3.0099501609802246e+00" cType="1" res="1.2494259327650070e-01" rms="4.4169560074806213e-01" purity="6.6137182712554932e-01" nType="0">
        <Node pos="l" depth="1" NCoef="0" IVar="-1" Cut="0.0000000000000000e+00" cType="1" res="2.6106022298336029e-02" rms="3.7587741017341614e-01" purity="8.2972139120101929e-01" nType="1"/>
        <Node pos="r" depth="1" NCoef="0" IVar="4" Cut="1.3678494691848755e+00" cType="0" res="-1.7863804101943970e-01" rms="4.3440997600555420e-01" purity="2.6923078298568726e-01" nType="0">
          <Node pos="l" depth="2" NCoef="0" IVar="-1" Cut="0.0000000000000000e+00" cType="1" res="-6.4526246860623360e-03" rms="4.7792601585388184e-01" purity="3.9043208956718445e-01" nType="-1"/>
          <Node pos="r" depth="2" NCoef="0" IVar="-1" Cut="0.0000000000000000e+00" cType="1" res="-3.0719496309757233e-02" rms="3.4091776609420776e-01" purity="1.3833333551883698e-01" nType="-1"/>
        </Node>
      </Node>
    </BinaryTree>
    <BinaryTree type="DecisionTree" boostWeight="1.0000000000000000e+00" itree="6">
      <Node pos="s" depth="0" NCoef="0" IVar="0" Cut="3.0099501609802246e+00" cType="1" res="1.1872318387031555e-01" rms="4.3685293197631836e-01" purity="6.6137182712554932e-01" nType="0">
        <Node pos="l" depth="1" NCoef="0" IVar="-1" Cut="0.0000000000000000e+00" cType="1" res="2.5016291067004204e-02" rms="3.7587741017341614e-01" purity="8.2972139120101929e-01" nType="1"/>
        <Node pos="r" depth="1" NCoef="0" IVar="3" Cut="-9.9004977941513062e-01" cType="0" res="-1.6973567008972168e-01" rms="4.3283194303512573e-01" purity="2.6923078298568726e-01" nType="0">
          <Node pos="l" depth="2" NCoef="0" IVar="-1" Cut="0.0000000000000000e+00" cType="1" res="-7.1888361126184464e-03" rms="4.7486770153045654e-01" purity="3.7653478980064392e-01" nType="-1"/>
          <Node pos="r" depth="2" NCoef="0" IVar="-1" Cut="0.0000000000000000e+00" cType="1" res="-3.1758837401866913e-02" rms="3.1521886587142944e-01" purity="1.1650485545396805e-01" nType="-1"/>
        </Node>
      </Node>
    </BinaryTree>
    <BinaryTree type="DecisionTree" boostWeight="1.0000000000000000e+00" itree="7">
      <Node pos="s" depth="0" NCoef="0" IVar="0" Cut="3.0099501609802246e+00" cType="1" res="1.1281562596559525e-01" rms="4.3240347504615784e-01" purity="6.6137182712554932e-01" nType="0">
        <Node pos="l" depth="1" NCoef="0" IVar="-1" Cut="0.0000000000000000e+00" cType="1" res="2.3993909358978271e-02" rms="3.7587741017341614e-01" purity="8.2972139120101929e-01" nType="1"/>
        <Node pos="r" depth="1" NCoef="0" IVar="2" Cut="2.3816213607788086e+00" cType="0" res="-1.6128215193748474e-01" rms="4.3129330873489380e-01" purity="2.6923078298568726e-01" nType="0">
          <Node pos="l" depth="2" NCoef="0" IVar="-1" Cut="0.0000000000000000e+00" cType="1" res="1.6671692952513695e-02" rms="4.8440852761268616e-01" purity="6.1267608404159546e-01" nType="1"/>
          <Node pos="r" depth="2" NCoef="0" IVar="-1" Cut="0.0000000000000000e+00" cType="1" res="-2.0806871354579926e-02" rms="4.0541693568229675e-01" purity="2.2513562440872192e-01" nType="-1"/>
        </Node>
      </Node>
    </BinaryTree>
    <BinaryTree type="DecisionTree" boostWeight="1.0000000000000000e+00" itree="8">
      <Node pos="s" depth="0" NCoef="0" IVar="0" Cut="3.0099501609802246e+00" cType="1" res="1.0720573365688324e-01" rms="4.2831507325172424e-01" purity="6.6137182712554932e-01" nType="0">
        <Node pos="l" depth="1" NCoef="0" IVar="-1" Cut="0.0000000000000000e+00" cType="1" res="2.3031003773212433e-02" rms="3.7587738037109375e-01" purity="8.2972139120101929e-01" nType="1"/>
        <Node pos="r" depth="1" NCoef="0" IVar="2" Cut="-2.1457514762878418e+00" cType="1" res="-1.5324752032756805e-01" rms="4.2979425191879272e-01" purity="2.6923078298568726e-01" nType="0">
          <Node pos="l" depth="2" NCoef="0" IVar="-1" Cut="0.0000000000000000e+00" cType="1" res="1.4523499645292759e-02" rms="4.8177281022071838e-01" purity="6.2048190832138062e-01" nType="1"/>
          <Node pos="r" depth="2" NCoef="0" IVar="-1" Cut="0.0000000000000000e+00" cType="1" res="-2.0536895841360092e-02" rms="4.0215945243835449e-01" purity="2.1534195542335510e-01" nType="-1"/>
        </Node>
      </Node>
    </BinaryTree>
    <BinaryTree type="DecisionTree" boostWeight="1.0000000000000000e+00" itree="9">
      <Node pos="s" depth="0" NCoef="0" IVar="0" Cut="2.0348258018493652e+00" cType="1" res="1.0187605768442154e-01" rms="4.2454737424850464e-01" purity="6.6137182712554932e-01" nType="0">
        <Node pos="l" depth="1" NCoef="0" IVar="-1" Cut="0.0000000000000000e+00" cType="1" res="3.1110664829611778e-02" rms="2.7991768717765808e-01" purity="9.1430193185806274e-01" nType="1"/>
        <Node pos="r" depth="1" NCoef="0" IVar="4" Cut="1.3348978757858276e+00" cType="0" res="-3.8635898381471634e-02" rms="4.5684054493904114e-01" purity="4.7513580322265625e-01" nType="0">
          <Node pos="l" depth="2" NCoef="0" IVar="-1" Cut="0.0000000000000000e+00" cType="1" res="9.0340981259942055e-03" rms="4.4361710548400879e-01" purity="6.1957269906997681e-01" nType="1"/>
          <Node pos="r" depth="2" NCoef="0" IVar="-1" Cut="0.0000000000000000e+00" cType="1" res="-2.4327311664819717e-02" rms="4.0724292397499084e-01" purity="2.5265392661094666e-01" nType="-1"/>
        </Node>
      </Node>
    </BinaryTree>
    <BinaryTree type="DecisionTree" boostWeight="1.0000000000000000e+00" itree="10">
      <Node pos="s" depth="0" NCoef="0" IVar="0" Cut="3.0099501609802246e+00" cType="1" res="9.6829153597354889e-02" rms="4.1987940669059753e-01" purity="6.6137182712554932e-01" nType="0">
        <Node pos="l" depth="1" NCoef="0" IVar="-1" Cut="0.0000000000000000e+00" cType="1" res="2.1418001502752304e-02" rms="3.7253659963607788e-01" purity="8.2972139120101929e-01" nType="1"/>
        <Node pos="r" depth="1" NCoef="0" IVar="0" Cut="4.0248756408691406e+00" cType="1" res="-1.4258410036563873e-01" rms="4.2633059620857239e-01" purity="2.6923078298568726e-01" nType="0">
          <Node pos="l" depth="2" NCoef="0" IVar="-1" Cut="0.0000000000000000e+00" cType="1" res="-4.3579367920756340e-03" rms="4.6470230817794800e-01" purity="3.7446197867393494e-01" nType="-1"/>
          <Node pos="r" depth="2" NCoef="0" IVar="-1" Cut="0.0000000000000000e+00" cType="1" res="-2.8094692155718803e-02" rms="3.3101761341094971e-01" purity="1.3611614704132080e-01" nType="-1"/>
        </Node>
      </Node>
    </BinaryTree>
    <BinaryTree type="DecisionTree" boostWeight="1.0000000000000000e+00" itree="11">
      <Node pos="s" depth="0" NCoef="0" IVar="4" Cut="1.2631688117980957e+00" cType="0" res="9.2017367482185364e-02" rms="4.1661772131919861e-01" purity="6.6137182712554932e-01" nType="0">
        <Node pos="l" depth="1" NCoef="0" IVar="-1" Cut="0.0000000000000000e+00" cType="1" res="2.0235685631632805e-02" rms="3.6727184057235718e-01" purity="7.7983814477920532e-01" nType="1"/>
        <Node pos="r" depth="1" NCoef="0" IVar="0" Cut="2.0298507213592529e+00" cType="1" res="-1.4862574636936188e-01" rms="4.3467190861701965e-01" purity="3.6585366725921631e-01" nType="0">
          <Node pos="l" depth="2" NCoef="0" IVar="-1" Cut="0.0000000000000000e+00" cType="1" res="9.6237547695636749e-03" rms="4.4186067581176758e-01" purity="7.3400676250457764e-01" nType="1"/>
          <Node pos="r" depth="2" NCoef="0" IVar="-1" Cut="0.0000000000000000e+00" cType="1" res="-2.4179808795452118e-02" rms="4.0247219800949097e-01" purity="2.4327354133129120e-01" nType="-1"/>
        </Node>
      </Node>
    </BinaryTree>
    <BinaryTree type="DecisionTree" boostWeight="1.0000000000000000e+00" itree="12">
      <Node pos="s" depth="0" NCoef="0" IVar="0" Cut="2.0348258018493652e+00" cType="1" res="8.7438620626926422e-02" rms="4.1332724690437317e-01" purity="6.6137182712554932e-01" nType="0">
        <Node pos="l" depth="1" NCoef="0" IVar="-1" Cut="0.0000000000000000e+00" cType="1" res="2.8733013197779655e-02" rms="2.7940070629119873e-01" purity="9.1430193185806274e-01" nType="1"/>
        <Node pos="r" depth="1" NCoef="0" IVar="4" Cut="1.4238382577896118e+00" cType="0" res="-3.9577566087245941e-02" rms="4.4844949245452881e-01" purity="4.7513580322265625e-01" nType="0">
          <Node pos="l" depth="2" NCoef="0" IVar="-1" Cut="0.0000000000000000e+00" cType="1" res="8.2375584170222282e-03" rms="4.3791151046752930e-01" purity="6.2799131870269775e-01" nType="1"/>
          <Node pos="r" depth="2" NCoef="0" IVar="-1" Cut="0.0000000000000000e+00" cType="1" res="-2.1230805665254593e-02" rms="4.1180187463760376e-01" purity="2.6725837588310242e-01" nType="-1"/>
        </Node>
      </Node>
    </BinaryTree>
    <BinaryTree type="DecisionTree" boostWeight="1.0000000000000000e+00" itree="13">
      <Node pos="s" depth="0" NCoef="0" IVar="0" Cut="3.0099501609802246e+00" cType="1" res="8.3114050328731537e-02" rms="4.0949469804763794e-01" purity="6.6137182712554932e-01" nType="0">
        <Node pos="l" depth="1" NCoef="0" IVar="-1" Cut="0.0000000000000000e+00" cType="1" res="1.9475262612104416e-02" rms="3.6719831824302673e-01" purity="8.2972139120101929e-01" nType="1"/>
        <Node pos="r" depth="1" NCoef="0" IVar="3" Cut="-9.9004977941513062e-01" cType="0" res="-1.3314379751682281e-01" rms="4.2114397883415222e-01" purity="2.6923078298568726e-01" nType="0">
          <Node pos="l" depth="2" NCoef="0" IVar="-1" Cut="0.0000000000000000e+00" cType="1" res="-4.4020689092576504e-03" rms="4.6351498365402222e-01" purity="3.7653478980064392e-01" nType="-1"/>
          <Node pos="r" depth="2" NCoef="0" IVar="-1" Cut="0.0000000000000000e+00" cType="1" res="-2.8077291324734688e-02" rms="3.0923885107040405e-01" purity="1.1650485545396805e-01" nType="-1"/>
        </Node>
      </Node>
    </BinaryTree>
    <BinaryTree type="DecisionTree" boostWeight="1.0000000000000000e+00" itree="14">
      <Node pos="s" depth="0" NCoef="0" IVar="4" Cut="1.4171171188354492e+00" cType="0" res="7.8984104096889496e-02" rms="4.0676218271255493e-01" purity="6.6137182712554932e-01" nType="0">
        <Node pos="l" depth="1" NCoef="0" IVar="-1" Cut="0.0000000000000000e+00" cType="1" res="1.9368203356862068e-02" rms="3.5633760690689087e-01" purity="7.9197996854782104e-01" nType="1"/>
        <Node pos="r" depth="1" NCoef="0" IVar="0" Cut="2.0298507213592529e+00" cType="1" res="-1.1851019412279129e-01" rms="4.3166953325271606e-01" purity="3.9353892207145691e-01" nType="0">
          <Node pos="l" depth="2" NCoef="0" IVar="-1" Cut="0.0000000000000000e+00" cType="1" res="9.8993023857474327e-03" rms="4.2691832780838013e-01" purity="7.5988698005676270e-01" nType="1"/>
          <Node pos="r" depth="2" NCoef="0" IVar="-1" Cut="0.0000000000000000e+00" cType="1" res="-2.0572712644934654e-02" rms="4.0950527787208557e-01" purity="2.6488095521926880e-01" nType="-1"/>
        </Node>
      </Node>
    </BinaryTree>
    <BinaryTree type="DecisionTree" boostWeight="1.0000000000000000e+00" itree="15">
      <Node pos="s" depth="0" NCoef="0" IVar="0" Cut="2.0348258018493652e+00" cType="1" res="7.5058177113533020e-02" rms="4.0398609638214111e-01" purity="6.6137182712554932e-01" nType="0">
        <Node pos="l" depth="1" NCoef="0" IVar="-1" Cut="0.0000000000000000e+00" cType="1" res="2.6678986847400665e-02" rms="2.7897843718528748e-01" purity="9.1430193185806274e-01" nType="1"/>
        <Node pos="r" depth="1" NCoef="0" IVar="3" Cut="-9.9004977941513062e-01" cType="0" res="-3.9669878780841827e-02" rms="4.4162133336067200e-01" purity="4.7513580322265625e-01" nType="0">
          <Node pos="l" depth="2" NCoef="0" IVar="-1" Cut="0.0000000000000000e+00" cType="1" res="5.7549490593373775e-03" rms="4.3962129950523376e-01" purity="5.9225803613662720e-01" nType="1"/>
          <Node pos="r" depth="2" NCoef="0" IVar="-1" Cut="0.0000000000000000e+00" cType="1" res="-2.3014701902866364e-02" rms="3.9083451032638550e-01" purity="2.5978648662567139e-01" nType="-1"/>
        </Node>
      </Node>
    </BinaryTree>
    <BinaryTree type="DecisionTree" boostWeight="1.0000000000000000e+00" itree="16">
      <Node pos="s" depth="0" NCoef="0" IVar="4" Cut="1.2631688117980957e+00" cType="0" res="7.1351274847984314e-02" rms="4.0072777867317200e-01" purity="6.6137182712554932e-01" nType="0">
        <Node pos="l" depth="1" NCoef="0" IVar="-1" Cut="0.0000000000000000e+00" cType="1" res="1.7255282029509544e-02" rms="3.5968548059463501e-01" purity="7.7983814477920532e-01" nType="1"/>
        <Node pos="r" depth="1" NCoef="0" IVar="3" Cut="-9.9004977941513062e-01" cType="0" res="-1.3331547379493713e-01" rms="4.2397445440292358e-01" purity="3.6585366725921631e-01" nType="0">
          <Node pos="l" depth="2" NCoef="0" IVar="-1" Cut="0.0000000000000000e+00" cType="1" res="-5.5781207047402859e-03" rms="4.4319424033164978e-01" purity="4.7891157865524292e-01" nType="-1"/>
          <Node pos="r" depth="2" NCoef="0" IVar="-1" Cut="0.0000000000000000e+00" cType="1" res="-2.9994420707225800e-02" rms="3.5215839743614197e-01" purity="1.8281938135623932e-01" nType="-1"/>
        </Node>
      </Node>
    </BinaryTree>
    <BinaryTree type="DecisionTree" boostWeight="1.0000000000000000e+00" itree="17">
      <Node pos="s" depth="0" NCoef="0" IVar="0" Cut="3.0099501609802246e+00" cType="1" res="6.7802757024765015e-02" rms="3.9838653802871704e-01" purity="6.6137182712554932e-01" nType="0">
        <Node pos="l" depth="1" NCoef="0" IVar="-1" Cut="0.0000000000000000e+00" cType="1" res="1.7401468008756638e-02" rms="3.6056217551231384e-01" purity="8.2972139120101929e-01" nType="1"/>
        <Node pos="r" depth="1" NCoef="0" IVar="0" Cut="4.0248756408691406e+00" cType="1" res="-1.2552970647811890e-01" rms="4.1491603851318359e-01" purity="2.6923078298568726e-01" nType="0">
          <Node pos="l" depth="2" NCoef="0" IVar="-1" Cut="0.0000000000000000e+00" cType="1" res="-3.4007113426923752e-03" rms="4.5299533009529114e-01" purity="3.7446197867393494e-01" nType="-1"/>
          <Node pos="r" depth="2" NCoef="0" IVar="-1" Cut="0.0000000000000000e+00" cType="1" res="-2.6331529021263123e-02" rms="3.2456627488136292e-01" purity="1.3611614704132080e-01" nType="-1"/>
        </Node>
      </Node>
    </BinaryTree>
    <BinaryTree type="DecisionTree" boostWeight="1.0000000000000000e+00" itree="18">
      <Node pos="s" depth="0" NCoef="0" IVar="0" Cut="2.0348258018493652e+00" cType="1" res="6.4435116946697235e-02" rms="3.9613422751426697e-01" purity="6.6137182712554932e-01" nType="0">
        <Node pos="l" depth="1" NCoef="0" IVar="-1" Cut="0.0000000000000000e+00" cType="1" res="2.5004841387271881e-02" rms="2.7744847536087036e-01" purity="9.1430193185806274e-01" nType="1"/>
        <Node pos="r" depth="1" NCoef="0" IVar="2" Cut="2.3514580726623535e+00" cType="0" res="-4.0542308241128922e-02" rms="4.3566006422042847e-01" purity="4.7513580322265625e-01" nType="0">
          <Node pos="l" depth="2" NCoef="0" IVar="-1" Cut="0.0000000000000000e+00" cType="1" res="2.2623535245656967e-02" rms="3.6215332150459290e-01" purity="8.0361175537109375e-01" nType="1"/>
          <Node pos="r" depth="2" NCoef="0" IVar="-1" Cut="0.0000000000000000e+00" cType="1" res="-1.0563449002802372e-02" rms="4.3137732148170471e-01" purity="4.0051281452178955e-01" nType="-1"/>
        </Node>
      </Node>
    </BinaryTree>
    <BinaryTree type="DecisionTree" boostWeight="1.0000000000000000e+00" itree="19">
      <Node pos="s" depth="0" NCoef="0" IVar="4" Cut="1.0784307718276978e+00" cType="0" res="6.1263777315616608e-02" rms="3.9333450794219971e-01" purity="6.6137182712554932e-01" nType="0">
        <Node pos="l" depth="1" NCoef="0" IVar="-1" Cut="0.0000000000000000e+00" cType="1" res="1.4781503938138485e-02" rms="3.6208558082580566e-01" purity="7.6266920566558838e-01" nType="1"/>
        <Node pos="r" depth="1" NCoef="0" IVar="1" Cut="2.4552230834960938e+02" cType="1" res="-1.5490491688251495e-01" rms="4.1265204548835754e-01" purity="3.3231082558631897e-01" nType="0">
          <Node pos="l" depth="2" NCoef="0" IVar="-1" Cut="0.0000000000000000e+00" cType="1" res="-5.6213950738310814e-03" rms="4.2886146903038025e-01" purity="4.5473682880401611e-01" nType="-1"/>
          <Node pos="r" depth="2" NCoef="0" IVar="-1" Cut="0.0000000000000000e+00" cType="1" res="-2.8644617646932602e-02" rms="3.7028390169143677e-01" purity="2.1669979393482208e-01" nType="-1"/>
        </Node>
      </Node>
    </BinaryTree>
    <BinaryTree type="DecisionTree" boostWeight="1.0000000000000000e+00" itree="20">
      <Node pos="s" depth="0" NCoef="0" IVar="0" Cut="3.0099501609802246e+00" cType="1" res="5.8216560631990433e-02" rms="3.9134684205055237e-01" purity="6.6137182712554932e-01" nType="0">
        <Node pos="l" depth="1" NCoef="0" IVar="-1" Cut="0.0000000000000000e+00" cType="1" res="1.5954475849866867e-02" rms="3.5680240392684937e-01" purity="8.2972139120101929e-01" nType="1"/>
        <Node pos="r" depth="1" NCoef="0" IVar="0" Cut="4.0248756408691406e+00" cType="1" res="-1.1781284213066101e-01" rms="4.1117307543754578e-01" purity="2.6923078298568726e-01" nType="0">
          <Node pos="l" depth="2" NCoef="0" IVar="-1" Cut="0.0000000000000000e+00" cType="1" res="-3.1436530407518148e-03" rms="4.4983643293380737e-01" purity="3.7446197867393494e-01" nType="-1"/>
          <Node pos="r" depth="2" NCoef="0" IVar="-1" Cut="0.0000000000000000e+00" cType="1" res="-2.5287784636020660e-02" rms="3.2341635227203369e-01" purity="1.3611614704132080e-01" nType="-1"/>
        </Node>
      </Node>
    </BinaryTree>
    <BinaryTree type="DecisionTree" boostWeight="1.0000000000000000e+00" itree="21">
      <Node pos="s" depth="0" NCoef="0" IVar="4" Cut="1.4171171188354492e+00" cType="0" res="5.5324472486972809e-02" rms="3.8945746421813965e-01" purity="6.6137182712554932e-01" nType="0">
        <Node pos="l" depth="1" NCoef="0" IVar="-1" Cut="0.0000000000000000e+00" cType="1" res="1.5986787155270576e-02" rms="3.4733897447586060e-01" purity="7.9197996854782104e-01" nType="1"/>
        <Node pos="r" depth="1" NCoef="0" IVar="3" Cut="-9.9004977941513062e-01" cType="0" res="-1.0796459019184113e-01" rms="4.1910517215728760e-01" purity="3.9353892207145691e-01" nType="0">
          <Node pos="l" depth="2" NCoef="0" IVar="-1" Cut="0.0000000000000000e+00" cType="1" res="-3.0063628219068050e-03" rms="4.3205893039703369e-01" purity="5.1222354173660278e-01" nType="1"/>
          <Node pos="r" depth="2" NCoef="0" IVar="-1" Cut="0.0000000000000000e+00" cType="1" res="-2.8683170676231384e-02" rms="3.5537791252136230e-01" purity="1.9085487723350525e-01" nType="-1"/>
        </Node>
      </Node>
    </BinaryTree>
    <BinaryTree type="DecisionTree" boostWeight="1.0000000000000000e+00" itree="22">
      <Node pos="s" depth="0" NCoef="0" IVar="0" Cut="2.0348258018493652e+00" cType="1" res="5.2575111389160156e-02" rms="3.8746297359466553e-01" purity="6.6137182712554932e-01" nType="0">
        <Node pos="l" depth="1" NCoef="0" IVar="-1" Cut="0.0000000000000000e+00" cType="1" res="2.3235449567437172e-02" rms="2.7466878294944763e-01" purity="9.1430193185806274e-01" nType="1"/>
        <Node pos="r" depth="1" NCoef="0" IVar="1" Cut="2.5260867309570312e+02" cType="1" res="-4.2683754116296768e-02" rms="4.2862659692764282e-01" purity="4.7513580322265625e-01" nType="0">
          <Node pos="l" depth="2" NCoef="0" IVar="-1" Cut="0.0000000000000000e+00" cType="1" res="5.6267557665705681e-03" rms="4.2021691799163818e-01" purity="5.9275054931640625e-01" nType="1"/>
          <Node pos="r" depth="2" NCoef="0" IVar="-1" Cut="0.0000000000000000e+00" cType="1" res="-1.9549094140529633e-02" rms="4.0475949645042419e-01" purity="3.0730223655700684e-01" nType="-1"/>
        </Node>
      </Node>
    </BinaryTree>
    <BinaryTree type="DecisionTree" boostWeight="1.0000000000000000e+00" itree="23">
      <Node pos="s" depth="0" NCoef="0" IVar="4" Cut="1.7250137329101562e+00" cType="0" res="4.9987107515335083e-02" rms="3.8503542542457581e-01" purity="6.6137182712554932e-01" nType="0">
        <Node pos="l" depth="1" NCoef="0" IVar="-1" Cut="0.0000000000000000e+00" cType="1" res="1.7169794067740440e-02" rms="3.2839235663414001e-01" purity="8.1539732217788696e-01" nType="1"/>
        <Node pos="r" depth="1" NCoef="0" IVar="3" Cut="-9.9004977941513062e-01" cType="0" res="-7.6895534992218018e-02" rms="4.2036637663841248e-01" purity="4.4738355278968811e-01" nType="0">
          <Node pos="l" depth="2" NCoef="0" IVar="-1" Cut="0.0000000000000000e+00" cType="1" res="4.3561351048992947e-05" rms="4.2549684643745422e-01" purity="5.6607145071029663e-01" nType="1"/>
          <Node pos="r" depth="2" NCoef="0" IVar="-1" Cut="0.0000000000000000e+00" cType="1" res="-2.5325242429971695e-02" rms="3.7215739488601685e-01" purity="2.3263327777385712e-01" nType="-1"/>
        </Node>
      </Node>
    </BinaryTree>
    <BinaryTree type="DecisionTree" boostWeight="1.0000000000000000e+00" itree="24">
      <Node pos="s" depth="0" NCoef="0" IVar="0" Cut="2.0348258018493652e+00" cType="1" res="4.7507274895906448e-02" rms="3.8309267163276672e-01" purity="6.6137182712554932e-01" nType="0">
        <Node pos="l" depth="1" NCoef="0" IVar="-1" Cut="0.0000000000000000e+00" cType="1" res="2.2297518327832222e-02" rms="2.7345120906829834e-01" purity="9.1430193185806274e-01" nType="1"/>
        <Node pos="r" depth="1" NCoef="0" IVar="3" Cut="-9.9004977941513062e-01" cType="0" res="-4.1925139725208282e-02" rms="4.2532646656036377e-01" purity="4.7513580322265625e-01" nType="0">
          <Node pos="l" depth="2" NCoef="0" IVar="-1" Cut="0.0000000000000000e+00" cType="1" res="4.0770820342004299e-03" rms="4.2792993783950806e-01" purity="5.9225803613662720e-01" nType="1"/>
          <Node pos="r" depth="2" NCoef="0" IVar="-1" Cut="0.0000000000000000e+00" cType="1" res="-2.1300690248608589e-02" rms="3.8013136386871338e-01" purity="2.5978648662567139e-01" nType="-1"/>
        </Node>
      </Node>
    </BinaryTree>
    <BinaryTree type="DecisionTree" boostWeight="1.0000000000000000e+00" itree="25">
      <Node pos="s" depth="0" NCoef="0" IVar="4" Cut="1.0784307718276978e+00" cType="0" res="4.5167554169893265e-02" rms="3.8091242313385010e-01" purity="6.6137182712554932e-01" nType="0">
        <Node pos="l" depth="1" NCoef="0" IVar="-1" Cut="0.0000000000000000e+00" cType="1" res="1.2445915490388870e-02" rms="3.5441976785659790e-01" purity="7.6266920566558838e-01" nType="1"/>
        <Node pos="r" depth="1" NCoef="0" IVar="1" Cut="2.9080575561523438e+02" cType="1" res="-1.3870313763618469e-01" rms="4.0516835451126099e-01" purity="3.3231082558631897e-01" nType="0">
          <Node pos="l" depth="2" NCoef="0" IVar="-1" Cut="0.0000000000000000e+00" cType="1" res="-8.4980335086584091e-03" rms="4.1677159070968628e-01" purity="4.1640865802764893e-01" nType="-1"/>
          <Node pos="r" depth="2" NCoef="0" IVar="-1" Cut="0.0000000000000000e+00" cType="1" res="-3.1009549275040627e-02" rms="3.4760299324989319e-01" purity="1.6867469251155853e-01" nType="-1"/>
        </Node>
      </Node>
    </BinaryTree>
    <BinaryTree type="DecisionTree" boostWeight="1.0000000000000000e+00" itree="26">
      <Node pos="s" depth="0" NCoef="0" IVar="0" Cut="4.0199003219604492e+00" cType="1" res="4.2919687926769257e-02" rms="3.7944594025611877e-01" purity="6.6137182712554932e-01" nType="0">
        <Node pos="l" depth="1" NCoef="0" IVar="-1" Cut="0.0000000000000000e+00" cType="1" res="1.0085661895573139e-02" rms="3.7239941954612732e-01" purity="7.4167591333389282e-01" nType="1"/>
        <Node pos="r" depth="1" NCoef="0" IVar="0" Cut="5.0199003219604492e+00" cType="1" res="-2.1326805651187897e-01" rms="3.2088229060173035e-01" purity="1.3611614704132080e-01" nType="0">
          <Node pos="l" depth="2" NCoef="0" IVar="-1" Cut="0.0000000000000000e+00" cType="1" res="-1.8766025081276894e-02" rms="3.5485553741455078e-01" purity="1.8397626280784607e-01" nType="-1"/>
          <Node pos="r" depth="2" NCoef="0" IVar="-1" Cut="0.0000000000000000e+00" cType="1" res="-3.2945018261671066e-02" rms="2.3847958445549011e-01" purity="6.0747664421796799e-02" nType="-1"/>
        </Node>
      </Node>
    </BinaryTree>
    <BinaryTree type="DecisionTree" boostWeight="1.0000000000000000e+00" itree="27">
      <Node pos="s" depth="0" NCoef="0" IVar="4" Cut="1.7865930795669556e+00" cType="0" res="4.0773820132017136e-02" rms="3.7821581959724426e-01" purity="6.6137182712554932e-01" nType="0">
        <Node pos="l" depth="1" NCoef="0" IVar="-1" Cut="0.0000000000000000e+00" cType="1" res="1.6072735190391541e-02" rms="3.2158967852592468e-01" purity="8.2052385807037354e-01" nType="1"/>
        <Node pos="r" depth="1" NCoef="0" IVar="3" Cut="-9.9004977941513062e-01" cType="0" res="-6.9191776216030121e-02" rms="4.1474956274032593e-01" purity="4.5837897062301636e-01" nType="0">
          <Node pos="l" depth="2" NCoef="0" IVar="-1" Cut="0.0000000000000000e+00" cType="1" res="-6.8010987888555974e-05" rms="4.2085990309715271e-01" purity="5.7637131214141846e-01" nType="1"/>
          <Node pos="r" depth="2" NCoef="0" IVar="-1" Cut="0.0000000000000000e+00" cType="1" res="-2.3455170914530754e-02" rms="3.7119951844215393e-01" purity="2.4024960398674011e-01" nType="-1"/>
        </Node>
      </Node>
    </BinaryTree>
    <BinaryTree type="DecisionTree" boostWeight="1.0000000000000000e+00" itree="28">
      <Node pos="s" depth="0" NCoef="0" IVar="0" Cut="3.0099501609802246e+00" cType="1" res="3.8751967251300812e-02" rms="3.7659925222396851e-01" purity="6.6137182712554932e-01" nType="0">
        <Node pos="l" depth="1" NCoef="0" IVar="-1" Cut="0.0000000000000000e+00" cType="1" res="1.3132932595908642e-02" rms="3.4677582979202271e-01" purity="8.2972139120101929e-01" nType="1"/>
        <Node pos="r" depth="1" NCoef="0" IVar="2" Cut="-2.4534370899200439e+00" cType="1" res="-1.0795128345489502e-01" rms="4.0164336562156677e-01" purity="2.6923078298568726e-01" nType="0">
          <Node pos="l" depth="2" NCoef="0" IVar="-1" Cut="0.0000000000000000e+00" cType="1" res="1.9400635734200478e-02" rms="4.3120372295379639e-01" purity="7.0476192235946655e-01" nType="1"/>
          <Node pos="r" depth="2" NCoef="0" IVar="-1" Cut="0.0000000000000000e+00" cType="1" res="-1.5284571796655655e-02" rms="3.8739830255508423e-01" purity="2.2922134399414062e-01" nType="-1"/>
        </Node>
      </Node>
    </BinaryTree>
    <BinaryTree type="DecisionTree" boostWeight="1.0000000000000000e+00" itree="29">
      <Node pos="s" depth="0" NCoef="0" IVar="1" Cut="2.5115771484375000e+02" cType="1" res="3.6828059703111649e-02" rms="3.7526163458824158e-01" purity="6.6137182712554932e-01" nType="0">
        <Node pos="l" depth="1" NCoef="0" IVar="-1" Cut="0.0000000000000000e+00" cType="1" res="1.3688828796148300e-02" rms="3.3776444196701050e-01" purity="7.6407915353775024e-01" nType="1"/>
        <Node pos="r" depth="1" NCoef="0" IVar="2" Cut="2.7271459102630615e+00" cType="0" res="-8.6486369371414185e-02" rms="4.0347638726234436e-01" purity="4.8461034893989563e-01" nType="0">
          <Node pos="l" depth="2" NCoef="0" IVar="-1" Cut="0.0000000000000000e+00" cType="1" res="2.2919984534382820e-02" rms="2.7564126253128052e-01" purity="8.9189189672470093e-01" nType="1"/>
          <Node pos="r" depth="2" NCoef="0" IVar="-1" Cut="0.0000000000000000e+00" cType="1" res="-1.5800869092345238e-02" rms="4.0489575266838074e-01" purity="4.1532567143440247e-01" nType="-1"/>
        </Node>
      </Node>
    </BinaryTree>
    <BinaryTree type="DecisionTree" boostWeight="1.0000000000000000e+00" itree="30">
      <Node pos="s" depth="0" NCoef="0" IVar="0" Cut="2.0348258018493652e+00" cType="1" res="3.5006962716579437e-02" rms="3.7358012795448303e-01" purity="6.6137182712554932e-01" nType="0">
        <Node pos="l" depth="1" NCoef="0" IVar="-1" Cut="0.0000000000000000e+00" cType="1" res="2.0356914028525352e-02" rms="2.7018082141876221e-01" purity="9.1430193185806274e-01" nType="1"/>
        <Node pos="r" depth="1" NCoef="0" IVar="2" Cut="2.3514580726623535e+00" cType="0" res="-4.4599998742341995e-02" rms="4.1668987274169922e-01" purity="4.7513580322265625e-01" nType="0">
          <Node pos="l" depth="2" NCoef="0" IVar="-1" Cut="0.0000000000000000e+00" cType="1" res="1.8975989893078804e-02" rms="3.5396477580070496e-01" purity="8.0361175537109375e-01" nType="1"/>
          <Node pos="r" depth="2" NCoef="0" IVar="-1" Cut="0.0000000000000000e+00" cType="1" res="-1.0484233498573303e-02" rms="4.1563561558723450e-01" purity="4.0051281452178955e-01" nType="-1"/>
        </Node>
      </Node>
    </BinaryTree>
    <BinaryTree type="DecisionTree" boostWeight="1.0000000000000000e+00" itree="31">
      <Node pos="s" depth="0" NCoef="0" IVar="4" Cut="1.0784307718276978e+00" cType="0" res="3.3293955028057098e-02" rms="3.7178304791450500e-01" purity="6.6137182712554932e-01" nType="0">
        <Node pos="l" depth="1" NCoef="0" IVar="-1" Cut="0.0000000000000000e+00" cType="1" res="1.0692439042031765e-02" rms="3.4784236550331116e-01" purity="7.6266920566558838e-01" nType="1"/>
        <Node pos="r" depth="1" NCoef="0" IVar="2" Cut="1.6201318502426147e+00" cType="0" res="-1.2865191698074341e-01" rms="3.9986041188240051e-01" purity="3.3231082558631897e-01" nType="0">
          <Node pos="l" depth="2" NCoef="0" IVar="-1" Cut="0.0000000000000000e+00" cType="1" res="6.5165981650352478e-03" rms="4.1486242413520813e-01" purity="5.7558137178421021e-01" nType="1"/>
          <Node pos="r" depth="2" NCoef="0" IVar="-1" Cut="0.0000000000000000e+00" cType="1" res="-2.0199263468384743e-02" rms="3.8540416955947876e-01" purity="2.8039702773094177e-01" nType="-1"/>
        </Node>
      </Node>
    </BinaryTree>
    <BinaryTree type="DecisionTree" boostWeight="1.0000000000000000e+00" itree="32">
      <Node pos="s" depth="0" NCoef="0" IVar="0" Cut="4.0199003219604492e+00" cType="1" res="3.1637549400329590e-02" rms="3.7061718106269836e-01" purity="6.6137182712554932e-01" nType="0">
        <Node pos="l" depth="1" NCoef="0" IVar="-1" Cut="0.0000000000000000e+00" cType="1" res="8.5181370377540588e-03" rms="3.6579978466033936e-01" purity="7.4167591333389282e-01" nType="1"/>
        <Node pos="r" depth="1" NCoef="0" IVar="0" Cut="5.0199003219604492e+00" cType="1" res="-1.9446824491024017e-01" rms="3.1878119707107544e-01" purity="1.3611614704132080e-01" nType="0">
          <Node pos="l" depth="2" NCoef="0" IVar="-1" Cut="0.0000000000000000e+00" cType="1" res="-1.7470236867666245e-02" rms="3.5133576393127441e-01" purity="1.8397626280784607e-01" nType="-1"/>
          <Node pos="r" depth="2" NCoef="0" IVar="-1" Cut="0.0000000000000000e+00" cType="1" res="-3.1707510352134705e-02" rms="2.4115604162216187e-01" purity="6.0747664421796799e-02" nType="-1"/>
        </Node>
      </Node>
    </BinaryTree>
    <BinaryTree type="DecisionTree" boostWeight="1.0000000000000000e+00" itree="33">
      <Node pos="s" depth="0" NCoef="0" IVar="1" Cut="2.5115771484375000e+02" cType="1" res="3.0053274706006050e-02" rms="3.6965057253837585e-01" purity="6.6137182712554932e-01" nType="0">
        <Node pos="l" depth="1" NCoef="0" IVar="-1" Cut="0.0000000000000000e+00" cType="1" res="1.2592342682182789e-02" rms="3.3452397584915161e-01" purity="7.6407915353775024e-01" nType="1"/>
        <Node pos="r" depth="1" NCoef="0" IVar="2" Cut="-2.6669516563415527e+00" cType="1" res="-8.4633424878120422e-02" rms="3.9801487326622009e-01" purity="4.8461034893989563e-01" nType="0">
          <Node pos="l" depth="2" NCoef="0" IVar="-1" Cut="0.0000000000000000e+00" cType="1" res="2.3700559511780739e-02" rms="2.5648015737533569e-01" purity="9.0291261672973633e-01" nType="1"/>
          <Node pos="r" depth="2" NCoef="0" IVar="-1" Cut="0.0000000000000000e+00" cType="1" res="-1.5571949072182178e-02" rms="4.0018865466117859e-01" purity="4.1937926411628723e-01" nType="-1"/>
        </Node>
      </Node>
    </BinaryTree>
    <BinaryTree type="DecisionTree" boostWeight="1.0000000000000000e+00" itree="34">
      <Node pos="s" depth="0" NCoef="0" IVar="3" Cut="-9.9004977941513062e-01" cType="0" res="2.8568970039486885e-02" rms="3.6812689900398254e-01" purity="6.6137182712554932e-01" nType="0">
        <Node pos="l" depth="1" NCoef="0" IVar="-1" Cut="0.0000000000000000e+00" cType="1" res="1.0834306478500366e-02" rms="3.4735494852066040e-01" purity="7.5700300931930542e-01" nType="1"/>
        <Node pos="r" depth="1" NCoef="0" IVar="0" Cut="2.0348258018493652e+00" cType="1" res="-1.0779105126857758e-01" rms="3.8260415196418762e-01" purity="4.2365771532058716e-01" nType="0">
          <Node pos="l" depth="2" NCoef="0" IVar="-1" Cut="0.0000000000000000e+00" cType="1" res="6.6345925442874432e-03" rms="3.6360901594161987e-01" purity="8.1948423385620117e-01" nType="1"/>
          <Node pos="r" depth="2" NCoef="0" IVar="-1" Cut="0.0000000000000000e+00" cType="1" res="-2.0495332777500153e-02" rms="3.7204489111900330e-01" purity="2.5978648662567139e-01" nType="-1"/>
        </Node>
      </Node>
    </BinaryTree>
    <BinaryTree type="DecisionTree" boostWeight="1.0000000000000000e+00" itree="35">
      <Node pos="s" depth="0" NCoef="0" IVar="0" Cut="2.0348258018493652e+00" cType="1" res="2.7147166430950165e-02" rms="3.6686265468597412e-01" purity="6.6137182712554932e-01" nType="0">
        <Node pos="l" depth="1" NCoef="0" IVar="-1" Cut="0.0000000000000000e+00" cType="1" res="1.8915379419922829e-02" rms="2.6833030581474304e-01" purity="9.1430193185806274e-01" nType="1"/>
        <Node pos="r" depth="1" NCoef="0" IVar="2" Cut="-2.2297608852386475e+00" cType="1" res="-4.5119047164916992e-02" rms="4.1031315922737122e-01" purity="4.7513580322265625e-01" nType="0">
          <Node pos="l" depth="2" NCoef="0" IVar="-1" Cut="0.0000000000000000e+00" cType="1" res="1.7882304266095161e-02" rms="3.5839974880218506e-01" purity="8.0000001192092896e-01" nType="1"/>
          <Node pos="r" depth="2" NCoef="0" IVar="-1" Cut="0.0000000000000000e+00" cType="1" res="-1.0501838289201260e-02" rms="4.0798309445381165e-01" purity="4.0296220779418945e-01" nType="-1"/>
        </Node>
      </Node>
    </BinaryTree>
    <BinaryTree type="DecisionTree" boostWeight="1.0000000000000000e+00" itree="36">
      <Node pos="s" depth="0" NCoef="0" IVar="4" Cut="1.8173826932907104e+00" cType="0" res="2.5822274386882782e-02" rms="3.6529511213302612e-01" purity="6.6137182712554932e-01" nType="0">
        <Node pos="l" depth="1" NCoef="0" IVar="-1" Cut="0.0000000000000000e+00" cType="1" res="1.3856358826160431e-02" rms="3.1092175841331482e-01" purity="8.2340049743652344e-01" nType="1"/>
        <Node pos="r" depth="1" NCoef="0" IVar="2" Cut="-1.9016772508621216e+00" cType="1" res="-6.5442845225334167e-02" rms="4.0382158756256104e-01" purity="4.6396157145500183e-01" nType="0">
          <Node pos="l" depth="2" NCoef="0" IVar="-1" Cut="0.0000000000000000e+00" cType="1" res="1.2668450362980366e-02" rms="3.5661748051643372e-01" purity="7.3654389381408691e-01" nType="1"/>
          <Node pos="r" depth="2" NCoef="0" IVar="-1" Cut="0.0000000000000000e+00" cType="1" res="-1.2865574099123478e-02" rms="4.0414321422576904e-01" purity="4.0065789222717285e-01" nType="-1"/>
        </Node>
      </Node>
    </BinaryTree>
    <BinaryTree type="DecisionTree" boostWeight="1.0000000000000000e+00" itree="37">
      <Node pos="s" depth="0" NCoef="0" IVar="1" Cut="2.5115771484375000e+02" cType="1" res="2.4548128247261047e-02" rms="3.6408403515815735e-01" purity="6.6137182712554932e-01" nType="0">
        <Node pos="l" depth="1" NCoef="0" IVar="-1" Cut="0.0000000000000000e+00" cType="1" res="1.1634305119514465e-02" rms="3.3081650733947754e-01" purity="7.6407915353775024e-01" nType="1"/>
        <Node pos="r" depth="1" NCoef="0" IVar="2" Cut="2.7271459102630615e+00" cType="0" res="-8.2198716700077057e-02" rms="3.9284509420394897e-01" purity="4.8461034893989563e-01" nType="0">
          <Node pos="l" depth="2" NCoef="0" IVar="-1" Cut="0.0000000000000000e+00" cType="1" res="2.1184878423810005e-02" rms="2.7468916773796082e-01" purity="8.9189189672470093e-01" nType="1"/>
          <Node pos="r" depth="2" NCoef="0" IVar="-1" Cut="0.0000000000000000e+00" cType="1" res="-1.5242989175021648e-02" rms="3.9604178071022034e-01" purity="4.1532567143440247e-01" nType="-1"/>
        </Node>
      </Node>
    </BinaryTree>
    <BinaryTree type="DecisionTree" boostWeight="1.0000000000000000e+00" itree="38">
      <Node pos="s" depth="0" NCoef="0" IVar="3" Cut="-9.9004977941513062e-01" cType="0" res="2.3336326703429222e-02" rms="3.6276254057884216e-01" purity="6.6137182712554932e-01" nType="0">
        <Node pos="l" depth="1" NCoef="0" IVar="-1" Cut="0.0000000000000000e+00" cType="1" res="9.9131558090448380e-03" rms="3.4380239248275757e-01" purity="7.5700300931930542e-01" nType="1"/>
        <Node pos="r" depth="1" NCoef="0" IVar="0" Cut="2.0348258018493652e+00" cType="1" res="-1.0306362807750702e-01" rms="3.7748202681541443e-01" purity="4.2365771532058716e-01" nType="0">
          <Node pos="l" depth="2" NCoef="0" IVar="-1" Cut="0.0000000000000000e+00" cType="1" res="5.1340875215828419e-03" rms="3.6085665225982666e-01" purity="8.1948423385620117e-01" nType="1"/>
          <Node pos="r" depth="2" NCoef="0" IVar="-1" Cut="0.0000000000000000e+00" cType="1" res="-1.9404353573918343e-02" rms="3.6953723430633545e-01" purity="2.5978648662567139e-01" nType="-1"/>
        </Node>
      </Node>
    </BinaryTree>
    <BinaryTree type="DecisionTree" boostWeight="1.0000000000000000e+00" itree="39">
      <Node pos="s" depth="0" NCoef="0" IVar="0" Cut="4.0199003219604492e+00" cType="1" res="2.2174302488565445e-02" rms="3.6169913411140442e-01" purity="6.6137182712554932e-01" nType="0">
        <Node pos="l" depth="1" NCoef="0" IVar="-1" Cut="0.0000000000000000e+00" cType="1" res="7.1017877198755741e-03" rms="3.5854265093803406e-01" purity="7.4167591333389282e-01" nType="1"/>
        <Node pos="r" depth="1" NCoef="0" IVar="0" Cut="5.0199003219604492e+00" cType="1" res="-1.7794965207576752e-01" rms="3.1547373533248901e-01" purity="1.3611614704132080e-01" nType="0">
          <Node pos="l" depth="2" NCoef="0" IVar="-1" Cut="0.0000000000000000e+00" cType="1" res="-1.6423823311924934e-02" rms="3.4700083732604980e-01" purity="1.8397626280784607e-01" nType="-1"/>
          <Node pos="r" depth="2" NCoef="0" IVar="-1" Cut="0.0000000000000000e+00" cType="1" res="-3.0600020661950111e-02" rms="2.4190418422222137e-01" purity="6.0747664421796799e-02" nType="-1"/>
        </Node>
      </Node>
    </BinaryTree>
    <BinaryTree type="DecisionTree" boostWeight="1.0000000000000000e+00" itree="40">
      <Node pos="s" depth="0" NCoef="0" IVar="4" Cut="1.0784307718276978e+00" cType="0" res="2.1061317995190620e-02" rms="3.6093568801879883e-01" purity="6.6137182712554932e-01" nType="0">
        <Node pos="l" depth="1" NCoef="0" IVar="-1" Cut="0.0000000000000000e+00" cType="1" res="8.7969489395618439e-03" rms="3.3902543783187866e-01" purity="7.6266920566558838e-01" nType="1"/>
        <Node pos="r" depth="1" NCoef="0" IVar="2" Cut="1.6201318502426147e+00" cType="0" res="-1.1914609372615814e-01" rms="3.9291781187057495e-01" purity="3.3231082558631897e-01" nType="0">
          <Node pos="l" depth="2" NCoef="0" IVar="-1" Cut="0.0000000000000000e+00" cType="1" res="6.2941424548625946e-03" rms="4.0793555974960327e-01" purity="5.7558137178421021e-01" nType="1"/>
          <Node pos="r" depth="2" NCoef="0" IVar="-1" Cut="0.0000000000000000e+00" cType="1" res="-1.9432730972766876e-02" rms="3.7982937693595886e-01" purity="2.8039702773094177e-01" nType="-1"/>
        </Node>
      </Node>
    </BinaryTree>
    <BinaryTree type="DecisionTree" boostWeight="1.0000000000000000e+00" itree="41">
      <Node pos="s" depth="0" NCoef="0" IVar="1" Cut="2.5529104614257812e+02" cType="1" res="2.0013064146041870e-02" rms="3.6002311110496521e-01" purity="6.6137182712554932e-01" nType="0">
        <Node pos="l" depth="1" NCoef="0" IVar="-1" Cut="0.0000000000000000e+00" cType="1" res="1.0425000451505184e-02" rms="3.2958307862281799e-01" purity="7.6044362783432007e-01" nType="1"/>
        <Node pos="r" depth="1" NCoef="0" IVar="2" Cut="-2.7609329223632812e+00" cType="1" res="-8.3860307931900024e-02" rms="3.9013260602951050e-01" purity="4.7655171155929565e-01" nType="0">
          <Node pos="l" depth="2" NCoef="0" IVar="-1" Cut="0.0000000000000000e+00" cType="1" res="2.3518405854701996e-02" rms="2.3103103041648865e-01" purity="9.2000001668930054e-01" nType="1"/>
          <Node pos="r" depth="2" NCoef="0" IVar="-1" Cut="0.0000000000000000e+00" cType="1" res="-1.5036074444651604e-02" rms="3.9501476287841797e-01" purity="4.1568627953529358e-01" nType="-1"/>
        </Node>
      </Node>
    </BinaryTree>
    <BinaryTree type="DecisionTree" boostWeight="1.0000000000000000e+00" itree="42">
      <Node pos="s" depth="0" NCoef="0" IVar="0" Cut="2.0348258018493652e+00" cType="1" res="1.9026175141334534e-02" rms="3.5886791348457336e-01" purity="6.6137182712554932e-01" nType="0">
        <Node pos="l" depth="1" NCoef="0" IVar="-1" Cut="0.0000000000000000e+00" cType="1" res="1.7328305169939995e-02" rms="2.6488927006721497e-01" purity="9.1430193185806274e-01" nType="1"/>
        <Node pos="r" depth="1" NCoef="0" IVar="2" Cut="2.3514580726623535e+00" cType="0" res="-4.5595329254865646e-02" rms="4.0261825919151306e-01" purity="4.7513580322265625e-01" nType="0">
          <Node pos="l" depth="2" NCoef="0" IVar="-1" Cut="0.0000000000000000e+00" cType="1" res="1.6766000539064407e-02" rms="3.4683117270469666e-01" purity="8.0361175537109375e-01" nType="1"/>
          <Node pos="r" depth="2" NCoef="0" IVar="-1" Cut="0.0000000000000000e+00" cType="1" res="-1.0378323495388031e-02" rms="4.0303504467010498e-01" purity="4.0051281452178955e-01" nType="-1"/>
        </Node>
      </Node>
    </BinaryTree>
    <BinaryTree type="DecisionTree" boostWeight="1.0000000000000000e+00" itree="43">
      <Node pos="s" depth="0" NCoef="0" IVar="3" Cut="-9.9004977941513062e-01" cType="0" res="1.8101984634995461e-02" rms="3.5756930708885193e-01" purity="6.6137182712554932e-01" nType="0">
        <Node pos="l" depth="1" NCoef="0" IVar="-1" Cut="0.0000000000000000e+00" cType="1" res="8.9887594804167747e-03" rms="3.4014260768890381e-01" purity="7.5700300931930542e-01" nType="1"/>
        <Node pos="r" depth="1" NCoef="0" IVar="2" Cut="2.6460471153259277e+00" cType="0" res="-9.8758980631828308e-02" rms="3.7273183465003967e-01" purity="4.2365771532058716e-01" nType="0">
          <Node pos="l" depth="2" NCoef="0" IVar="-1" Cut="0.0000000000000000e+00" cType="1" res="1.6456980258226395e-02" rms="3.1332218647003174e-01" purity="8.5517239570617676e-01" nType="1"/>
          <Node pos="r" depth="2" NCoef="0" IVar="-1" Cut="0.0000000000000000e+00" cType="1" res="-1.6840511932969093e-02" rms="3.7051150202751160e-01" purity="3.6389684677124023e-01" nType="-1"/>
        </Node>
      </Node>
    </BinaryTree>
    <BinaryTree type="DecisionTree" boostWeight="1.0000000000000000e+00" itree="44">
      <Node pos="s" depth="0" NCoef="0" IVar="2" Cut="-2.1498835086822510e+00" cType="1" res="1.7204834148287773e-02" rms="3.5660517215728760e-01" purity="6.6137182712554932e-01" nType="0">
        <Node pos="l" depth="1" NCoef="0" IVar="-1" Cut="0.0000000000000000e+00" cType="1" res="2.0585361868143082e-02" rms="2.5791025161743164e-01" purity="8.9661484956741333e-01" nType="1"/>
        <Node pos="r" depth="1" NCoef="0" IVar="2" Cut="2.0618331432342529e+00" cType="0" res="-2.6828834787011147e-02" rms="3.7609252333641052e-01" purity="5.7740038633346558e-01" nType="0">
          <Node pos="l" depth="2" NCoef="0" IVar="-1" Cut="0.0000000000000000e+00" cType="1" res="1.8106397241353989e-02" rms="2.8230208158493042e-01" purity="8.6295682191848755e-01" nType="1"/>
          <Node pos="r" depth="2" NCoef="0" IVar="-1" Cut="0.0000000000000000e+00" cType="1" res="-1.5822637826204300e-02" rms="3.9644205570220947e-01" purity="3.9235737919807434e-01" nType="-1"/>
        </Node>
      </Node>
    </BinaryTree>
    <BinaryTree type="DecisionTree" boostWeight="1.0000000000000000e+00" itree="45">
      <Node pos="s" depth="0" NCoef="0" IVar="1" Cut="2.5115771484375000e+02" cType="1" res="1.6377290710806847e-02" rms="3.5435888171195984e-01" purity="6.6137182712554932e-01" nType="0">
        <Node pos="l" depth="1" NCoef="0" IVar="-1" Cut="0.0000000000000000e+00" cType="1" res="1.0003807023167610e-02" rms="3.2453602552413940e-01" purity="7.6407915353775024e-01" nType="1"/>
        <Node pos="r" depth="1" NCoef="0" IVar="2" Cut="-2.7155470848083496e+00" cType="1" res="-7.6479546725749969e-02" rms="3.8312214612960815e-01" purity="4.8461034893989563e-01" nType="0">
          <Node pos="l" depth="2" NCoef="0" IVar="-1" Cut="0.0000000000000000e+00" cType="1" res="2.2059485316276550e-02" rms="2.3768749833106995e-01" purity="9.1752576828002930e-01" nType="1"/>
          <Node pos="r" depth="2" NCoef="0" IVar="-1" Cut="0.0000000000000000e+00" cType="1" res="-1.4141229912638664e-02" rms="3.8920995593070984e-01" purity="4.2160540819168091e-01" nType="-1"/>
        </Node>
      </Node>
    </BinaryTree>
    <BinaryTree type="DecisionTree" boostWeight="1.0000000000000000e+00" itree="46">
      <Node pos="s" depth="0" NCoef="0" IVar="0" Cut="4.0199003219604492e+00" cType="1" res="1.5570938587188721e-02" rms="3.5332068800926208e-01" purity="6.6137182712554932e-01" nType="0">
        <Node pos="l" depth="1" NCoef="0" IVar="-1" Cut="0.0000000000000000e+00" cType="1" res="6.0106855817139149e-03" rms="3.5129764676094055e-01" purity="7.4167591333389282e-01" nType="1"/>
        <Node pos="r" depth="1" NCoef="0" IVar="0" Cut="5.0199003219604492e+00" cType="1" res="-1.6251513361930847e-01" rms="3.1240332126617432e-01" purity="1.3611614704132080e-01" nType="0">
          <Node pos="l" depth="2" NCoef="0" IVar="-1" Cut="0.0000000000000000e+00" cType="1" res="-1.5456773340702057e-02" rms="3.4185740351676941e-01" purity="1.8397626280784607e-01" nType="-1"/>
          <Node pos="r" depth="2" NCoef="0" IVar="-1" Cut="0.0000000000000000e+00" cType="1" res="-2.9592372477054596e-02" rms="2.4511970579624176e-01" purity="6.0747664421796799e-02" nType="-1"/>
        </Node>
      </Node>
    </BinaryTree>
    <BinaryTree type="DecisionTree" boostWeight="1.0000000000000000e+00" itree="47">
      <Node pos="s" depth="0" NCoef="0" IVar="3" Cut="-9.9004977941513062e-01" cType="0" res="1.4787119813263416e-02" rms="3.5270902514457703e-01" purity="6.6137182712554932e-01" nType="0">
        <Node pos="l" depth="1" NCoef="0" IVar="-1" Cut="0.0000000000000000e+00" cType="1" res="8.2648769021034241e-03" rms="3.3662545680999756e-01" purity="7.5700300931930542e-01" nType="1"/>
        <Node pos="r" depth="1" NCoef="0" IVar="1" Cut="2.9080575561523438e+02" cType="1" res="-9.3517780303955078e-02" rms="3.6812233924865723e-01" purity="4.2365771532058716e-01" nType="0">
          <Node pos="l" depth="2" NCoef="0" IVar="-1" Cut="0.0000000000000000e+00" cType="1" res="-6.1760637909173965e-03" rms="3.6115840077400208e-01" purity="5.1179248094558716e-01" nType="1"/>
          <Node pos="r" depth="2" NCoef="0" IVar="-1" Cut="0.0000000000000000e+00" cType="1" res="-2.7809405699372292e-02" rms="3.5804948210716248e-01" purity="2.0639534294605255e-01" nType="-1"/>
        </Node>
      </Node>
    </BinaryTree>
    <BinaryTree type="DecisionTree" boostWeight="1.0000000000000000e+00" itree="48">
      <Node pos="s" depth="0" NCoef="0" IVar="2" Cut="-2.1498835086822510e+00" cType="1" res="1.4051067642867565e-02" rms="3.5186514258384705e-01" purity="6.6137182712554932e-01" nType="0">
        <Node pos="l" depth="1" NCoef="0" IVar="-1" Cut="0.0000000000000000e+00" cType="1" res="1.9528049975633621e-02" rms="2.5592124462127686e-01" purity="8.9661484956741333e-01" nType="1"/>
        <Node pos="r" depth="1" NCoef="0" IVar="2" Cut="2.0618331432342529e+00" cType="0" res="-2.6616588234901428e-02" rms="3.7193727493286133e-01" purity="5.7740038633346558e-01" nType="0">
          <Node pos="l" depth="2" NCoef="0" IVar="-1" Cut="0.0000000000000000e+00" cType="1" res="1.7298525199294090e-02" rms="2.8058922290802002e-01" purity="8.6295682191848755e-01" nType="1"/>
          <Node pos="r" depth="2" NCoef="0" IVar="-1" Cut="0.0000000000000000e+00" cType="1" res="-1.5185200609266758e-02" rms="3.9440855383872986e-01" purity="3.9235737919807434e-01" nType="-1"/>
        </Node>
      </Node>
    </BinaryTree>
    <BinaryTree type="DecisionTree" boostWeight="1.0000000000000000e+00" itree="49">
      <Node pos="s" depth="0" NCoef="0" IVar="0" Cut="2.0348258018493652e+00" cType="1" res="1.3377898372709751e-02" rms="3.4988972544670105e-01" purity="6.6137182712554932e-01" nType="0">
        <Node pos="l" depth="1" NCoef="0" IVar="-1" Cut="0.0000000000000000e+00" cType="1" res="1.5882695093750954e-02" rms="2.6035684347152710e-01" purity="9.1430193185806274e-01" nType="1"/>
        <Node pos="r" depth="1" NCoef="0" IVar="1" Cut="2.1549240112304688e+02" cType="1" res="-4.3909937143325806e-02" rms="3.9359092712402344e-01" purity="4.7513580322265625e-01" nType="0">
          <Node pos="l" depth="2" NCoef="0" IVar="-1" Cut="0.0000000000000000e+00" cType="1" res="5.7667666114866734e-03" rms="3.8106030225753784e-01" purity="6.3958334922790527e-01" nType="1"/>
          <Node pos="r" depth="2" NCoef="0" IVar="-1" Cut="0.0000000000000000e+00" cType="1" res="-1.2857152149081230e-02" rms="3.9033141732215881e-01" purity="3.6496859788894653e-01" nType="-1"/>
        </Node>
      </Node>
    </BinaryTree>
    <BinaryTree type="DecisionTree" boostWeight="1.0000000000000000e+00" itree="50">
      <Node pos="s" depth="0" NCoef="0" IVar="4" Cut="1.8173826932907104e+00" cType="0" res="1.2727972120046616e-02" rms="3.4889385104179382e-01" purity="6.6137182712554932e-01" nType="0">
        <Node pos="l" depth="1" NCoef="0" IVar="-1" Cut="0.0000000000000000e+00" cType="1" res="1.0989952832460403e-02" rms="2.9821351170539856e-01" purity="8.2340049743652344e-01" nType="1"/>
        <Node pos="r" depth="1" NCoef="0" IVar="2" Cut="-1.9016772508621216e+00" cType="1" res="-5.8667279779911041e-02" rms="3.9038828015327454e-01" purity="4.6396157145500183e-01" nType="0">
          <Node pos="l" depth="2" NCoef="0" IVar="-1" Cut="0.0000000000000000e+00" cType="1" res="1.0752178728580475e-02" rms="3.4539347887039185e-01" purity="7.3654389381408691e-01" nType="1"/>
          <Node pos="r" depth="2" NCoef="0" IVar="-1" Cut="0.0000000000000000e+00" cType="1" res="-1.1816133745014668e-02" rms="3.9310798048973083e-01" purity="4.0065789222717285e-01" nType="-1"/>
        </Node>
      </Node>
    </BinaryTree>
    <BinaryTree type="DecisionTree" boostWeight="1.0000000000000000e+00" itree="51">
      <Node pos="s" depth="0" NCoef="0" IVar="3" Cut="-9.9004977941513062e-01" cType="0" res="1.2101877480745316e-02" rms="3.4811139106750488e-01" purity="6.6137182712554932e-01" nType="0">
        <Node pos="l" depth="1" NCoef="0" IVar="-1" Cut="0.0000000000000000e+00" cType="1" res="7.6305349357426167e-03" rms="3.3325928449630737e-01" purity="7.5700300931930542e-01" nType="1"/>
        <Node pos="r" depth="1" NCoef="0" IVar="1" Cut="2.9080575561523438e+02" cType="1" res="-8.8028177618980408e-02" rms="3.6369937658309937e-01" purity="4.2365771532058716e-01" nType="0">
          <Node pos="l" depth="2" NCoef="0" IVar="-1" Cut="0.0000000000000000e+00" cType="1" res="-6.0808290727436543e-03" rms="3.5744348168373108e-01" purity="5.1179248094558716e-01" nType="1"/>
          <Node pos="r" depth="2" NCoef="0" IVar="-1" Cut="0.0000000000000000e+00" cType="1" res="-2.6430070400238037e-02" rms="3.5593220591545105e-01" purity="2.0639534294605255e-01" nType="-1"/>
        </Node>
      </Node>
    </BinaryTree>
    <BinaryTree type="DecisionTree" boostWeight="1.0000000000000000e+00" itree="52">
      <Node pos="s" depth="0" NCoef="0" IVar="0" Cut="4.0199003219604492e+00" cType="1" res="1.1499048210680485e-02" rms="3.4738326072692871e-01" purity="6.6137182712554932e-01" nType="0">
        <Node pos="l" depth="1" NCoef="0" IVar="-1" Cut="0.0000000000000000e+00" cType="1" res="5.2414881065487862e-03" rms="3.4614440798759460e-01" purity="7.4167591333389282e-01" nType="1"/>
        <Node pos="r" depth="1" NCoef="0" IVar="0" Cut="5.0199003219604492e+00" cType="1" res="-1.4906571805477142e-01" rms="3.1076061725616455e-01" purity="1.3611614704132080e-01" nType="0">
          <Node pos="l" depth="2" NCoef="0" IVar="-1" Cut="0.0000000000000000e+00" cType="1" res="-1.4528896659612656e-02" rms="3.3906829357147217e-01" purity="1.8397626280784607e-01" nType="-1"/>
          <Node pos="r" depth="2" NCoef="0" IVar="-1" Cut="0.0000000000000000e+00" cType="1" res="-2.8710370883345604e-02" rms="2.4730005860328674e-01" purity="6.0747664421796799e-02" nType="-1"/>
        </Node>
      </Node>
    </BinaryTree>
    <BinaryTree type="DecisionTree" boostWeight="1.0000000000000000e+00" itree="53">
      <Node pos="s" depth="0" NCoef="0" IVar="2" Cut="-2.4441905021667480e+00" cType="1" res="1.0918463580310345e-02" rms="3.4687748551368713e-01" purity="6.6137182712554932e-01" nType="0">
        <Node pos="l" depth="1" NCoef="0" IVar="-1" Cut="0.0000000000000000e+00" cType="1" res="2.1749893203377724e-02" rms="2.1819065511226654e-01" purity="9.3002259731292725e-01" nType="1"/>
        <Node pos="r" depth="1" NCoef="0" IVar="2" Cut="2.0521352291107178e+00" cType="0" res="-2.1455464884638786e-02" rms="3.6758324503898621e-01" purity="5.8855921030044556e-01" nType="0">
          <Node pos="l" depth="2" NCoef="0" IVar="-1" Cut="0.0000000000000000e+00" cType="1" res="1.6297852620482445e-02" rms="2.7990114688873291e-01" purity="8.6246895790100098e-01" nType="1"/>
          <Node pos="r" depth="2" NCoef="0" IVar="-1" Cut="0.0000000000000000e+00" cType="1" res="-1.2435698881745338e-02" rms="3.9210414886474609e-01" purity="4.2822501063346863e-01" nType="-1"/>
        </Node>
      </Node>
    </BinaryTree>
    <BinaryTree type="DecisionTree" boostWeight="1.0000000000000000e+00" itree="54">
      <Node pos="s" depth="0" NCoef="0" IVar="1" Cut="2.5115771484375000e+02" cType="1" res="1.0401443578302860e-02" rms="3.4528726339340210e-01" purity="6.6137182712554932e-01" nType="0">
        <Node pos="l" depth="1" NCoef="0" IVar="-1" Cut="0.0000000000000000e+00" cType="1" res="8.6266733705997467e-03" rms="3.1830307841300964e-01" purity="7.6407915353775024e-01" nType="1"/>
        <Node pos="r" depth="1" NCoef="0" IVar="2" Cut="2.7271459102630615e+00" cType="0" res="-7.0176392793655396e-02" rms="3.7386527657508850e-01" purity="4.8461034893989563e-01" nType="0">
          <Node pos="l" depth="2" NCoef="0" IVar="-1" Cut="0.0000000000000000e+00" cType="1" res="1.8059963360428810e-02" rms="2.7203026413917542e-01" purity="8.9189189672470093e-01" nType="1"/>
          <Node pos="r" depth="2" NCoef="0" IVar="-1" Cut="0.0000000000000000e+00" cType="1" res="-1.3677288778126240e-02" rms="3.7973770499229431e-01" purity="4.1532567143440247e-01" nType="-1"/>
        </Node>
      </Node>
    </BinaryTree>
    <BinaryTree type="DecisionTree" boostWeight="1.0000000000000000e+00" itree="55">
      <Node pos="s" depth="0" NCoef="0" IVar="0" Cut="2.0348258018493652e+00" cType="1" res="9.8902098834514618e-03" rms="3.4446457028388977e-01" purity="6.6137182712554932e-01" nType="0">
        <Node pos="l" depth="1" NCoef="0" IVar="-1" Cut="0.0000000000000000e+00" cType="1" res="1.4772385358810425e-02" rms="2.5767916440963745e-01" purity="9.1430193185806274e-01" nType="1"/>
        <Node pos="r" depth="1" NCoef="0" IVar="2" Cut="-2.2297608852386475e+00" cType="1" res="-4.1854973882436752e-02" rms="3.8835501670837402e-01" purity="4.7513580322265625e-01" nType="0">
          <Node pos="l" depth="2" NCoef="0" IVar="-1" Cut="0.0000000000000000e+00" cType="1" res="1.3186552561819553e-02" rms="3.4604382514953613e-01" purity="8.0000001192092896e-01" nType="1"/>
          <Node pos="r" depth="2" NCoef="0" IVar="-1" Cut="0.0000000000000000e+00" cType="1" res="-9.3425987288355827e-03" rms="3.8999557495117188e-01" purity="4.0296220779418945e-01" nType="-1"/>
        </Node>
      </Node>
    </BinaryTree>
    <BinaryTree type="DecisionTree" boostWeight="1.0000000000000000e+00" itree="56">
      <Node pos="s" depth="0" NCoef="0" IVar="3" Cut="-9.9004977941513062e-01" cType="0" res="9.4139510765671730e-03" rms="3.4364408254623413e-01" purity="6.6137182712554932e-01" nType="0">
        <Node pos="l" depth="1" NCoef="0" IVar="-1" Cut="0.0000000000000000e+00" cType="1" res="6.9870366714894772e-03" rms="3.2993179559707642e-01" purity="7.5700300931930542e-01" nType="1"/>
        <Node pos="r" depth="1" NCoef="0" IVar="2" Cut="2.9234809875488281e+00" cType="0" res="-8.2758650183677673e-02" rms="3.5935583710670471e-01" purity="4.2365771532058716e-01" nType="0">
          <Node pos="l" depth="2" NCoef="0" IVar="-1" Cut="0.0000000000000000e+00" cType="1" res="2.0665463060140610e-02" rms="2.6475700736045837e-01" purity="9.1262137889862061e-01" nType="1"/>
          <Node pos="r" depth="2" NCoef="0" IVar="-1" Cut="0.0000000000000000e+00" cType="1" res="-1.4316622167825699e-02" rms="3.6064302921295166e-01" purity="3.7741047143936157e-01" nType="-1"/>
        </Node>
      </Node>
    </BinaryTree>
    <BinaryTree type="DecisionTree" boostWeight="1.0000000000000000e+00" itree="57">
      <Node pos="s" depth="0" NCoef="0" IVar="4" Cut="8.6290311813354492e-01" cType="0" res="8.9484574273228645e-03" rms="3.4300935268402100e-01" purity="6.6137182712554932e-01" nType="0">
        <Node pos="l" depth="1" NCoef="0" IVar="-1" Cut="0.0000000000000000e+00" cType="1" res="5.5243265815079212e-03" rms="3.2809934020042419e-01" purity="7.4037045240402222e-01" nType="1"/>
        <Node pos="r" depth="1" NCoef="0" IVar="1" Cut="2.4552230834960938e+02" cType="1" res="-1.1455680429935455e-01" rms="3.7967669963836670e-01" purity="3.0503979325294495e-01" nType="0">
          <Node pos="l" depth="2" NCoef="0" IVar="-1" Cut="0.0000000000000000e+00" cType="1" res="-6.3943504355847836e-03" rms="4.0812751650810242e-01" purity="4.4289693236351013e-01" nType="-1"/>
          <Node pos="r" depth="2" NCoef="0" IVar="-1" Cut="0.0000000000000000e+00" cType="1" res="-2.3671012371778488e-02" rms="3.4145209193229675e-01" purity="1.7974683642387390e-01" nType="-1"/>
        </Node>
      </Node>
    </BinaryTree>
    <BinaryTree type="DecisionTree" boostWeight="1.0000000000000000e+00" itree="58">
      <Node pos="s" depth="0" NCoef="0" IVar="2" Cut="-2.0517809391021729e+00" cType="1" res="8.4998589009046555e-03" rms="3.4248554706573486e-01" purity="6.6137182712554932e-01" nType="0">
        <Node pos="l" depth="1" NCoef="0" IVar="-1" Cut="0.0000000000000000e+00" cType="1" res="1.6618451103568077e-02" rms="2.6100310683250427e-01" purity="8.8478076457977295e-01" nType="1"/>
        <Node pos="r" depth="1" NCoef="0" IVar="2" Cut="2.0678024291992188e+00" cType="0" res="-2.7251420542597771e-02" rms="3.6310321092605591e-01" purity="5.7453209161758423e-01" nType="0">
          <Node pos="l" depth="2" NCoef="0" IVar="-1" Cut="0.0000000000000000e+00" cType="1" res="1.5437094494700432e-02" rms="2.7769750356674194e-01" purity="8.6344712972640991e-01" nType="1"/>
          <Node pos="r" depth="2" NCoef="0" IVar="-1" Cut="0.0000000000000000e+00" cType="1" res="-1.4367287047207355e-02" rms="3.8978520035743713e-01" purity="3.8079285621643066e-01" nType="-1"/>
        </Node>
      </Node>
    </BinaryTree>
    <BinaryTree type="DecisionTree" boostWeight="1.0000000000000000e+00" itree="59">
      <Node pos="s" depth="0" NCoef="0" IVar="1" Cut="2.5115771484375000e+02" cType="1" res="8.0960439518094063e-03" rms="3.4100377559661865e-01" purity="6.6137182712554932e-01" nType="0">
        <Node pos="l" depth="1" NCoef="0" IVar="-1" Cut="0.0000000000000000e+00" cType="1" res="7.9449974000453949e-03" rms="3.1546595692634583e-01" purity="7.6407915353775024e-01" nType="1"/>
        <Node pos="r" depth="1" NCoef="0" IVar="2" Cut="-2.7155470848083496e+00" cType="1" res="-6.5917275846004486e-02" rms="3.6942550539970398e-01" purity="4.8461034893989563e-01" nType="0">
          <Node pos="l" depth="2" NCoef="0" IVar="-1" Cut="0.0000000000000000e+00" cType="1" res="1.9220570102334023e-02" rms="2.3299273848533630e-01" purity="9.1752576828002930e-01" nType="1"/>
          <Node pos="r" depth="2" NCoef="0" IVar="-1" Cut="0.0000000000000000e+00" cType="1" res="-1.2657751329243183e-02" rms="3.7825545668601990e-01" purity="4.2160540819168091e-01" nType="-1"/>
        </Node>
      </Node>
    </BinaryTree>
    <BinaryTree type="DecisionTree" boostWeight="1.0000000000000000e+00" itree="60">
      <Node pos="s" depth="0" NCoef="0" IVar="0" Cut="4.0199003219604492e+00" cType="1" res="7.6990639790892601e-03" rms="3.4032189846038818e-01" purity="6.6137182712554932e-01" nType="0">
        <Node pos="l" depth="1" NCoef="0" IVar="-1" Cut="0.0000000000000000e+00" cType="1" res="4.4727469794452190e-03" rms="3.3968797326087952e-01" purity="7.4167591333389282e-01" nType="1"/>
        <Node pos="r" depth="1" NCoef="0" IVar="0" Cut="5.0199003219604492e+00" cType="1" res="-1.3449671864509583e-01" rms="3.0875185132026672e-01" purity="1.3611614704132080e-01" nType="0">
          <Node pos="l" depth="2" NCoef="0" IVar="-1" Cut="0.0000000000000000e+00" cType="1" res="-1.3507199473679066e-02" rms="3.3497846126556396e-01" purity="1.8397626280784607e-01" nType="-1"/>
          <Node pos="r" depth="2" NCoef="0" IVar="-1" Cut="0.0000000000000000e+00" cType="1" res="-2.7825856581330299e-02" rms="2.5101622939109802e-01" purity="6.0747664421796799e-02" nType="-1"/>
        </Node>
      </Node>
    </BinaryTree>
    <BinaryTree type="DecisionTree" boostWeight="1.0000000000000000e+00" itree="61">
      <Node pos="s" depth="0" NCoef="0" IVar="0" Cut="2.0348258018493652e+00" cType="1" res="7.3083648458123207e-03" rms="3.3991223573684692e-01" purity="6.6137182712554932e-01" nType="0">
        <Node pos="l" depth="1" NCoef="0" IVar="-1" Cut="0.0000000000000000e+00" cType="1" res="1.3803810812532902e-02" rms="2.5543224811553955e-01" purity="9.1430193185806274e-01" nType="1"/>
        <Node pos="r" depth="1" NCoef="0" IVar="2" Cut="2.3514580726623535e+00" cType="0" res="-3.9760455489158630e-02" rms="3.8386023044586182e-01" purity="4.7513580322265625e-01" nType="0">
          <Node pos="l" depth="2" NCoef="0" IVar="-1" Cut="0.0000000000000000e+00" cType="1" res="1.2605885043740273e-02" rms="3.3998426795005798e-01" purity="8.0361175537109375e-01" nType="1"/>
          <Node pos="r" depth="2" NCoef="0" IVar="-1" Cut="0.0000000000000000e+00" cType="1" res="-8.9666424319148064e-03" rms="3.8692548871040344e-01" purity="4.0051281452178955e-01" nType="-1"/>
        </Node>
      </Node>
    </BinaryTree>
    <BinaryTree type="DecisionTree" boostWeight="1.0000000000000000e+00" itree="62">
      <Node pos="s" depth="0" NCoef="0" IVar="3" Cut="-9.9004977941513062e-01" cType="0" res="6.9584529846906662e-03" rms="3.3921477198600769e-01" purity="6.6137182712554932e-01" nType="0">
        <Node pos="l" depth="1" NCoef="0" IVar="-1" Cut="0.0000000000000000e+00" cType="1" res="6.3806562684476376e-03" rms="3.2647055387496948e-01" purity="7.5700300931930542e-01" nType="1"/>
        <Node pos="r" depth="1" NCoef="0" IVar="1" Cut="2.9080575561523438e+02" cType="1" res="-7.7788531780242920e-02" rms="3.5508224368095398e-01" purity="4.2365771532058716e-01" nType="0">
          <Node pos="l" depth="2" NCoef="0" IVar="-1" Cut="0.0000000000000000e+00" cType="1" res="-5.9213796630501747e-03" rms="3.4999626874923706e-01" purity="5.1179248094558716e-01" nType="1"/>
          <Node pos="r" depth="2" NCoef="0" IVar="-1" Cut="0.0000000000000000e+00" cType="1" res="-2.4104725569486618e-02" rms="3.5085019469261169e-01" purity="2.0639534294605255e-01" nType="-1"/>
        </Node>
      </Node>
    </BinaryTree>
    <BinaryTree type="DecisionTree" boostWeight="1.0000000000000000e+00" itree="63">
      <Node pos="s" depth="0" NCoef="0" IVar="2" Cut="-2.0517809391021729e+00" cType="1" res="6.6112633794546127e-03" rms="3.3867183327674866e-01" purity="6.6137182712554932e-01" nType="0">
        <Node pos="l" depth="1" NCoef="0" IVar="-1" Cut="0.0000000000000000e+00" cType="1" res="1.5814164653420448e-02" rms="2.5926810503005981e-01" purity="8.8478076457977295e-01" nType="1"/>
        <Node pos="r" depth="1" NCoef="0" IVar="2" Cut="2.0678024291992188e+00" cType="0" res="-2.6523185893893242e-02" rms="3.5948759317398071e-01" purity="5.7453209161758423e-01" nType="0">
          <Node pos="l" depth="2" NCoef="0" IVar="-1" Cut="0.0000000000000000e+00" cType="1" res="1.4487817883491516e-02" rms="2.7637490630149841e-01" purity="8.6344712972640991e-01" nType="1"/>
          <Node pos="r" depth="2" NCoef="0" IVar="-1" Cut="0.0000000000000000e+00" cType="1" res="-1.3609033077955246e-02" rms="3.8812860846519470e-01" purity="3.8079285621643066e-01" nType="-1"/>
        </Node>
      </Node>
    </BinaryTree>
    <BinaryTree type="DecisionTree" boostWeight="1.0000000000000000e+00" itree="64">
      <Node pos="s" depth="0" NCoef="0" IVar="1" Cut="2.5115771484375000e+02" cType="1" res="6.2990547157824039e-03" rms="3.3740603923797607e-01" purity="6.6137182712554932e-01" nType="0">
        <Node pos="l" depth="1" NCoef="0" IVar="-1" Cut="0.0000000000000000e+00" cType="1" res="7.3484261520206928e-03" rms="3.1309208273887634e-01" purity="7.6407915353775024e-01" nType="1"/>
        <Node pos="r" depth="1" NCoef="0" IVar="2" Cut="2.9215278625488281e+00" cType="0" res="-6.1824757605791092e-02" rms="3.6568483710289001e-01" purity="4.8461034893989563e-01" nType="0">
          <Node pos="l" depth="2" NCoef="0" IVar="-1" Cut="0.0000000000000000e+00" cType="1" res="2.0846920087933540e-02" rms="2.2815395891666412e-01" purity="9.3181818723678589e-01" nType="1"/>
          <Node pos="r" depth="2" NCoef="0" IVar="-1" Cut="0.0000000000000000e+00" cType="1" res="-1.1983212083578110e-02" rms="3.7372383475303650e-01" purity="4.2635086178779602e-01" nType="-1"/>
        </Node>
      </Node>
    </BinaryTree>
    <BinaryTree type="DecisionTree" boostWeight="1.0000000000000000e+00" itree="65">
      <Node pos="s" depth="0" NCoef="0" IVar="0" Cut="3.0099501609802246e+00" cType="1" res="5.9912255965173244e-03" rms="3.3679914474487305e-01" purity="6.6137182712554932e-01" nType="0">
        <Node pos="l" depth="1" NCoef="0" IVar="-1" Cut="0.0000000000000000e+00" cType="1" res="6.5748863853514194e-03" rms="3.1576591730117798e-01" purity="8.2972139120101929e-01" nType="1"/>
        <Node pos="r" depth="1" NCoef="0" IVar="2" Cut="-2.4534370899200439e+00" cType="1" res="-7.1618586778640747e-02" rms="3.6985915899276733e-01" purity="2.6923078298568726e-01" nType="0">
          <Node pos="l" depth="2" NCoef="0" IVar="-1" Cut="0.0000000000000000e+00" cType="1" res="1.0366901755332947e-02" rms="4.0029045939445496e-01" purity="7.0476192235946655e-01" nType="1"/>
          <Node pos="r" depth="2" NCoef="0" IVar="-1" Cut="0.0000000000000000e+00" cType="1" res="-1.1572231538593769e-02" rms="3.6321935057640076e-01" purity="2.2922134399414062e-01" nType="-1"/>
        </Node>
      </Node>
    </BinaryTree>
    <BinaryTree type="DecisionTree" boostWeight="1.0000000000000000e+00" itree="66">
      <Node pos="s" depth="0" NCoef="0" IVar="3" Cut="-9.9004977941513062e-01" cType="0" res="5.6925080716609955e-03" rms="3.3646124601364136e-01" purity="6.6137182712554932e-01" nType="0">
        <Node pos="l" depth="1" NCoef="0" IVar="-1" Cut="0.0000000000000000e+00" cType="1" res="5.9543270617723465e-03" rms="3.2447996735572815e-01" purity="7.5700300931930542e-01" nType="1"/>
        <Node pos="r" depth="1" NCoef="0" IVar="2" Cut="2.9234809875488281e+00" cType="0" res="-7.3237210512161255e-02" rms="3.5235550999641418e-01" purity="4.2365771532058716e-01" nType="0">
          <Node pos="l" depth="2" NCoef="0" IVar="-1" Cut="0.0000000000000000e+00" cType="1" res="1.8406052142381668e-02" rms="2.6534205675125122e-01" purity="9.1262137889862061e-01" nType="1"/>
          <Node pos="r" depth="2" NCoef="0" IVar="-1" Cut="0.0000000000000000e+00" cType="1" res="-1.3107263483107090e-02" rms="3.5487598180770874e-01" purity="3.7741047143936157e-01" nType="-1"/>
        </Node>
      </Node>
    </BinaryTree>
    <BinaryTree type="DecisionTree" boostWeight="1.0000000000000000e+00" itree="67">
      <Node pos="s" depth="0" NCoef="0" IVar="2" Cut="-2.4441905021667480e+00" cType="1" res="5.4114125669002533e-03" rms="3.3598881959915161e-01" purity="6.6137182712554932e-01" nType="0">
        <Node pos="l" depth="1" NCoef="0" IVar="-1" Cut="0.0000000000000000e+00" cType="1" res="1.9269792363047600e-02" rms="2.1575473248958588e-01" purity="9.3002259731292725e-01" nType="1"/>
        <Node pos="r" depth="1" NCoef="0" IVar="2" Cut="2.0521352291107178e+00" cType="0" res="-2.0569255575537682e-02" rms="3.5735526680946350e-01" purity="5.8855921030044556e-01" nType="0">
          <Node pos="l" depth="2" NCoef="0" IVar="-1" Cut="0.0000000000000000e+00" cType="1" res="1.3588264584541321e-02" rms="2.7631816267967224e-01" purity="8.6246895790100098e-01" nType="1"/>
          <Node pos="r" depth="2" NCoef="0" IVar="-1" Cut="0.0000000000000000e+00" cType="1" res="-1.0673084296286106e-02" rms="3.8577875494956970e-01" purity="4.2822501063346863e-01" nType="-1"/>
        </Node>
      </Node>
    </BinaryTree>
    <BinaryTree type="DecisionTree" boostWeight="1.0000000000000000e+00" itree="68">
      <Node pos="s" depth="0" NCoef="0" IVar="1" Cut="3.0075769042968750e+02" cType="1" res="5.1609696820378304e-03" rms="3.3497765660285950e-01" purity="6.6137182712554932e-01" nType="0">
        <Node pos="l" depth="1" NCoef="0" IVar="-1" Cut="0.0000000000000000e+00" cType="1" res="4.9405382014811039e-03" rms="3.1895074248313904e-01" purity="7.2529828548431396e-01" nType="1"/>
        <Node pos="r" depth="1" NCoef="0" IVar="2" Cut="2.7576966285705566e+00" cType="0" res="-8.9317448437213898e-02" rms="3.7354171276092529e-01" purity="4.2550790309906006e-01" nType="0">
          <Node pos="l" depth="2" NCoef="0" IVar="-1" Cut="0.0000000000000000e+00" cType="1" res="1.1357800103724003e-02" rms="2.7727136015892029e-01" purity="8.6725664138793945e-01" nType="1"/>
          <Node pos="r" depth="2" NCoef="0" IVar="-1" Cut="0.0000000000000000e+00" cType="1" res="-1.5844840556383133e-02" rms="3.8052916526794434e-01" purity="3.6093142628669739e-01" nType="-1"/>
        </Node>
      </Node>
    </BinaryTree>
    <BinaryTree type="DecisionTree" boostWeight="1.0000000000000000e+00" itree="69">
      <Node pos="s" depth="0" NCoef="0" IVar="0" Cut="2.0348258018493652e+00" cType="1" res="4.9048354849219322e-03" rms="3.3453059196472168e-01" purity="6.6137182712554932e-01" nType="0">
        <Node pos="l" depth="1" NCoef="0" IVar="-1" Cut="0.0000000000000000e+00" cType="1" res="1.2640870176255703e-02" rms="2.5235864520072937e-01" purity="9.1430193185806274e-01" nType="1"/>
        <Node pos="r" depth="1" NCoef="0" IVar="2" Cut="-2.9777147769927979e+00" cType="1" res="-3.6580804735422134e-02" rms="3.7863126397132874e-01" purity="4.7513580322265625e-01" nType="0">
          <Node pos="l" depth="2" NCoef="0" IVar="-1" Cut="0.0000000000000000e+00" cType="1" res="2.5208774954080582e-02" rms="1.9864000380039215e-01" purity="9.4797688722610474e-01" nType="1"/>
          <Node pos="r" depth="2" NCoef="0" IVar="-1" Cut="0.0000000000000000e+00" cType="1" res="-6.9400938227772713e-03" rms="3.8482078909873962e-01" purity="4.3828830122947693e-01" nType="-1"/>
        </Node>
      </Node>
    </BinaryTree>
    <BinaryTree type="DecisionTree" boostWeight="1.0000000000000000e+00" itree="70">
      <Node pos="s" depth="0" NCoef="0" IVar="0" Cut="4.0199003219604492e+00" cType="1" res="4.6751103363931179e-03" rms="3.3397865295410156e-01" purity="6.6137182712554932e-01" nType="0">
        <Node pos="l" depth="1" NCoef="0" IVar="-1" Cut="0.0000000000000000e+00" cType="1" res="3.7058962043374777e-03" rms="3.3404821157455444e-01" purity="7.4167591333389282e-01" nType="1"/>
        <Node pos="r" depth="1" NCoef="0" IVar="0" Cut="5.0199003219604492e+00" cType="1" res="-1.1621014773845673e-01" rms="3.0723026394844055e-01" purity="1.3611614704132080e-01" nType="0">
          <Node pos="l" depth="2" NCoef="0" IVar="-1" Cut="0.0000000000000000e+00" cType="1" res="-1.1951239779591560e-02" rms="3.3162802457809448e-01" purity="1.8397626280784607e-01" nType="-1"/>
          <Node pos="r" depth="2" NCoef="0" IVar="-1" Cut="0.0000000000000000e+00" cType="1" res="-2.6602191850543022e-02" rms="2.5453609228134155e-01" purity="6.0747664421796799e-02" nType="-1"/>
        </Node>
      </Node>
    </BinaryTree>
    <BinaryTree type="DecisionTree" boostWeight="1.0000000000000000e+00" itree="71">
      <Node pos="s" depth="0" NCoef="0" IVar="4" Cut="8.6290311813354492e-01" cType="0" res="4.4358968734741211e-03" rms="3.3366763591766357e-01" purity="6.6137182712554932e-01" nType="0">
        <Node pos="l" depth="1" NCoef="0" IVar="-1" Cut="0.0000000000000000e+00" cType="1" res="4.3781595304608345e-03" rms="3.1978222727775574e-01" purity="7.4037045240402222e-01" nType="1"/>
        <Node pos="r" depth="1" NCoef="0" IVar="1" Cut="2.4552230834960938e+02" cType="1" res="-9.5562197268009186e-02" rms="3.7422481179237366e-01" purity="3.0503979325294495e-01" nType="0">
          <Node pos="l" depth="2" NCoef="0" IVar="-1" Cut="0.0000000000000000e+00" cType="1" res="-5.9607997536659241e-03" rms="4.0453240275382996e-01" purity="4.4289693236351013e-01" nType="-1"/>
          <Node pos="r" depth="2" NCoef="0" IVar="-1" Cut="0.0000000000000000e+00" cType="1" res="-2.0759079605340958e-02" rms="3.3788877725601196e-01" purity="1.7974683642387390e-01" nType="-1"/>
        </Node>
      </Node>
    </BinaryTree>
    <BinaryTree type="DecisionTree" boostWeight="1.0000000000000000e+00" itree="72">
      <Node pos="s" depth="0" NCoef="0" IVar="1" Cut="2.1809104919433594e+02" cType="1" res="4.2124674655497074e-03" rms="3.3331316709518433e-01" purity="6.6137182712554932e-01" nType="0">
        <Node pos="l" depth="1" NCoef="0" IVar="-1" Cut="0.0000000000000000e+00" cType="1" res="9.2045702040195465e-03" rms="2.9916948080062866e-01" purity="7.9069769382476807e-01" nType="1"/>
        <Node pos="r" depth="1" NCoef="0" IVar="0" Cut="2.0298507213592529e+00" cType="1" res="-3.9234355092048645e-02" rms="3.5477784276008606e-01" purity="5.4864865541458130e-01" nType="0">
          <Node pos="l" depth="2" NCoef="0" IVar="-1" Cut="0.0000000000000000e+00" cType="1" res="5.7593300007283688e-03" rms="3.0337280035018921e-01" purity="8.6642158031463623e-01" nType="1"/>
          <Node pos="r" depth="2" NCoef="0" IVar="-1" Cut="0.0000000000000000e+00" cType="1" res="-1.0758608579635620e-02" rms="3.7566563487052917e-01" purity="3.6396011710166931e-01" nType="-1"/>
        </Node>
      </Node>
    </BinaryTree>
    <BinaryTree type="DecisionTree" boostWeight="1.0000000000000000e+00" itree="73">
      <Node pos="s" depth="0" NCoef="0" IVar="2" Cut="-2.0517809391021729e+00" cType="1" res="4.0063019841909409e-03" rms="3.3282756805419922e-01" purity="6.6137182712554932e-01" nType="0">
        <Node pos="l" depth="1" NCoef="0" IVar="-1" Cut="0.0000000000000000e+00" cType="1" res="1.4420333318412304e-02" rms="2.5606253743171692e-01" purity="8.8478076457977295e-01" nType="1"/>
        <Node pos="r" depth="1" NCoef="0" IVar="2" Cut="1.9980498552322388e+00" cType="0" res="-2.4763230234384537e-02" rms="3.5410299897193909e-01" purity="5.7453209161758423e-01" nType="0">
          <Node pos="l" depth="2" NCoef="0" IVar="-1" Cut="0.0000000000000000e+00" cType="1" res="1.2294764630496502e-02" rms="2.7929449081420898e-01" purity="8.5280001163482666e-01" nType="1"/>
          <Node pos="r" depth="2" NCoef="0" IVar="-1" Cut="0.0000000000000000e+00" cType="1" res="-1.2617070227861404e-02" rms="3.8565096259117126e-01" purity="3.7485647201538086e-01" nType="-1"/>
        </Node>
      </Node>
    </BinaryTree>
    <BinaryTree type="DecisionTree" boostWeight="1.0000000000000000e+00" itree="74">
      <Node pos="s" depth="0" NCoef="0" IVar="3" Cut="-9.9004977941513062e-01" cType="0" res="3.8193692453205585e-03" rms="3.3187994360923767e-01" purity="6.6137182712554932e-01" nType="0">
        <Node pos="l" depth="1" NCoef="0" IVar="-1" Cut="0.0000000000000000e+00" cType="1" res="5.4274369031190872e-03" rms="3.2075950503349304e-01" purity="7.5700300931930542e-01" nType="1"/>
        <Node pos="r" depth="1" NCoef="0" IVar="2" Cut="-2.8563923835754395e+00" cType="1" res="-6.8127289414405823e-02" rms="3.4774437546730042e-01" purity="4.2365771532058716e-01" nType="0">
          <Node pos="l" depth="2" NCoef="0" IVar="-1" Cut="0.0000000000000000e+00" cType="1" res="1.5842244029045105e-02" rms="2.5873661041259766e-01" purity="8.9423078298568726e-01" nType="1"/>
          <Node pos="r" depth="2" NCoef="0" IVar="-1" Cut="0.0000000000000000e+00" cType="1" res="-1.2597814202308655e-02" rms="3.5133162140846252e-01" purity="3.7867647409439087e-01" nType="-1"/>
        </Node>
      </Node>
    </BinaryTree>
    <BinaryTree type="DecisionTree" boostWeight="1.0000000000000000e+00" itree="75">
      <Node pos="s" depth="0" NCoef="0" IVar="1" Cut="3.0075769042968750e+02" cType="1" res="3.6309512797743082e-03" rms="3.3148390054702759e-01" purity="6.6137182712554932e-01" nType="0">
        <Node pos="l" depth="1" NCoef="0" IVar="-1" Cut="0.0000000000000000e+00" cType="1" res="4.4081732630729675e-03" rms="3.1614175438880920e-01" purity="7.2529828548431396e-01" nType="1"/>
        <Node pos="r" depth="1" NCoef="0" IVar="2" Cut="2.7576966285705566e+00" cType="0" res="-8.1017926335334778e-02" rms="3.7072098255157471e-01" purity="4.2550790309906006e-01" nType="0">
          <Node pos="l" depth="2" NCoef="0" IVar="-1" Cut="0.0000000000000000e+00" cType="1" res="1.0343464091420174e-02" rms="2.7625671029090881e-01" purity="8.6725664138793945e-01" nType="1"/>
          <Node pos="r" depth="2" NCoef="0" IVar="-1" Cut="0.0000000000000000e+00" cType="1" res="-1.4732369221746922e-02" rms="3.7851828336715698e-01" purity="3.6093142628669739e-01" nType="-1"/>
        </Node>
      </Node>
    </BinaryTree>
    <BinaryTree type="DecisionTree" boostWeight="1.0000000000000000e+00" itree="76">
      <Node pos="s" depth="0" NCoef="0" IVar="0" Cut="4.0199003219604492e+00" cType="1" res="3.4506991505622864e-03" rms="3.3112141489982605e-01" purity="6.6137182712554932e-01" nType="0">
        <Node pos="l" depth="1" NCoef="0" IVar="-1" Cut="0.0000000000000000e+00" cType="1" res="3.3535852562636137e-03" rms="3.3147165179252625e-01" purity="7.4167591333389282e-01" nType="1"/>
        <Node pos="r" depth="1" NCoef="0" IVar="4" Cut="1.7710015773773193e+00" cType="0" res="-1.0783810168504715e-01" rms="3.0634099245071411e-01" purity="1.3611614704132080e-01" nType="0">
          <Node pos="l" depth="2" NCoef="0" IVar="-1" Cut="0.0000000000000000e+00" cType="1" res="-1.9781930372118950e-02" rms="3.5244286060333252e-01" purity="1.9417475163936615e-01" nType="-1"/>
          <Node pos="r" depth="2" NCoef="0" IVar="-1" Cut="0.0000000000000000e+00" cType="1" res="-1.3960146345198154e-02" rms="2.6945409178733826e-01" purity="1.0144927352666855e-01" nType="-1"/>
        </Node>
      </Node>
    </BinaryTree>
    <BinaryTree type="DecisionTree" boostWeight="1.0000000000000000e+00" itree="77">
      <Node pos="s" depth="0" NCoef="0" IVar="2" Cut="-1.7084227800369263e+00" cType="1" res="3.2748503144830465e-03" rms="3.3088734745979309e-01" purity="6.6137182712554932e-01" nType="0">
        <Node pos="l" depth="1" NCoef="0" IVar="-1" Cut="0.0000000000000000e+00" cType="1" res="1.1323510669171810e-02" rms="2.7794173359870911e-01" purity="8.2568806409835815e-01" nType="1"/>
        <Node pos="r" depth="1" NCoef="0" IVar="2" Cut="1.5117249488830566e+00" cType="0" res="-2.7886139228940010e-02" rms="3.5117194056510925e-01" purity="5.7633310556411743e-01" nType="0">
          <Node pos="l" depth="2" NCoef="0" IVar="-1" Cut="0.0000000000000000e+00" cType="1" res="7.6060923747718334e-03" rms="3.1490358710289001e-01" purity="7.7289837598800659e-01" nType="1"/>
          <Node pos="r" depth="2" NCoef="0" IVar="-1" Cut="0.0000000000000000e+00" cType="1" res="-1.8056137487292290e-02" rms="3.7348389625549316e-01" purity="3.0244755744934082e-01" nType="-1"/>
        </Node>
      </Node>
    </BinaryTree>
    <BinaryTree type="DecisionTree" boostWeight="1.0000000000000000e+00" itree="78">
      <Node pos="s" depth="0" NCoef="0" IVar="3" Cut="-9.9004977941513062e-01" cType="0" res="3.1160372309386730e-03" rms="3.2989776134490967e-01" purity="6.6137182712554932e-01" nType="0">
        <Node pos="l" depth="1" NCoef="0" IVar="-1" Cut="0.0000000000000000e+00" cType="1" res="5.0880401395261288e-03" rms="3.1928843259811401e-01" purity="7.5700300931930542e-01" nType="1"/>
        <Node pos="r" depth="1" NCoef="0" IVar="1" Cut="2.2082223510742188e+02" cType="1" res="-6.4276233315467834e-02" rms="3.4580928087234497e-01" purity="4.2365771532058716e-01" nType="0">
          <Node pos="l" depth="2" NCoef="0" IVar="-1" Cut="0.0000000000000000e+00" cType="1" res="-1.2599994661286473e-03" rms="3.4625667333602905e-01" purity="5.7915830612182617e-01" nType="1"/>
          <Node pos="r" depth="2" NCoef="0" IVar="-1" Cut="0.0000000000000000e+00" cType="1" res="-1.6378678381443024e-02" rms="3.3980873227119446e-01" purity="3.1168830394744873e-01" nType="-1"/>
        </Node>
      </Node>
    </BinaryTree>
    <BinaryTree type="DecisionTree" boostWeight="1.0000000000000000e+00" itree="79">
      <Node pos="s" depth="0" NCoef="0" IVar="0" Cut="2.0348258018493652e+00" cType="1" res="2.9608113691210747e-03" rms="3.2953163981437683e-01" purity="6.6137182712554932e-01" nType="0">
        <Node pos="l" depth="1" NCoef="0" IVar="-1" Cut="0.0000000000000000e+00" cType="1" res="1.1364315636456013e-02" rms="2.4990889430046082e-01" purity="9.1430193185806274e-01" nType="1"/>
        <Node pos="r" depth="1" NCoef="0" IVar="2" Cut="-2.9777147769927979e+00" cType="1" res="-3.2811120152473450e-02" rms="3.7355676293373108e-01" purity="4.7513580322265625e-01" nType="0">
          <Node pos="l" depth="2" NCoef="0" IVar="-1" Cut="0.0000000000000000e+00" cType="1" res="2.3720258846879005e-02" rms="1.9598211348056793e-01" purity="9.4797688722610474e-01" nType="1"/>
          <Node pos="r" depth="2" NCoef="0" IVar="-1" Cut="0.0000000000000000e+00" cType="1" res="-6.3723269850015640e-03" rms="3.8059148192405701e-01" purity="4.3828830122947693e-01" nType="-1"/>
        </Node>
      </Node>
    </BinaryTree>
    <BinaryTree type="DecisionTree" boostWeight="1.0000000000000000e+00" itree="80">
      <Node pos="s" depth="0" NCoef="0" IVar="1" Cut="2.1809104919433594e+02" cType="1" res="2.8251381590962410e-03" rms="3.2912027835845947e-01" purity="6.6137182712554932e-01" nType="0">
        <Node pos="l" depth="1" NCoef="0" IVar="-1" Cut="0.0000000000000000e+00" cType="1" res="8.3805676549673080e-03" rms="2.9652300477027893e-01" purity="7.9069769382476807e-01" nType="1"/>
        <Node pos="r" depth="1" NCoef="0" IVar="2" Cut="2.9158632755279541e+00" cType="0" res="-3.5869207233190536e-02" rms="3.5054418444633484e-01" purity="5.4864865541458130e-01" nType="0">
          <Node pos="l" depth="2" NCoef="0" IVar="-1" Cut="0.0000000000000000e+00" cType="1" res="1.8510745838284492e-02" rms="2.1506810188293457e-01" purity="9.3548387289047241e-01" nType="1"/>
          <Node pos="r" depth="2" NCoef="0" IVar="-1" Cut="0.0000000000000000e+00" cType="1" res="-8.1321205943822861e-03" rms="3.6242705583572388e-01" purity="4.9304482340812683e-01" nType="-1"/>
        </Node>
      </Node>
    </BinaryTree>
    <BinaryTree type="DecisionTree" boostWeight="1.0000000000000000e+00" itree="81">
      <Node pos="s" depth="0" NCoef="0" IVar="2" Cut="-2.0517809391021729e+00" cType="1" res="2.6914917398244143e-03" rms="3.2867133617401123e-01" purity="6.6137182712554932e-01" nType="0">
        <Node pos="l" depth="1" NCoef="0" IVar="-1" Cut="0.0000000000000000e+00" cType="1" res="1.3212314806878567e-02" rms="2.5409382581710815e-01" purity="8.8478076457977295e-01" nType="1"/>
        <Node pos="r" depth="1" NCoef="0" IVar="2" Cut="2.0678024291992188e+00" cType="0" res="-2.2596647962927818e-02" rms="3.5019087791442871e-01" purity="5.7453209161758423e-01" nType="0">
          <Node pos="l" depth="2" NCoef="0" IVar="-1" Cut="0.0000000000000000e+00" cType="1" res="1.2017514556646347e-02" rms="2.7280908823013306e-01" purity="8.6344712972640991e-01" nType="1"/>
          <Node pos="r" depth="2" NCoef="0" IVar="-1" Cut="0.0000000000000000e+00" cType="1" res="-1.1279329657554626e-02" rms="3.8305968046188354e-01" purity="3.8079285621643066e-01" nType="-1"/>
        </Node>
      </Node>
    </BinaryTree>
    <BinaryTree type="DecisionTree" boostWeight="1.0000000000000000e+00" itree="82">
      <Node pos="s" depth="0" NCoef="0" IVar="3" Cut="-9.9004977941513062e-01" cType="0" res="2.5682956911623478e-03" rms="3.2792454957962036e-01" purity="6.6137182712554932e-01" nType="0">
        <Node pos="l" depth="1" NCoef="0" IVar="-1" Cut="0.0000000000000000e+00" cType="1" res="4.7811544500291348e-03" rms="3.1789922714233398e-01" purity="7.5700300931930542e-01" nType="1"/>
        <Node pos="r" depth="1" NCoef="0" IVar="2" Cut="2.9234809875488281e+00" cType="0" res="-6.0273572802543640e-02" rms="3.4364345669746399e-01" purity="4.2365771532058716e-01" nType="0">
          <Node pos="l" depth="2" NCoef="0" IVar="-1" Cut="0.0000000000000000e+00" cType="1" res="1.6129879280924797e-02" rms="2.6560857892036438e-01" purity="9.1262137889862061e-01" nType="1"/>
          <Node pos="r" depth="2" NCoef="0" IVar="-1" Cut="0.0000000000000000e+00" cType="1" res="-1.1457733809947968e-02" rms="3.4705066680908203e-01" purity="3.7741047143936157e-01" nType="-1"/>
        </Node>
      </Node>
    </BinaryTree>
    <BinaryTree type="DecisionTree" boostWeight="1.0000000000000000e+00" itree="83">
      <Node pos="s" depth="0" NCoef="0" IVar="1" Cut="2.5115771484375000e+02" cType="1" res="2.4419091641902924e-03" rms="3.2761192321777344e-01" purity="6.6137182712554932e-01" nType="0">
        <Node pos="l" depth="1" NCoef="0" IVar="-1" Cut="0.0000000000000000e+00" cType="1" res="5.6977099739015102e-03" rms="3.0605769157409668e-01" purity="7.6407915353775024e-01" nType="1"/>
        <Node pos="r" depth="1" NCoef="0" IVar="2" Cut="-2.7641425132751465e+00" cType="1" res="-4.9166992306709290e-02" rms="3.5584354400634766e-01" purity="4.8461034893989563e-01" nType="0">
          <Node pos="l" depth="2" NCoef="0" IVar="-1" Cut="0.0000000000000000e+00" cType="1" res="1.7537124454975128e-02" rms="2.1586255729198456e-01" purity="9.2391306161880493e-01" nType="1"/>
          <Node pos="r" depth="2" NCoef="0" IVar="-1" Cut="0.0000000000000000e+00" cType="1" res="-1.0308571159839630e-02" rms="3.6694312095642090e-01" purity="4.2442291975021362e-01" nType="-1"/>
        </Node>
      </Node>
    </BinaryTree>
    <BinaryTree type="DecisionTree" boostWeight="1.0000000000000000e+00" itree="84">
      <Node pos="s" depth="0" NCoef="0" IVar="0" Cut="4.0199003219604492e+00" cType="1" res="2.3239424917846918e-03" rms="3.2724767923355103e-01" purity="6.6137182712554932e-01" nType="0">
        <Node pos="l" depth="1" NCoef="0" IVar="-1" Cut="0.0000000000000000e+00" cType="1" res="2.9785356018692255e-03" rms="3.2775366306304932e-01" purity="7.4167591333389282e-01" nType="1"/>
        <Node pos="r" depth="1" NCoef="0" IVar="4" Cut="1.7710015773773193e+00" cType="0" res="-9.7509324550628662e-02" rms="3.0566796660423279e-01" purity="1.3611614704132080e-01" nType="0">
          <Node pos="l" depth="2" NCoef="0" IVar="-1" Cut="0.0000000000000000e+00" cType="1" res="-1.9032090902328491e-02" rms="3.5168799757957458e-01" purity="1.9417475163936615e-01" nType="-1"/>
          <Node pos="r" depth="2" NCoef="0" IVar="-1" Cut="0.0000000000000000e+00" cType="1" res="-1.2831294909119606e-02" rms="2.6905038952827454e-01" purity="1.0144927352666855e-01" nType="-1"/>
        </Node>
      </Node>
    </BinaryTree>
    <BinaryTree type="DecisionTree" boostWeight="1.0000000000000000e+00" itree="85">
      <Node pos="s" depth="0" NCoef="0" IVar="4" Cut="8.6290311813354492e-01" cType="0" res="2.2047646343708038e-03" rms="3.2705408334732056e-01" purity="6.6137182712554932e-01" nType="0">
        <Node pos="l" depth="1" NCoef="0" IVar="-1" Cut="0.0000000000000000e+00" cType="1" res="3.5779988393187523e-03" rms="3.1401690840721130e-01" purity="7.4037045240402222e-01" nType="1"/>
