<?xml version="1.0"?>
<MethodSetup Method="BDT::BDTG">
  <GeneralInfo>
    <Info name="TMVA Release" value="4.1.2 [262402]"/>
    <Info name="ROOT Release" value="5.32/00 [335872]"/>
    <Info name="Creator" value="pandolf"/>
    <Info name="Date" value="Mon Mar 25 13:44:28 2013"/>
    <Info name="Host" value="Linux lxbuild167.cern.ch 2.6.18-308.1.1.el5 #1 SMP Wed Mar 7 19:25:07 CET 2012 x86_64 x86_64 x86_64 GNU/Linux"/>
    <Info name="Dir" value="/afs/cern.ch/work/p/pandolf/CMSSW_5_2_5/src/UserCode/pandolf/VHgg/VHggAnalysis/TMVA"/>
    <Info name="Training events" value="6280"/>
    <Info name="TrainingTime" value="2.11970115e+00"/>
    <Info name="AnalysisType" value="Classification"/>
  </GeneralInfo>
  <Options>
    <Option name="V" modified="Yes">False</Option>
    <Option name="VerbosityLevel" modified="No">Default</Option>
    <Option name="VarTransform" modified="No">None</Option>
    <Option name="H" modified="Yes">False</Option>
    <Option name="CreateMVAPdfs" modified="Yes">True</Option>
    <Option name="IgnoreNegWeightsInTraining" modified="No">False</Option>
    <Option name="NTrees" modified="Yes">500</Option>
    <Option name="RenormByClass" modified="No">False</Option>
    <Option name="BoostType" modified="Yes">Grad</Option>
    <Option name="AdaBoostR2Loss" modified="No">quadratic</Option>
    <Option name="UseBaggedGrad" modified="Yes">False</Option>
    <Option name="GradBaggingFraction" modified="No">6.000000e-01</Option>
    <Option name="Shrinkage" modified="Yes">5.000000e-02</Option>
    <Option name="AdaBoostBeta" modified="No">1.000000e+00</Option>
    <Option name="UseRandomisedTrees" modified="No">False</Option>
    <Option name="UseNvars" modified="No">3</Option>
    <Option name="UsePoissonNvars" modified="No">True</Option>
    <Option name="UseNTrainEvents" modified="No">6280</Option>
    <Option name="UseWeightedTrees" modified="No">True</Option>
    <Option name="UseYesNoLeaf" modified="No">True</Option>
    <Option name="NodePurityLimit" modified="No">5.000000e-01</Option>
    <Option name="SeparationType" modified="No">giniindex</Option>
    <Option name="nEventsMin" modified="Yes">100</Option>
    <Option name="nCuts" modified="Yes">200</Option>
    <Option name="UseFisherCuts" modified="No">False</Option>
    <Option name="MinLinCorrForFisher" modified="No">8.000000e-01</Option>
    <Option name="UseExclusiveVars" modified="No">False</Option>
    <Option name="PruneStrength" modified="No">0.000000e+00</Option>
    <Option name="PruneMethod" modified="No">nopruning</Option>
    <Option name="PruneBeforeBoost" modified="No">False</Option>
    <Option name="PruningValFraction" modified="No">5.000000e-01</Option>
    <Option name="NNodesMax" modified="Yes">5</Option>
    <Option name="MaxDepth" modified="No">3</Option>
    <Option name="DoBoostMonitor" modified="No">False</Option>
    <Option name="NegWeightTreatment" modified="No">ignorenegweights</Option>
  </Options>
  <Variables NVar="6">
    <Variable VarIndex="0" Expression="nbjets_loose" Label="nbjets_loose" Title="nbjets_loose" Unit="" Internal="nbjets_loose" Type="I" Min="1.00000000e+00" Max="6.00000000e+00"/>
    <Variable VarIndex="1" Expression="deltaPhi_top_higgs" Label="deltaPhi_top_higgs" Title="deltaPhi_top_higgs" Unit="" Internal="deltaPhi_top_higgs" Type="F" Min="9.74056253e-04" Max="3.14139628e+00"/>
    <Variable VarIndex="2" Expression="mt_top" Label="mt_top" Title="mt_top" Unit="" Internal="mt_top" Type="F" Min="6.70272827e+01" Max="1.17432251e+03"/>
    <Variable VarIndex="3" Expression="eta_qJet" Label="eta_qJet" Title="eta_qJet" Unit="" Internal="eta_qJet" Type="F" Min="-4.95385551e+00" Max="4.86157846e+00"/>
    <Variable VarIndex="4" Expression="charge_lept" Label="charge_lept" Title="charge_lept" Unit="" Internal="charge_lept" Type="I" Min="-1.00000000e+00" Max="1.00000000e+00"/>
    <Variable VarIndex="5" Expression="pt_bJet" Label="pt_bJet" Title="pt_bJet" Unit="" Internal="pt_bJet" Type="F" Min="2.00501976e+01" Max="7.01379517e+02"/>
  </Variables>
  <Spectators NSpec="0"/>
  <Classes NClass="2">
    <Class Name="Signal" Index="0"/>
    <Class Name="Background" Index="1"/>
  </Classes>
  <Transformations NTransformations="0"/>
  <MVAPdfs>
    <PDF Name="BDTG_PDFSig" MinNSmooth="0" MaxNSmooth="0" InterpolMethod="2" KDE_type="1" KDE_iter="1" KDE_border="1" KDE_finefactor="1.0000000000000000e+00">
      <Histogram Name="BDT_tr_S_original" NBins="125" XMin="-9.9587148427963257e-01" XMax="9.1805475950241089e-01" HasEquidistantBins="1">
        4.23683226e-02 0.00000000e+00 8.47366452e-02 2.11841613e-02 8.47366452e-02 6.35524839e-02 1.05920814e-01 1.27104968e-01 1.27104968e-01 6.35524839e-02 8.47366452e-02 1.90657452e-01 8.47366452e-02 1.27104968e-01 1.27104968e-01 1.48289129e-01 1.69473290e-01 1.69473290e-01 2.11841628e-01 1.48289129e-01 1.90657452e-01 8.47366452e-02 1.48289129e-01 1.05920814e-01 1.05920814e-01 8.47366452e-02 8.47366452e-02 2.33025789e-01 1.05920814e-01 1.90657452e-01 1.90657452e-01 2.11841628e-01 2.33025789e-01 1.05920814e-01 1.05920814e-01 1.48289129e-01 2.33025789e-01 2.75394112e-01 1.69473290e-01 2.54209936e-01 1.90657452e-01 1.69473290e-01 2.75394112e-01 4.02499080e-01 2.54209936e-01 2.54209936e-01 2.33025789e-01 1.48289129e-01 2.11841628e-01 1.27104968e-01 2.33025789e-01 2.11841628e-01 2.54209936e-01 4.02499080e-01 3.81314903e-01 3.60130757e-01 1.69473290e-01 2.75394112e-01 4.02499080e-01 1.69473290e-01 2.96578258e-01 2.96578258e-01 3.38946581e-01 3.60130757e-01 4.44867402e-01 3.81314903e-01 2.11841628e-01 3.60130757e-01 2.11841628e-01 3.81314903e-01 4.23683256e-01 3.81314903e-01 4.66051579e-01 4.66051579e-01 4.87235725e-01 3.17762434e-01 4.66051579e-01 5.50788224e-01 2.33025789e-01 4.44867402e-01 6.56709015e-01 4.02499080e-01 4.23683256e-01 5.08419871e-01 3.60130757e-01 4.66051579e-01 4.44867402e-01 5.50788224e-01 4.44867402e-01 5.93156517e-01 5.29604077e-01 6.99077368e-01 6.56709015e-01 6.77893162e-01 7.20261514e-01 6.14340723e-01 7.20261514e-01 8.26182306e-01 6.77893162e-01 9.32103157e-01 7.62629807e-01 8.68550658e-01 8.26182306e-01 9.10918951e-01 1.05920815e+00 1.05920815e+00 1.10157645e+00 1.03802395e+00 8.47366512e-01 1.12276053e+00 1.31341803e+00 1.03802395e+00 1.27104974e+00 9.95655596e-01 1.48289132e+00 1.37697053e+00 1.44052303e+00 1.54644382e+00 1.58881211e+00 1.71591711e+00 1.20749724e+00 2.16078448e+00 2.22433710e+00 3.19880843e+00 3.15644026e+00 
      </Histogram>
    </PDF>
    <PDF Name="BDTG_PDFBkg" MinNSmooth="0" MaxNSmooth="0" InterpolMethod="2" KDE_type="1" KDE_iter="1" KDE_border="1" KDE_finefactor="1.0000000000000000e+00">
      <Histogram Name="BDT_tr_B_original" NBins="125" XMin="-9.9587148427963257e-01" XMax="9.1805475950241089e-01" HasEquidistantBins="1">
        1.94255579e+00 2.14703536e+00 2.04479551e+00 1.73807621e+00 2.20837927e+00 1.73807621e+00 1.69718039e+00 1.34956515e+00 1.75852418e+00 1.30866921e+00 8.38366210e-01 1.28822124e+00 1.22687733e+00 8.99710059e-01 1.08374166e+00 1.16553354e+00 9.61053908e-01 1.04284573e+00 8.17918241e-01 7.56574392e-01 8.79262090e-01 7.97470272e-01 7.15678453e-01 6.33886635e-01 6.13438666e-01 6.54334605e-01 6.54334605e-01 6.13438666e-01 8.58814180e-01 4.90750939e-01 6.54334605e-01 6.74782574e-01 5.92990756e-01 8.58814180e-01 8.17918241e-01 6.95230484e-01 7.56574392e-01 7.97470272e-01 4.29407090e-01 3.27167302e-01 6.13438666e-01 5.92990756e-01 4.70302999e-01 6.54334605e-01 3.06719333e-01 5.11198878e-01 4.08959121e-01 5.52094817e-01 5.92990756e-01 4.70302999e-01 4.29407090e-01 5.52094817e-01 4.90750939e-01 4.49855030e-01 3.06719333e-01 3.27167302e-01 5.52094817e-01 3.27167302e-01 3.88511151e-01 2.24927515e-01 4.70302999e-01 3.27167302e-01 2.65823424e-01 5.11198878e-01 2.45375469e-01 2.86271393e-01 2.45375469e-01 3.06719333e-01 2.86271393e-01 4.08959121e-01 4.08959121e-01 2.04479560e-01 2.45375469e-01 2.86271393e-01 3.68063211e-01 2.45375469e-01 2.24927515e-01 1.84031606e-01 2.24927515e-01 4.08959121e-01 2.86271393e-01 2.65823424e-01 2.24927515e-01 2.24927515e-01 2.24927515e-01 3.06719333e-01 2.45375469e-01 2.45375469e-01 2.65823424e-01 4.08959121e-01 2.45375469e-01 1.63583651e-01 1.63583651e-01 2.45375469e-01 2.04479560e-01 1.43135697e-01 1.84031606e-01 1.84031606e-01 2.45375469e-01 3.88511151e-01 2.04479560e-01 1.43135697e-01 2.65823424e-01 1.63583651e-01 1.43135697e-01 1.84031606e-01 2.24927515e-01 1.22687735e-01 1.63583651e-01 8.17918256e-02 1.22687735e-01 2.04479560e-01 2.04479560e-01 2.04479560e-01 2.45375469e-01 8.17918256e-02 1.84031606e-01 6.13438673e-02 1.84031606e-01 2.04479564e-02 1.22687735e-01 1.02239780e-01 2.04479564e-02 4.08959128e-02 4.08959128e-02 
      </Histogram>
    </PDF>
  </MVAPdfs>
  <Weights NTrees="500" AnalysisType="1">
    <BinaryTree type="DecisionTree" boostWeight="1.0000000000000000e+00" itree="0">
      <Node pos="s" depth="0" NCoef="0" IVar="0" Cut="1.0248756408691406e+00" cType="1" res="-8.5987262427806854e-03" rms="4.9992606043815613e-01" purity="4.9140128493309021e-01" nType="0">
        <Node pos="l" depth="1" NCoef="0" IVar="-1" Cut="0.0000000000000000e+00" cType="1" res="1.9986357539892197e-02" rms="4.5831710100173950e-01" purity="6.9986355304718018e-01" nType="-99"/>
        <Node pos="r" depth="1" NCoef="0" IVar="4" Cut="-9.9004977941513062e-01" cType="0" res="-1.9115890562534332e-01" rms="4.6201545000076294e-01" purity="3.0884110927581787e-01" nType="0">
          <Node pos="l" depth="2" NCoef="0" IVar="-1" Cut="0.0000000000000000e+00" cType="1" res="-8.6693549528717995e-03" rms="4.9242687225341797e-01" purity="4.1330644488334656e-01" nType="-99"/>
          <Node pos="r" depth="2" NCoef="0" IVar="-1" Cut="0.0000000000000000e+00" cType="1" res="-3.4310851246118546e-02" rms="3.6369845271110535e-01" purity="1.5689149498939514e-01" nType="-99"/>
        </Node>
      </Node>
    </BinaryTree>
    <BinaryTree type="DecisionTree" boostWeight="1.0000000000000000e+00" itree="1">
      <Node pos="s" depth="0" NCoef="0" IVar="0" Cut="1.0248756408691406e+00" cType="1" res="-8.1696622073650360e-03" rms="4.9537014961242676e-01" purity="4.9140128493309021e-01" nType="0">
        <Node pos="l" depth="1" NCoef="0" IVar="-1" Cut="0.0000000000000000e+00" cType="1" res="1.8994757905602455e-02" rms="4.5831707119941711e-01" purity="6.9986355304718018e-01" nType="-99"/>
        <Node pos="r" depth="1" NCoef="0" IVar="4" Cut="-9.9004977941513062e-01" cType="0" res="-1.8160375952720642e-01" rms="4.6033835411071777e-01" purity="3.0884110927581787e-01" nType="0">
          <Node pos="l" depth="2" NCoef="0" IVar="-1" Cut="0.0000000000000000e+00" cType="1" res="-8.2365171983838081e-03" rms="4.9242687225341797e-01" purity="4.1330644488334656e-01" nType="-99"/>
          <Node pos="r" depth="2" NCoef="0" IVar="-1" Cut="0.0000000000000000e+00" cType="1" res="-3.2634370028972626e-02" rms="3.6369842290878296e-01" purity="1.5689149498939514e-01" nType="-99"/>
        </Node>
      </Node>
    </BinaryTree>
    <BinaryTree type="DecisionTree" boostWeight="1.0000000000000000e+00" itree="2">
      <Node pos="s" depth="0" NCoef="0" IVar="0" Cut="1.0248756408691406e+00" cType="1" res="-7.7643077820539474e-03" rms="4.9122506380081177e-01" purity="4.9140128493309021e-01" nType="0">
        <Node pos="l" depth="1" NCoef="0" IVar="-1" Cut="0.0000000000000000e+00" cType="1" res="1.8065709620714188e-02" rms="4.5831710100173950e-01" purity="6.9986355304718018e-01" nType="-99"/>
        <Node pos="r" depth="1" NCoef="0" IVar="4" Cut="-9.9004977941513062e-01" cType="0" res="-1.7253358662128448e-01" rms="4.5882150530815125e-01" purity="3.0884110927581787e-01" nType="0">
          <Node pos="l" depth="2" NCoef="0" IVar="-1" Cut="0.0000000000000000e+00" cType="1" res="-7.8263795003294945e-03" rms="4.9242687225341797e-01" purity="4.1330644488334656e-01" nType="-99"/>
          <Node pos="r" depth="2" NCoef="0" IVar="-1" Cut="0.0000000000000000e+00" cType="1" res="-3.1107578426599503e-02" rms="3.6369845271110535e-01" purity="1.5689149498939514e-01" nType="-99"/>
        </Node>
      </Node>
    </BinaryTree>
    <BinaryTree type="DecisionTree" boostWeight="1.0000000000000000e+00" itree="3">
      <Node pos="s" depth="0" NCoef="0" IVar="0" Cut="1.0248756408691406e+00" cType="1" res="-7.3809097521007061e-03" rms="4.8745578527450562e-01" purity="4.9140128493309021e-01" nType="0">
        <Node pos="l" depth="1" NCoef="0" IVar="-1" Cut="0.0000000000000000e+00" cType="1" res="1.7192937433719635e-02" rms="4.5831710100173950e-01" purity="6.9986355304718018e-01" nType="-99"/>
        <Node pos="r" depth="1" NCoef="0" IVar="4" Cut="-9.9004977941513062e-01" cType="0" res="-1.6392236948013306e-01" rms="4.5744961500167847e-01" purity="3.0884110927581787e-01" nType="0">
          <Node pos="l" depth="2" NCoef="0" IVar="-1" Cut="0.0000000000000000e+00" cType="1" res="-7.4375411495566368e-03" rms="4.9242687225341797e-01" purity="4.1330644488334656e-01" nType="-99"/>
          <Node pos="r" depth="2" NCoef="0" IVar="-1" Cut="0.0000000000000000e+00" cType="1" res="-2.9707660898566246e-02" rms="3.6369845271110535e-01" purity="1.5689149498939514e-01" nType="-99"/>
        </Node>
      </Node>
    </BinaryTree>
    <BinaryTree type="DecisionTree" boostWeight="1.0000000000000000e+00" itree="4">
      <Node pos="s" depth="0" NCoef="0" IVar="0" Cut="1.0248756408691406e+00" cType="1" res="-7.0179821923375130e-03" rms="4.8403000831604004e-01" purity="4.9140128493309021e-01" nType="0">
        <Node pos="l" depth="1" NCoef="0" IVar="-1" Cut="0.0000000000000000e+00" cType="1" res="1.6371073201298714e-02" rms="4.5831710100173950e-01" purity="6.9986355304718018e-01" nType="-99"/>
        <Node pos="r" depth="1" NCoef="0" IVar="3" Cut="2.1081357002258301e+00" cType="0" res="-1.5574580430984497e-01" rms="4.5620879530906677e-01" purity="3.0884110927581787e-01" nType="0">
          <Node pos="l" depth="2" NCoef="0" IVar="-1" Cut="0.0000000000000000e+00" cType="1" res="9.1666048392653465e-03" rms="4.9047672748565674e-01" purity="5.5809521675109863e-01" nType="-99"/>
          <Node pos="r" depth="2" NCoef="0" IVar="-1" Cut="0.0000000000000000e+00" cType="1" res="-2.0313821732997894e-02" rms="4.3434610962867737e-01" purity="2.6248672604560852e-01" nType="-99"/>
        </Node>
      </Node>
    </BinaryTree>
    <BinaryTree type="DecisionTree" boostWeight="1.0000000000000000e+00" itree="5">
      <Node pos="s" depth="0" NCoef="0" IVar="0" Cut="1.0248756408691406e+00" cType="1" res="-6.6695366986095905e-03" rms="4.8087856173515320e-01" purity="4.9140128493309021e-01" nType="0">
        <Node pos="l" depth="1" NCoef="0" IVar="-1" Cut="0.0000000000000000e+00" cType="1" res="1.5595520846545696e-02" rms="4.5831707119941711e-01" purity="6.9986355304718018e-01" nType="-99"/>
        <Node pos="r" depth="1" NCoef="0" IVar="3" Cut="-2.0941956043243408e+00" cType="1" res="-1.4797239005565643e-01" rms="4.5501103997230530e-01" purity="3.0884110927581787e-01" nType="0">
          <Node pos="l" depth="2" NCoef="0" IVar="-1" Cut="0.0000000000000000e+00" cType="1" res="9.7981924191117287e-03" rms="4.9008527398109436e-01" purity="5.5493479967117310e-01" nType="-99"/>
          <Node pos="r" depth="2" NCoef="0" IVar="-1" Cut="0.0000000000000000e+00" cType="1" res="-1.9673734903335571e-02" rms="4.3247905373573303e-01" purity="2.6182854175567627e-01" nType="-99"/>
        </Node>
      </Node>
    </BinaryTree>
    <BinaryTree type="DecisionTree" boostWeight="1.0000000000000000e+00" itree="6">
      <Node pos="s" depth="0" NCoef="0" IVar="0" Cut="1.0248756408691406e+00" cType="1" res="-6.3389572314918041e-03" rms="4.7795173525810242e-01" purity="4.9140128493309021e-01" nType="0">
        <Node pos="l" depth="1" NCoef="0" IVar="-1" Cut="0.0000000000000000e+00" cType="1" res="1.4862308278679848e-02" rms="4.5831710100173950e-01" purity="6.9986355304718018e-01" nType="-99"/>
        <Node pos="r" depth="1" NCoef="0" IVar="4" Cut="-9.9004977941513062e-01" cType="0" res="-1.4058928191661835e-01" rms="4.5379897952079773e-01" purity="3.0884110927581787e-01" nType="0">
          <Node pos="l" depth="2" NCoef="0" IVar="-1" Cut="0.0000000000000000e+00" cType="1" res="-5.6040096096694469e-03" rms="4.8980611562728882e-01" purity="4.1330644488334656e-01" nType="-99"/>
          <Node pos="r" depth="2" NCoef="0" IVar="-1" Cut="0.0000000000000000e+00" cType="1" res="-2.7073595672845840e-02" rms="3.6173906922340393e-01" purity="1.5689149498939514e-01" nType="-99"/>
        </Node>
      </Node>
    </BinaryTree>
    <BinaryTree type="DecisionTree" boostWeight="1.0000000000000000e+00" itree="7">
      <Node pos="s" depth="0" NCoef="0" IVar="0" Cut="1.0248756408691406e+00" cType="1" res="-6.0296175070106983e-03" rms="4.7528848052024841e-01" purity="4.9140128493309021e-01" nType="0">
        <Node pos="l" depth="1" NCoef="0" IVar="-1" Cut="0.0000000000000000e+00" cType="1" res="1.4167984947562218e-02" rms="4.5831707119941711e-01" purity="6.9986355304718018e-01" nType="-99"/>
        <Node pos="r" depth="1" NCoef="0" IVar="3" Cut="2.1081357002258301e+00" cType="0" res="-1.3358466327190399e-01" rms="4.5268747210502625e-01" purity="3.0884110927581787e-01" nType="0">
          <Node pos="l" depth="2" NCoef="0" IVar="-1" Cut="0.0000000000000000e+00" cType="1" res="1.0395593941211700e-02" rms="4.8926851153373718e-01" purity="5.5809521675109863e-01" nType="-99"/>
          <Node pos="r" depth="2" NCoef="0" IVar="-1" Cut="0.0000000000000000e+00" cType="1" res="-1.8076933920383453e-02" rms="4.3150067329406738e-01" purity="2.6248672604560852e-01" nType="-99"/>
        </Node>
      </Node>
    </BinaryTree>
    <BinaryTree type="DecisionTree" boostWeight="1.0000000000000000e+00" itree="8">
      <Node pos="s" depth="0" NCoef="0" IVar="4" Cut="-9.9004977941513062e-01" cType="0" res="-5.7317498140037060e-03" rms="4.7282618284225464e-01" purity="4.9140128493309021e-01" nType="0">
        <Node pos="l" depth="1" NCoef="0" IVar="-1" Cut="0.0000000000000000e+00" cType="1" res="9.1842962428927422e-03" rms="4.6890366077423096e-01" purity="6.0611945390701294e-01" nType="-99"/>
        <Node pos="r" depth="1" NCoef="0" IVar="1" Cut="2.7827360630035400e+00" cType="0" res="-1.8935881555080414e-01" rms="4.2329517006874084e-01" purity="2.7289545536041260e-01" nType="0">
          <Node pos="l" depth="2" NCoef="0" IVar="-1" Cut="0.0000000000000000e+00" cType="1" res="-5.0010601989924908e-03" rms="4.5968919992446899e-01" purity="4.1997262835502625e-01" nType="-99"/>
          <Node pos="r" depth="2" NCoef="0" IVar="-1" Cut="0.0000000000000000e+00" cType="1" res="-2.7002774178981781e-02" rms="3.8398388028144836e-01" purity="1.9776380062103271e-01" nType="-99"/>
        </Node>
      </Node>
    </BinaryTree>
    <BinaryTree type="DecisionTree" boostWeight="1.0000000000000000e+00" itree="9">
      <Node pos="s" depth="0" NCoef="0" IVar="0" Cut="1.0248756408691406e+00" cType="1" res="-5.4514235816895962e-03" rms="4.7065013647079468e-01" purity="4.9140128493309021e-01" nType="0">
        <Node pos="l" depth="1" NCoef="0" IVar="-1" Cut="0.0000000000000000e+00" cType="1" res="1.3440977782011032e-02" rms="4.5595142245292664e-01" purity="6.9986355304718018e-01" nType="-99"/>
        <Node pos="r" depth="1" NCoef="0" IVar="3" Cut="-2.0941956043243408e+00" cType="1" res="-1.2573851644992828e-01" rms="4.4994246959686279e-01" purity="3.0884110927581787e-01" nType="0">
          <Node pos="l" depth="2" NCoef="0" IVar="-1" Cut="0.0000000000000000e+00" cType="1" res="1.0942116379737854e-02" rms="4.8646646738052368e-01" purity="5.5493479967117310e-01" nType="-99"/>
          <Node pos="r" depth="2" NCoef="0" IVar="-1" Cut="0.0000000000000000e+00" cType="1" res="-1.7453964799642563e-02" rms="4.2838791012763977e-01" purity="2.6182854175567627e-01" nType="-99"/>
        </Node>
      </Node>
    </BinaryTree>
    <BinaryTree type="DecisionTree" boostWeight="1.0000000000000000e+00" itree="10">
      <Node pos="s" depth="0" NCoef="0" IVar="4" Cut="-9.9004977941513062e-01" cType="0" res="-5.1828268915414810e-03" rms="4.6838387846946716e-01" purity="4.9140128493309021e-01" nType="0">
        <Node pos="l" depth="1" NCoef="0" IVar="-1" Cut="0.0000000000000000e+00" cType="1" res="8.7122349068522453e-03" rms="4.6652242541313171e-01" purity="6.0611945390701294e-01" nType="-99"/>
        <Node pos="r" depth="1" NCoef="0" IVar="1" Cut="2.7827360630035400e+00" cType="0" res="-1.7827126383781433e-01" rms="4.2072486877441406e-01" purity="2.7289545536041260e-01" nType="0">
          <Node pos="l" depth="2" NCoef="0" IVar="-1" Cut="0.0000000000000000e+00" cType="1" res="-4.6510766260325909e-03" rms="4.5709192752838135e-01" purity="4.1997262835502625e-01" nType="-99"/>
          <Node pos="r" depth="2" NCoef="0" IVar="-1" Cut="0.0000000000000000e+00" cType="1" res="-2.5726716965436935e-02" rms="3.8335123658180237e-01" purity="1.9776380062103271e-01" nType="-99"/>
        </Node>
      </Node>
    </BinaryTree>
    <BinaryTree type="DecisionTree" boostWeight="1.0000000000000000e+00" itree="11">
      <Node pos="s" depth="0" NCoef="0" IVar="2" Cut="2.5433094787597656e+02" cType="1" res="-4.9310573376715183e-03" rms="4.6643424034118652e-01" purity="4.9140128493309021e-01" nType="0">
        <Node pos="l" depth="1" NCoef="0" IVar="-1" Cut="0.0000000000000000e+00" cType="1" res="9.8353838548064232e-03" rms="4.5558336377143860e-01" purity="6.0266309976577759e-01" nType="-99"/>
        <Node pos="r" depth="1" NCoef="0" IVar="1" Cut="2.7199928760528564e+00" cType="0" res="-1.5478485822677612e-01" rms="4.4145512580871582e-01" purity="3.2594057917594910e-01" nType="0">
          <Node pos="l" depth="2" NCoef="0" IVar="-1" Cut="0.0000000000000000e+00" cType="1" res="-7.0636032614856958e-04" rms="4.6722909808158875e-01" purity="4.8804935812950134e-01" nType="-99"/>
          <Node pos="r" depth="2" NCoef="0" IVar="-1" Cut="0.0000000000000000e+00" cType="1" res="-3.2087568193674088e-02" rms="3.5020360350608826e-01" purity="1.5472312271595001e-01" nType="-99"/>
        </Node>
      </Node>
    </BinaryTree>
    <BinaryTree type="DecisionTree" boostWeight="1.0000000000000000e+00" itree="12">
      <Node pos="s" depth="0" NCoef="0" IVar="0" Cut="1.0248756408691406e+00" cType="1" res="-4.6913297846913338e-03" rms="4.6387389302253723e-01" purity="4.9140128493309021e-01" nType="0">
        <Node pos="l" depth="1" NCoef="0" IVar="-1" Cut="0.0000000000000000e+00" cType="1" res="1.2668432667851448e-02" rms="4.5119473338127136e-01" purity="6.9986355304718018e-01" nType="-99"/>
        <Node pos="r" depth="1" NCoef="0" IVar="3" Cut="2.1081357002258301e+00" cType="0" res="-1.1704987287521362e-01" rms="4.4530841708183289e-01" purity="3.0884110927581787e-01" nType="0">
          <Node pos="l" depth="2" NCoef="0" IVar="-1" Cut="0.0000000000000000e+00" cType="1" res="1.0882228612899780e-02" rms="4.8331969976425171e-01" purity="5.5809521675109863e-01" nType="-99"/>
          <Node pos="r" depth="2" NCoef="0" IVar="-1" Cut="0.0000000000000000e+00" cType="1" res="-1.6416626051068306e-02" rms="4.2504820227622986e-01" purity="2.6248672604560852e-01" nType="-99"/>
        </Node>
      </Node>
    </BinaryTree>
    <BinaryTree type="DecisionTree" boostWeight="1.0000000000000000e+00" itree="13">
      <Node pos="s" depth="0" NCoef="0" IVar="4" Cut="-9.9004977941513062e-01" cType="0" res="-4.4608446769416332e-03" rms="4.6187141537666321e-01" purity="4.9140128493309021e-01" nType="0">
        <Node pos="l" depth="1" NCoef="0" IVar="-1" Cut="0.0000000000000000e+00" cType="1" res="8.2440674304962158e-03" rms="4.6181014180183411e-01" purity="6.0611945390701294e-01" nType="-99"/>
        <Node pos="r" depth="1" NCoef="0" IVar="3" Cut="-1.9720735549926758e+00" cType="1" res="-1.6660203039646149e-01" rms="4.1634213924407959e-01" purity="2.7289545536041260e-01" nType="0">
          <Node pos="l" depth="2" NCoef="0" IVar="-1" Cut="0.0000000000000000e+00" cType="1" res="2.7199753094464540e-03" rms="4.6802350878715515e-01" purity="4.9620252847671509e-01" nType="-99"/>
          <Node pos="r" depth="2" NCoef="0" IVar="-1" Cut="0.0000000000000000e+00" cType="1" res="-2.2167477756738663e-02" rms="3.9109811186790466e-01" purity="2.2297680377960205e-01" nType="-99"/>
        </Node>
      </Node>
    </BinaryTree>
    <BinaryTree type="DecisionTree" boostWeight="1.0000000000000000e+00" itree="14">
      <Node pos="s" depth="0" NCoef="0" IVar="2" Cut="2.5433094787597656e+02" cType="1" res="-4.2454982176423073e-03" rms="4.6013426780700684e-01" purity="4.9140128493309021e-01" nType="0">
        <Node pos="l" depth="1" NCoef="0" IVar="-1" Cut="0.0000000000000000e+00" cType="1" res="9.3171559274196625e-03" rms="4.5169442892074585e-01" purity="6.0266309976577759e-01" nType="-99"/>
        <Node pos="r" depth="1" NCoef="0" IVar="1" Cut="2.7199928760528564e+00" cType="0" res="-1.4470465481281281e-01" rms="4.3608823418617249e-01" purity="3.2594057917594910e-01" nType="0">
          <Node pos="l" depth="2" NCoef="0" IVar="-1" Cut="0.0000000000000000e+00" cType="1" res="-5.7799817295745015e-04" rms="4.6356147527694702e-01" purity="4.8804935812950134e-01" nType="-99"/>
          <Node pos="r" depth="2" NCoef="0" IVar="-1" Cut="0.0000000000000000e+00" cType="1" res="-3.0473541468381882e-02" rms="3.4935027360916138e-01" purity="1.5472312271595001e-01" nType="-99"/>
        </Node>
      </Node>
    </BinaryTree>
    <BinaryTree type="DecisionTree" boostWeight="1.0000000000000000e+00" itree="15">
      <Node pos="s" depth="0" NCoef="0" IVar="0" Cut="1.0248756408691406e+00" cType="1" res="-4.0420359000563622e-03" rms="4.5785015821456909e-01" purity="4.9140128493309021e-01" nType="0">
        <Node pos="l" depth="1" NCoef="0" IVar="-1" Cut="0.0000000000000000e+00" cType="1" res="1.1945366859436035e-02" rms="4.4699081778526306e-01" purity="6.9986355304718018e-01" nType="-99"/>
        <Node pos="r" depth="1" NCoef="0" IVar="3" Cut="-2.0941956043243408e+00" cType="1" res="-1.0898046195507050e-01" rms="4.4118621945381165e-01" purity="3.0884110927581787e-01" nType="0">
          <Node pos="l" depth="2" NCoef="0" IVar="-1" Cut="0.0000000000000000e+00" cType="1" res="1.0896380990743637e-02" rms="4.7894826531410217e-01" purity="5.5493479967117310e-01" nType="-99"/>
          <Node pos="r" depth="2" NCoef="0" IVar="-1" Cut="0.0000000000000000e+00" cType="1" res="-1.5704831108450890e-02" rms="4.2119801044464111e-01" purity="2.6182854175567627e-01" nType="-99"/>
        </Node>
      </Node>
    </BinaryTree>
    <BinaryTree type="DecisionTree" boostWeight="1.0000000000000000e+00" itree="16">
      <Node pos="s" depth="0" NCoef="0" IVar="4" Cut="-9.9004977941513062e-01" cType="0" res="-3.8441673386842012e-03" rms="4.5605176687240601e-01" purity="4.9140128493309021e-01" nType="0">
        <Node pos="l" depth="1" NCoef="0" IVar="-1" Cut="0.0000000000000000e+00" cType="1" res="7.8042740933597088e-03" rms="4.5750704407691956e-01" purity="6.0611945390701294e-01" nType="-99"/>
        <Node pos="r" depth="1" NCoef="0" IVar="1" Cut="2.7827360630035400e+00" cType="0" res="-1.5576320886611938e-01" rms="4.1261917352676392e-01" purity="2.7289545536041260e-01" nType="0">
          <Node pos="l" depth="2" NCoef="0" IVar="-1" Cut="0.0000000000000000e+00" cType="1" res="-3.8550482131540775e-03" rms="4.5027840137481689e-01" purity="4.1997262835502625e-01" nType="-99"/>
          <Node pos="r" depth="2" NCoef="0" IVar="-1" Cut="0.0000000000000000e+00" cType="1" res="-2.3288717493414879e-02" rms="3.7776118516921997e-01" purity="1.9776380062103271e-01" nType="-99"/>
        </Node>
      </Node>
    </BinaryTree>
    <BinaryTree type="DecisionTree" boostWeight="1.0000000000000000e+00" itree="17">
      <Node pos="s" depth="0" NCoef="0" IVar="2" Cut="2.5433094787597656e+02" cType="1" res="-3.6604490596801043e-03" rms="4.5451158285140991e-01" purity="4.9140128493309021e-01" nType="0">
        <Node pos="l" depth="1" NCoef="0" IVar="-1" Cut="0.0000000000000000e+00" cType="1" res="8.8480385020375252e-03" rms="4.4814154505729675e-01" purity="6.0266309976577759e-01" nType="-99"/>
        <Node pos="r" depth="1" NCoef="0" IVar="1" Cut="2.8448531627655029e+00" cType="0" res="-1.3561198115348816e-01" rms="4.3129166960716248e-01" purity="3.2594057917594910e-01" nType="0">
          <Node pos="l" depth="2" NCoef="0" IVar="-1" Cut="0.0000000000000000e+00" cType="1" res="2.5630826130509377e-03" rms="4.5913985371589661e-01" purity="5.2555447816848755e-01" nType="-99"/>
          <Node pos="r" depth="2" NCoef="0" IVar="-1" Cut="0.0000000000000000e+00" cType="1" res="-2.6186436414718628e-02" rms="3.7191933393478394e-01" purity="1.8682795763015747e-01" nType="-99"/>
        </Node>
      </Node>
    </BinaryTree>
    <BinaryTree type="DecisionTree" boostWeight="1.0000000000000000e+00" itree="18">
      <Node pos="s" depth="0" NCoef="0" IVar="0" Cut="1.0248756408691406e+00" cType="1" res="-3.4864605404436588e-03" rms="4.5248231291770935e-01" purity="4.9140128493309021e-01" nType="0">
        <Node pos="l" depth="1" NCoef="0" IVar="-1" Cut="0.0000000000000000e+00" cType="1" res="1.1279257945716381e-02" rms="4.4300094246864319e-01" purity="6.9986355304718018e-01" nType="-99"/>
        <Node pos="r" depth="1" NCoef="0" IVar="3" Cut="2.1081357002258301e+00" cType="0" res="-1.0157772898674011e-01" rms="4.3768337368965149e-01" purity="3.0884110927581787e-01" nType="0">
          <Node pos="l" depth="2" NCoef="0" IVar="-1" Cut="0.0000000000000000e+00" cType="1" res="1.1331208050251007e-02" rms="4.7654584050178528e-01" purity="5.5809521675109863e-01" nType="-99"/>
          <Node pos="r" depth="2" NCoef="0" IVar="-1" Cut="0.0000000000000000e+00" cType="1" res="-1.4896512962877750e-02" rms="4.1839122772216797e-01" purity="2.6248672604560852e-01" nType="-99"/>
        </Node>
      </Node>
    </BinaryTree>
    <BinaryTree type="DecisionTree" boostWeight="1.0000000000000000e+00" itree="19">
      <Node pos="s" depth="0" NCoef="0" IVar="4" Cut="-9.9004977941513062e-01" cType="0" res="-3.3163279294967651e-03" rms="4.5087495446205139e-01" purity="4.9140128493309021e-01" nType="0">
        <Node pos="l" depth="1" NCoef="0" IVar="-1" Cut="0.0000000000000000e+00" cType="1" res="7.3980274610221386e-03" rms="4.5370233058929443e-01" purity="6.0611945390701294e-01" nType="-99"/>
        <Node pos="r" depth="1" NCoef="0" IVar="3" Cut="-1.9720735549926758e+00" cType="1" res="-1.4581558108329773e-01" rms="4.0920630097389221e-01" purity="2.7289545536041260e-01" nType="0">
          <Node pos="l" depth="2" NCoef="0" IVar="-1" Cut="0.0000000000000000e+00" cType="1" res="3.0810574535280466e-03" rms="4.6071410179138184e-01" purity="4.9620252847671509e-01" nType="-99"/>
          <Node pos="r" depth="2" NCoef="0" IVar="-1" Cut="0.0000000000000000e+00" cType="1" res="-2.0144505426287651e-02" rms="3.8606110215187073e-01" purity="2.2297680377960205e-01" nType="-99"/>
        </Node>
      </Node>
    </BinaryTree>
    <BinaryTree type="DecisionTree" boostWeight="1.0000000000000000e+00" itree="20">
      <Node pos="s" depth="0" NCoef="0" IVar="3" Cut="2.5175943374633789e+00" cType="0" res="-3.1585677061229944e-03" rms="4.4949698448181152e-01" purity="4.9140128493309021e-01" nType="0">
        <Node pos="l" depth="1" NCoef="0" IVar="-1" Cut="0.0000000000000000e+00" cType="1" res="2.5614472106099129e-02" rms="3.6359193921089172e-01" purity="8.0533927679061890e-01" nType="-99"/>
        <Node pos="r" depth="1" NCoef="0" IVar="3" Cut="-2.2404246330261230e+00" cType="1" res="-4.4745765626430511e-02" rms="4.4903853535652161e-01" purity="4.3895187973976135e-01" nType="0">
          <Node pos="l" depth="2" NCoef="0" IVar="-1" Cut="0.0000000000000000e+00" cType="1" res="2.1200077608227730e-02" rms="4.0005382895469666e-01" purity="7.4978053569793701e-01" nType="-99"/>
          <Node pos="r" depth="2" NCoef="0" IVar="-1" Cut="0.0000000000000000e+00" cType="1" res="-1.1809371411800385e-02" rms="4.3789923191070557e-01" purity="3.5549268126487732e-01" nType="-99"/>
        </Node>
      </Node>
    </BinaryTree>
    <BinaryTree type="DecisionTree" boostWeight="1.0000000000000000e+00" itree="21">
      <Node pos="s" depth="0" NCoef="0" IVar="2" Cut="2.5433094787597656e+02" cType="1" res="-2.9939324595034122e-03" rms="4.4685438275337219e-01" purity="4.9140128493309021e-01" nType="0">
        <Node pos="l" depth="1" NCoef="0" IVar="-1" Cut="0.0000000000000000e+00" cType="1" res="8.3364062011241913e-03" rms="4.4225111603736877e-01" purity="6.0266309976577759e-01" nType="-99"/>
        <Node pos="r" depth="1" NCoef="0" IVar="1" Cut="2.7199928760528564e+00" cType="0" res="-1.2544308602809906e-01" rms="4.2507550120353699e-01" purity="3.2594057917594910e-01" nType="0">
          <Node pos="l" depth="2" NCoef="0" IVar="-1" Cut="0.0000000000000000e+00" cType="1" res="-3.3879911643452942e-04" rms="4.5474502444267273e-01" purity="4.8804935812950134e-01" nType="-99"/>
          <Node pos="r" depth="2" NCoef="0" IVar="-1" Cut="0.0000000000000000e+00" cType="1" res="-2.7555875480175018e-02" rms="3.4739565849304199e-01" purity="1.5472312271595001e-01" nType="-99"/>
        </Node>
      </Node>
    </BinaryTree>
    <BinaryTree type="DecisionTree" boostWeight="1.0000000000000000e+00" itree="22">
      <Node pos="s" depth="0" NCoef="0" IVar="4" Cut="-9.9004977941513062e-01" cType="0" res="-2.8550999704748392e-03" rms="4.4505664706230164e-01" purity="4.9140128493309021e-01" nType="0">
        <Node pos="l" depth="1" NCoef="0" IVar="-1" Cut="0.0000000000000000e+00" cType="1" res="6.9827646948397160e-03" rms="4.4905596971511841e-01" purity="6.0611945390701294e-01" nType="-99"/>
        <Node pos="r" depth="1" NCoef="0" IVar="3" Cut="2.0990383625030518e+00" cType="0" res="-1.3611641526222229e-01" rms="4.0519422292709351e-01" purity="2.7289545536041260e-01" nType="0">
          <Node pos="l" depth="2" NCoef="0" IVar="-1" Cut="0.0000000000000000e+00" cType="1" res="4.3443986214697361e-03" rms="4.6887463331222534e-01" purity="4.9562683701515198e-01" nType="-99"/>
          <Node pos="r" depth="2" NCoef="0" IVar="-1" Cut="0.0000000000000000e+00" cType="1" res="-1.8712697550654411e-02" rms="3.8292479515075684e-01" purity="2.3089610040187836e-01" nType="-99"/>
        </Node>
      </Node>
    </BinaryTree>
    <BinaryTree type="DecisionTree" boostWeight="1.0000000000000000e+00" itree="23">
      <Node pos="s" depth="0" NCoef="0" IVar="0" Cut="1.0248756408691406e+00" cType="1" res="-2.7197909075766802e-03" rms="4.4384670257568359e-01" purity="4.9140128493309021e-01" nType="0">
        <Node pos="l" depth="1" NCoef="0" IVar="-1" Cut="0.0000000000000000e+00" cType="1" res="1.0468855500221252e-02" rms="4.3541234731674194e-01" purity="6.9986355304718018e-01" nType="-99"/>
        <Node pos="r" depth="1" NCoef="0" IVar="5" Cut="8.1096931457519531e+01" cType="1" res="-9.2256933450698853e-02" rms="4.3165165185928345e-01" purity="3.0884110927581787e-01" nType="0">
          <Node pos="l" depth="2" NCoef="0" IVar="-1" Cut="0.0000000000000000e+00" cType="1" res="3.8056397897889838e-05" rms="4.6347701549530029e-01" purity="4.1693392395973206e-01" nType="-99"/>
          <Node pos="r" depth="2" NCoef="0" IVar="-1" Cut="0.0000000000000000e+00" cType="1" res="-1.8715182319283485e-02" rms="3.8406851887702942e-01" purity="2.1464505791664124e-01" nType="-99"/>
        </Node>
      </Node>
    </BinaryTree>
    <BinaryTree type="DecisionTree" boostWeight="1.0000000000000000e+00" itree="24">
      <Node pos="s" depth="0" NCoef="0" IVar="3" Cut="2.4199283123016357e+00" cType="0" res="-2.5889077223837376e-03" rms="4.4246685504913330e-01" purity="4.9140128493309021e-01" nType="0">
        <Node pos="l" depth="1" NCoef="0" IVar="-1" Cut="0.0000000000000000e+00" cType="1" res="2.2849002853035927e-02" rms="3.7188619375228882e-01" purity="7.8899085521697998e-01" nType="-99"/>
        <Node pos="r" depth="1" NCoef="0" IVar="3" Cut="-1.9092178344726562e+00" cType="1" res="-4.3091908097267151e-02" rms="4.4262385368347168e-01" purity="4.3630874156951904e-01" nType="0">
          <Node pos="l" depth="2" NCoef="0" IVar="-1" Cut="0.0000000000000000e+00" cType="1" res="1.6440374776721001e-02" rms="4.1637775301933289e-01" purity="6.9735950231552124e-01" nType="-99"/>
          <Node pos="r" depth="2" NCoef="0" IVar="-1" Cut="0.0000000000000000e+00" cType="1" res="-1.2884095311164856e-02" rms="4.2823323607444763e-01" purity="3.3542647957801819e-01" nType="-99"/>
        </Node>
      </Node>
    </BinaryTree>
    <BinaryTree type="DecisionTree" boostWeight="1.0000000000000000e+00" itree="25">
      <Node pos="s" depth="0" NCoef="0" IVar="2" Cut="2.5983987426757812e+02" cType="1" res="-2.4548997171223164e-03" rms="4.4009080529212952e-01" purity="4.9140128493309021e-01" nType="0">
        <Node pos="l" depth="1" NCoef="0" IVar="-1" Cut="0.0000000000000000e+00" cType="1" res="7.4448785744607449e-03" rms="4.3759649991989136e-01" purity="5.9650921821594238e-01" nType="-99"/>
        <Node pos="r" depth="1" NCoef="0" IVar="1" Cut="2.7356936931610107e+00" cType="0" res="-1.2106042355298996e-01" rms="4.1783058643341064e-01" purity="3.1963086128234863e-01" nType="0">
          <Node pos="l" depth="2" NCoef="0" IVar="-1" Cut="0.0000000000000000e+00" cType="1" res="-7.0419214898720384e-04" rms="4.5068114995956421e-01" purity="4.8307183384895325e-01" nType="-99"/>
          <Node pos="r" depth="2" NCoef="0" IVar="-1" Cut="0.0000000000000000e+00" cType="1" res="-2.6492690667510033e-02" rms="3.4302169084548950e-01" purity="1.5089513361454010e-01" nType="-99"/>
        </Node>
      </Node>
    </BinaryTree>
    <BinaryTree type="DecisionTree" boostWeight="1.0000000000000000e+00" itree="26">
      <Node pos="s" depth="0" NCoef="0" IVar="4" Cut="-9.9004977941513062e-01" cType="0" res="-2.3433538153767586e-03" rms="4.3856427073478699e-01" purity="4.9140128493309021e-01" nType="0">
        <Node pos="l" depth="1" NCoef="0" IVar="-1" Cut="0.0000000000000000e+00" cType="1" res="6.5931812860071659e-03" rms="4.4347703456878662e-01" purity="6.0611945390701294e-01" nType="-99"/>
        <Node pos="r" depth="1" NCoef="0" IVar="1" Cut="2.7827360630035400e+00" cType="0" res="-1.2630757689476013e-01" rms="4.0081161260604858e-01" purity="2.7289545536041260e-01" nType="0">
          <Node pos="l" depth="2" NCoef="0" IVar="-1" Cut="0.0000000000000000e+00" cType="1" res="-2.4657433386892080e-03" rms="4.3822929263114929e-01" purity="4.1997262835502625e-01" nType="-99"/>
          <Node pos="r" depth="2" NCoef="0" IVar="-1" Cut="0.0000000000000000e+00" cType="1" res="-2.0318850874900818e-02" rms="3.6926069855690002e-01" purity="1.9776380062103271e-01" nType="-99"/>
        </Node>
      </Node>
    </BinaryTree>
    <BinaryTree type="DecisionTree" boostWeight="1.0000000000000000e+00" itree="27">
      <Node pos="s" depth="0" NCoef="0" IVar="3" Cut="2.1269302368164062e+00" cType="0" res="-2.2344395983964205e-03" rms="4.3748778104782104e-01" purity="4.9140128493309021e-01" nType="0">
        <Node pos="l" depth="1" NCoef="0" IVar="-1" Cut="0.0000000000000000e+00" cType="1" res="1.8652148544788361e-02" rms="3.9613685011863708e-01" purity="7.3957514762878418e-01" nType="-99"/>
        <Node pos="r" depth="1" NCoef="0" IVar="3" Cut="-1.9246014356613159e+00" cType="1" res="-4.7238443046808243e-02" rms="4.3604484200477600e-01" purity="4.2842882871627808e-01" nType="0">
          <Node pos="l" depth="2" NCoef="0" IVar="-1" Cut="0.0000000000000000e+00" cType="1" res="1.5727683901786804e-02" rms="4.1290509700775146e-01" purity="6.9938230514526367e-01" nType="-99"/>
          <Node pos="r" depth="2" NCoef="0" IVar="-1" Cut="0.0000000000000000e+00" cType="1" res="-1.3813417404890060e-02" rms="4.1965138912200928e-01" purity="3.1728604435920715e-01" nType="-99"/>
        </Node>
      </Node>
    </BinaryTree>
    <BinaryTree type="DecisionTree" boostWeight="1.0000000000000000e+00" itree="28">
      <Node pos="s" depth="0" NCoef="0" IVar="0" Cut="2.0199005603790283e+00" cType="1" res="-2.1204494405537844e-03" rms="4.3523624539375305e-01" purity="4.9140128493309021e-01" nType="0">
        <Node pos="l" depth="1" NCoef="0" IVar="-1" Cut="0.0000000000000000e+00" cType="1" res="4.0031578391790390e-03" rms="4.3846514821052551e-01" purity="5.5381679534912109e-01" nType="-99"/>
        <Node pos="r" depth="1" NCoef="0" IVar="3" Cut="1.7572635412216187e+00" cType="0" res="-2.0063129067420959e-01" rms="3.5775524377822876e-01" purity="1.7692308127880096e-01" nType="0">
          <Node pos="l" depth="2" NCoef="0" IVar="-1" Cut="0.0000000000000000e+00" cType="1" res="-8.6177000775933266e-03" rms="4.5405989885330200e-01" purity="3.4313726425170898e-01" nType="-99"/>
          <Node pos="r" depth="2" NCoef="0" IVar="-1" Cut="0.0000000000000000e+00" cType="1" res="-2.5599176064133644e-02" rms="3.2336661219596863e-01" purity="1.3636364042758942e-01" nType="-99"/>
        </Node>
      </Node>
    </BinaryTree>
    <BinaryTree type="DecisionTree" boostWeight="1.0000000000000000e+00" itree="29">
      <Node pos="s" depth="0" NCoef="0" IVar="2" Cut="2.4882202148437500e+02" cType="1" res="-2.0243420731276274e-03" rms="4.3430092930793762e-01" purity="4.9140128493309021e-01" nType="0">
        <Node pos="l" depth="1" NCoef="0" IVar="-1" Cut="0.0000000000000000e+00" cType="1" res="7.7966181561350822e-03" rms="4.3228995800018311e-01" purity="6.0675710439682007e-01" nType="-99"/>
        <Node pos="r" depth="1" NCoef="0" IVar="1" Cut="2.8448531627655029e+00" cType="0" res="-1.0329964756965637e-01" rms="4.1609773039817810e-01" purity="3.3533158898353577e-01" nType="0">
          <Node pos="l" depth="2" NCoef="0" IVar="-1" Cut="0.0000000000000000e+00" cType="1" res="3.6384877748787403e-03" rms="4.4199398159980774e-01" purity="5.3853213787078857e-01" nType="-99"/>
          <Node pos="r" depth="2" NCoef="0" IVar="-1" Cut="0.0000000000000000e+00" cType="1" res="-2.2189613431692123e-02" rms="3.6840406060218811e-01" purity="1.9506016373634338e-01" nType="-99"/>
        </Node>
      </Node>
    </BinaryTree>
    <BinaryTree type="DecisionTree" boostWeight="1.0000000000000000e+00" itree="30">
      <Node pos="s" depth="0" NCoef="0" IVar="0" Cut="1.0248756408691406e+00" cType="1" res="-1.9326339242979884e-03" rms="4.3283218145370483e-01" purity="4.9140128493309021e-01" nType="0">
        <Node pos="l" depth="1" NCoef="0" IVar="-1" Cut="0.0000000000000000e+00" cType="1" res="9.4587011262774467e-03" rms="4.2614433169364929e-01" purity="6.9986355304718018e-01" nType="-99"/>
        <Node pos="r" depth="1" NCoef="0" IVar="5" Cut="8.1096931457519531e+01" cType="1" res="-8.0933511257171631e-02" rms="4.2309197783470154e-01" purity="3.0884110927581787e-01" nType="0">
          <Node pos="l" depth="2" NCoef="0" IVar="-1" Cut="0.0000000000000000e+00" cType="1" res="1.5937950229272246e-04" rms="4.5593351125717163e-01" purity="4.1693392395973206e-01" nType="-99"/>
          <Node pos="r" depth="2" NCoef="0" IVar="-1" Cut="0.0000000000000000e+00" cType="1" res="-1.7079683020710945e-02" rms="3.7784978747367859e-01" purity="2.1464505791664124e-01" nType="-99"/>
        </Node>
      </Node>
    </BinaryTree>
    <BinaryTree type="DecisionTree" boostWeight="1.0000000000000000e+00" itree="31">
      <Node pos="s" depth="0" NCoef="0" IVar="4" Cut="-9.9004977941513062e-01" cType="0" res="-1.8409447511658072e-03" rms="4.3174982070922852e-01" purity="4.9140128493309021e-01" nType="0">
        <Node pos="l" depth="1" NCoef="0" IVar="-1" Cut="0.0000000000000000e+00" cType="1" res="6.2331366352736950e-03" rms="4.3731668591499329e-01" purity="6.0611945390701294e-01" nType="-99"/>
        <Node pos="r" depth="1" NCoef="0" IVar="1" Cut="2.7827360630035400e+00" cType="0" res="-1.1692505329847336e-01" rms="3.9622607827186584e-01" purity="2.7289545536041260e-01" nType="0">
          <Node pos="l" depth="2" NCoef="0" IVar="-1" Cut="0.0000000000000000e+00" cType="1" res="-2.3554738145321608e-03" rms="4.3284136056900024e-01" purity="4.1997262835502625e-01" nType="-99"/>
          <Node pos="r" depth="2" NCoef="0" IVar="-1" Cut="0.0000000000000000e+00" cType="1" res="-1.9284605979919434e-02" rms="3.6670282483100891e-01" purity="1.9776380062103271e-01" nType="-99"/>
        </Node>
      </Node>
    </BinaryTree>
    <BinaryTree type="DecisionTree" boostWeight="1.0000000000000000e+00" itree="32">
      <Node pos="s" depth="0" NCoef="0" IVar="3" Cut="2.0780971050262451e+00" cType="0" res="-1.7567124450579286e-03" rms="4.3081310391426086e-01" purity="4.9140128493309021e-01" nType="0">
        <Node pos="l" depth="1" NCoef="0" IVar="-1" Cut="0.0000000000000000e+00" cType="1" res="1.7064027488231659e-02" rms="3.9664211869239807e-01" purity="7.3068267107009888e-01" nType="-99"/>
        <Node pos="r" depth="1" NCoef="0" IVar="3" Cut="-1.9102408885955811e+00" cType="1" res="-4.4734239578247070e-02" rms="4.2955434322357178e-01" purity="4.2692542076110840e-01" nType="0">
          <Node pos="l" depth="2" NCoef="0" IVar="-1" Cut="0.0000000000000000e+00" cType="1" res="1.4855119399726391e-02" rms="4.0915432572364807e-01" purity="6.9735950231552124e-01" nType="-99"/>
          <Node pos="r" depth="2" NCoef="0" IVar="-1" Cut="0.0000000000000000e+00" cType="1" res="-1.3498949818313122e-02" rms="4.1418752074241638e-01" purity="3.1181555986404419e-01" nType="-99"/>
        </Node>
      </Node>
    </BinaryTree>
    <BinaryTree type="DecisionTree" boostWeight="1.0000000000000000e+00" itree="33">
      <Node pos="s" depth="0" NCoef="0" IVar="1" Cut="2.4070687294006348e+00" cType="0" res="-1.6670048935338855e-03" rms="4.2880779504776001e-01" purity="4.9140128493309021e-01" nType="0">
        <Node pos="l" depth="1" NCoef="0" IVar="-1" Cut="0.0000000000000000e+00" cType="1" res="7.0120864547789097e-03" rms="4.2162033915519714e-01" purity="5.7548421621322632e-01" nType="-99"/>
        <Node pos="r" depth="1" NCoef="0" IVar="2" Cut="2.1970800781250000e+02" cType="1" res="-1.0070046037435532e-01" rms="4.2036789655685425e-01" purity="3.6519315838813782e-01" nType="0">
          <Node pos="l" depth="2" NCoef="0" IVar="-1" Cut="0.0000000000000000e+00" cType="1" res="1.0215836664428934e-04" rms="4.4217851758003235e-01" purity="5.2413272857666016e-01" nType="-99"/>
          <Node pos="r" depth="2" NCoef="0" IVar="-1" Cut="0.0000000000000000e+00" cType="1" res="-2.4253167212009430e-02" rms="3.6216023564338684e-01" purity="1.8734177947044373e-01" nType="-99"/>
        </Node>
      </Node>
    </BinaryTree>
    <BinaryTree type="DecisionTree" boostWeight="1.0000000000000000e+00" itree="34">
      <Node pos="s" depth="0" NCoef="0" IVar="0" Cut="2.0199005603790283e+00" cType="1" res="-1.5917136333882809e-03" rms="4.2750850319862366e-01" purity="4.9140128493309021e-01" nType="0">
        <Node pos="l" depth="1" NCoef="0" IVar="-1" Cut="0.0000000000000000e+00" cType="1" res="3.7128867115825415e-03" rms="4.3184334039688110e-01" purity="5.5381679534912109e-01" nType="-99"/>
        <Node pos="r" depth="1" NCoef="0" IVar="3" Cut="-2.0904817581176758e+00" cType="1" res="-1.8125222623348236e-01" rms="3.5399186611175537e-01" purity="1.7692308127880096e-01" nType="0">
          <Node pos="l" depth="2" NCoef="0" IVar="-1" Cut="0.0000000000000000e+00" cType="1" res="-4.5529254712164402e-03" rms="4.5239704847335815e-01" purity="3.9285713434219360e-01" nType="-99"/>
          <Node pos="r" depth="2" NCoef="0" IVar="-1" Cut="0.0000000000000000e+00" cType="1" res="-2.3393427953124046e-02" rms="3.3097591996192932e-01" purity="1.4333333075046539e-01" nType="-99"/>
        </Node>
      </Node>
    </BinaryTree>
    <BinaryTree type="DecisionTree" boostWeight="1.0000000000000000e+00" itree="35">
      <Node pos="s" depth="0" NCoef="0" IVar="2" Cut="2.5983987426757812e+02" cType="1" res="-1.5216463943943381e-03" rms="4.2672517895698547e-01" purity="4.9140128493309021e-01" nType="0">
        <Node pos="l" depth="1" NCoef="0" IVar="-1" Cut="0.0000000000000000e+00" cType="1" res="6.6036460921168327e-03" rms="4.2680782079696655e-01" purity="5.9650921821594238e-01" nType="-99"/>
        <Node pos="r" depth="1" NCoef="0" IVar="1" Cut="2.9073371887207031e+00" cType="0" res="-1.0332729667425156e-01" rms="4.0653741359710693e-01" purity="3.1963086128234863e-01" nType="0">
          <Node pos="l" depth="2" NCoef="0" IVar="-1" Cut="0.0000000000000000e+00" cType="1" res="3.2108514569699764e-03" rms="4.4286474585533142e-01" purity="5.4151624441146851e-01" nType="-99"/>
          <Node pos="r" depth="2" NCoef="0" IVar="-1" Cut="0.0000000000000000e+00" cType="1" res="-2.0123191177845001e-02" rms="3.6629468202590942e-01" purity="2.0090147852897644e-01" nType="-99"/>
        </Node>
      </Node>
    </BinaryTree>
    <BinaryTree type="DecisionTree" boostWeight="1.0000000000000000e+00" itree="36">
      <Node pos="s" depth="0" NCoef="0" IVar="3" Cut="2.5175943374633789e+00" cType="0" res="-1.4541562413796782e-03" rms="4.2559659481048584e-01" purity="4.9140128493309021e-01" nType="0">
        <Node pos="l" depth="1" NCoef="0" IVar="-1" Cut="0.0000000000000000e+00" cType="1" res="2.0908132195472717e-02" rms="3.5339084267616272e-01" purity="8.0533927679061890e-01" nType="-99"/>
        <Node pos="r" depth="1" NCoef="0" IVar="3" Cut="-2.2404246330261230e+00" cType="1" res="-3.3265493810176849e-02" rms="4.2832297086715698e-01" purity="4.3895187973976135e-01" nType="0">
          <Node pos="l" depth="2" NCoef="0" IVar="-1" Cut="0.0000000000000000e+00" cType="1" res="1.7606599256396294e-02" rms="3.8662099838256836e-01" purity="7.4978053569793701e-01" nType="-99"/>
          <Node pos="r" depth="2" NCoef="0" IVar="-1" Cut="0.0000000000000000e+00" cType="1" res="-9.4680348411202431e-03" rms="4.2385280132293701e-01" purity="3.5549268126487732e-01" nType="-99"/>
        </Node>
      </Node>
    </BinaryTree>
    <BinaryTree type="DecisionTree" boostWeight="1.0000000000000000e+00" itree="37">
      <Node pos="s" depth="0" NCoef="0" IVar="4" Cut="-9.9004977941513062e-01" cType="0" res="-1.3731825165450573e-03" rms="4.2395776510238647e-01" purity="4.9140128493309021e-01" nType="0">
        <Node pos="l" depth="1" NCoef="0" IVar="-1" Cut="0.0000000000000000e+00" cType="1" res="5.8739664964377880e-03" rms="4.2994534969329834e-01" purity="6.0611945390701294e-01" nType="-99"/>
        <Node pos="r" depth="1" NCoef="0" IVar="1" Cut="2.8762719631195068e+00" cType="0" res="-1.0762926191091537e-01" rms="3.9087569713592529e-01" purity="2.7289545536041260e-01" nType="0">
          <Node pos="l" depth="2" NCoef="0" IVar="-1" Cut="0.0000000000000000e+00" cType="1" res="-7.1172148454934359e-04" rms="4.3602371215820312e-01" purity="4.4521740078926086e-01" nType="-99"/>
          <Node pos="r" depth="2" NCoef="0" IVar="-1" Cut="0.0000000000000000e+00" cType="1" res="-1.7181966453790665e-02" rms="3.6634388566017151e-01" purity="2.1045999228954315e-01" nType="-99"/>
        </Node>
      </Node>
    </BinaryTree>
    <BinaryTree type="DecisionTree" boostWeight="1.0000000000000000e+00" itree="38">
      <Node pos="s" depth="0" NCoef="0" IVar="2" Cut="2.0475056457519531e+02" cType="1" res="-1.3114316388964653e-03" rms="4.2316409945487976e-01" purity="4.9140128493309021e-01" nType="0">
        <Node pos="l" depth="1" NCoef="0" IVar="-1" Cut="0.0000000000000000e+00" cType="1" res="1.1143023148179054e-02" rms="4.1458377242088318e-01" purity="6.5555047988891602e-01" nType="-99"/>
        <Node pos="r" depth="1" NCoef="0" IVar="1" Cut="2.5483100414276123e+00" cType="0" res="-5.6432668119668961e-02" rms="4.1736960411071777e-01" purity="4.0356880426406860e-01" nType="0">
          <Node pos="l" depth="2" NCoef="0" IVar="-1" Cut="0.0000000000000000e+00" cType="1" res="2.0904515404254198e-03" rms="4.2594394087791443e-01" purity="5.1692438125610352e-01" nType="-99"/>
          <Node pos="r" depth="2" NCoef="0" IVar="-1" Cut="0.0000000000000000e+00" cType="1" res="-1.8667977303266525e-02" rms="3.8036730885505676e-01" purity="2.4381625652313232e-01" nType="-99"/>
        </Node>
      </Node>
    </BinaryTree>
    <BinaryTree type="DecisionTree" boostWeight="1.0000000000000000e+00" itree="39">
      <Node pos="s" depth="0" NCoef="0" IVar="3" Cut="2.0780971050262451e+00" cType="0" res="-1.2501657474786043e-03" rms="4.2190665006637573e-01" purity="4.9140128493309021e-01" nType="0">
        <Node pos="l" depth="1" NCoef="0" IVar="-1" Cut="0.0000000000000000e+00" cType="1" res="1.5691820532083511e-02" rms="3.9109718799591064e-01" purity="7.3068267107009888e-01" nType="-99"/>
        <Node pos="r" depth="1" NCoef="0" IVar="3" Cut="-1.9102408885955811e+00" cType="1" res="-3.9789080619812012e-02" rms="4.2161279916763306e-01" purity="4.2692542076110840e-01" nType="0">
          <Node pos="l" depth="2" NCoef="0" IVar="-1" Cut="0.0000000000000000e+00" cType="1" res="1.3503692112863064e-02" rms="4.0305128693580627e-01" purity="6.9735950231552124e-01" nType="-99"/>
          <Node pos="r" depth="2" NCoef="0" IVar="-1" Cut="0.0000000000000000e+00" cType="1" res="-1.2243503704667091e-02" rms="4.1011124849319458e-01" purity="3.1181555986404419e-01" nType="-99"/>
        </Node>
      </Node>
    </BinaryTree>
    <BinaryTree type="DecisionTree" boostWeight="1.0000000000000000e+00" itree="40">
      <Node pos="s" depth="0" NCoef="0" IVar="0" Cut="2.0199005603790283e+00" cType="1" res="-1.1855766642838717e-03" rms="4.2029473185539246e-01" purity="4.9140128493309021e-01" nType="0">
        <Node pos="l" depth="1" NCoef="0" IVar="-1" Cut="0.0000000000000000e+00" cType="1" res="3.4888905938714743e-03" rms="4.2524313926696777e-01" purity="5.5381679534912109e-01" nType="-99"/>
        <Node pos="r" depth="1" NCoef="0" IVar="3" Cut="1.7572635412216187e+00" cType="0" res="-1.6598656773567200e-01" rms="3.5073709487915039e-01" purity="1.7692308127880096e-01" nType="0">
          <Node pos="l" depth="2" NCoef="0" IVar="-1" Cut="0.0000000000000000e+00" cType="1" res="-7.3525225743651390e-03" rms="4.4930565357208252e-01" purity="3.4313726425170898e-01" nType="-99"/>
          <Node pos="r" depth="2" NCoef="0" IVar="-1" Cut="0.0000000000000000e+00" cType="1" res="-2.2750841453671455e-02" rms="3.1748992204666138e-01" purity="1.3636364042758942e-01" nType="-99"/>
        </Node>
      </Node>
    </BinaryTree>
    <BinaryTree type="DecisionTree" boostWeight="1.0000000000000000e+00" itree="41">
      <Node pos="s" depth="0" NCoef="0" IVar="1" Cut="2.4070687294006348e+00" cType="0" res="-1.1353201698511839e-03" rms="4.1963073611259460e-01" purity="4.9140128493309021e-01" nType="0">
        <Node pos="l" depth="1" NCoef="0" IVar="-1" Cut="0.0000000000000000e+00" cType="1" res="6.4579388126730919e-03" rms="4.1425326466560364e-01" purity="5.7548421621322632e-01" nType="-99"/>
        <Node pos="r" depth="1" NCoef="0" IVar="2" Cut="2.1970800781250000e+02" cType="1" res="-9.0096682310104370e-02" rms="4.1186642646789551e-01" purity="3.6519315838813782e-01" nType="0">
          <Node pos="l" depth="2" NCoef="0" IVar="-1" Cut="0.0000000000000000e+00" cType="1" res="-4.8174802213907242e-04" rms="4.3606212735176086e-01" purity="5.2413272857666016e-01" nType="-99"/>
          <Node pos="r" depth="2" NCoef="0" IVar="-1" Cut="0.0000000000000000e+00" cType="1" res="-2.1888133138418198e-02" rms="3.5952353477478027e-01" purity="1.8734177947044373e-01" nType="-99"/>
        </Node>
      </Node>
    </BinaryTree>
    <BinaryTree type="DecisionTree" boostWeight="1.0000000000000000e+00" itree="42">
      <Node pos="s" depth="0" NCoef="0" IVar="4" Cut="-9.9004977941513062e-01" cType="0" res="-1.0863504139706492e-03" rms="4.1860887408256531e-01" purity="4.9140128493309021e-01" nType="0">
        <Node pos="l" depth="1" NCoef="0" IVar="-1" Cut="0.0000000000000000e+00" cType="1" res="5.5655529722571373e-03" rms="4.2494979500770569e-01" purity="6.0611945390701294e-01" nType="-99"/>
        <Node pos="r" depth="1" NCoef="0" IVar="3" Cut="-1.9236079454421997e+00" cType="1" res="-1.0025661438703537e-01" rms="3.8735908269882202e-01" purity="2.7289545536041260e-01" nType="0">
          <Node pos="l" depth="2" NCoef="0" IVar="-1" Cut="0.0000000000000000e+00" cType="1" res="1.2419802369549870e-03" rms="4.4096916913986206e-01" purity="4.8681056499481201e-01" nType="-99"/>
          <Node pos="r" depth="2" NCoef="0" IVar="-1" Cut="0.0000000000000000e+00" cType="1" res="-1.5361972153186798e-02" rms="3.6843803524971008e-01" purity="2.2177650034427643e-01" nType="-99"/>
        </Node>
      </Node>
    </BinaryTree>
    <BinaryTree type="DecisionTree" boostWeight="1.0000000000000000e+00" itree="43">
      <Node pos="s" depth="0" NCoef="0" IVar="2" Cut="2.5983987426757812e+02" cType="1" res="-1.0381109314039350e-03" rms="4.1792938113212585e-01" purity="4.9140128493309021e-01" nType="0">
        <Node pos="l" depth="1" NCoef="0" IVar="-1" Cut="0.0000000000000000e+00" cType="1" res="6.0731437988579273e-03" rms="4.1917201876640320e-01" purity="5.9650921821594238e-01" nType="-99"/>
        <Node pos="r" depth="1" NCoef="0" IVar="1" Cut="2.9073371887207031e+00" cType="0" res="-9.2308022081851959e-02" rms="3.9942139387130737e-01" purity="3.1963086128234863e-01" nType="0">
          <Node pos="l" depth="2" NCoef="0" IVar="-1" Cut="0.0000000000000000e+00" cType="1" res="2.5239633396267891e-03" rms="4.3824005126953125e-01" purity="5.4151624441146851e-01" nType="-99"/>
          <Node pos="r" depth="2" NCoef="0" IVar="-1" Cut="0.0000000000000000e+00" cType="1" res="-1.8442714586853981e-02" rms="3.6217471957206726e-01" purity="2.0090147852897644e-01" nType="-99"/>
        </Node>
      </Node>
    </BinaryTree>
    <BinaryTree type="DecisionTree" boostWeight="1.0000000000000000e+00" itree="44">
      <Node pos="s" depth="0" NCoef="0" IVar="0" Cut="1.0248756408691406e+00" cType="1" res="-9.9402782507240772e-04" rms="4.1702872514724731e-01" purity="4.9140128493309021e-01" nType="0">
        <Node pos="l" depth="1" NCoef="0" IVar="-1" Cut="0.0000000000000000e+00" cType="1" res="8.2317143678665161e-03" rms="4.1112008690834045e-01" purity="6.9986355304718018e-01" nType="-99"/>
        <Node pos="r" depth="1" NCoef="0" IVar="5" Cut="8.1096931457519531e+01" cType="1" res="-6.6725492477416992e-02" rms="4.1102787852287292e-01" purity="3.0884110927581787e-01" nType="0">
          <Node pos="l" depth="2" NCoef="0" IVar="-1" Cut="0.0000000000000000e+00" cType="1" res="3.8920913357287645e-04" rms="4.4428873062133789e-01" purity="4.1693392395973206e-01" nType="-99"/>
          <Node pos="r" depth="2" NCoef="0" IVar="-1" Cut="0.0000000000000000e+00" cType="1" res="-1.5161597169935703e-02" rms="3.6892032623291016e-01" purity="2.1464505791664124e-01" nType="-99"/>
        </Node>
      </Node>
    </BinaryTree>
    <BinaryTree type="DecisionTree" boostWeight="1.0000000000000000e+00" itree="45">
      <Node pos="s" depth="0" NCoef="0" IVar="1" Cut="2.1883327960968018e+00" cType="0" res="-9.4858475495129824e-04" rms="4.1626328229904175e-01" purity="4.9140128493309021e-01" nType="0">
        <Node pos="l" depth="1" NCoef="0" IVar="-1" Cut="0.0000000000000000e+00" cType="1" res="5.1813344471156597e-03" rms="4.1241547465324402e-01" purity="5.5863189697265625e-01" nType="-99"/>
        <Node pos="r" depth="1" NCoef="0" IVar="2" Cut="2.2019993591308594e+02" cType="1" res="-1.0276886820793152e-01" rms="4.0625286102294922e-01" purity="3.4561049938201904e-01" nType="0">
          <Node pos="l" depth="2" NCoef="0" IVar="-1" Cut="0.0000000000000000e+00" cType="1" res="-3.4680063836276531e-03" rms="4.3849134445190430e-01" purity="4.9490270018577576e-01" nType="-99"/>
          <Node pos="r" depth="2" NCoef="0" IVar="-1" Cut="0.0000000000000000e+00" cType="1" res="-2.2768752649426460e-02" rms="3.4519824385643005e-01" purity="1.6722038388252258e-01" nType="-99"/>
        </Node>
      </Node>
    </BinaryTree>
    <BinaryTree type="DecisionTree" boostWeight="1.0000000000000000e+00" itree="46">
      <Node pos="s" depth="0" NCoef="0" IVar="3" Cut="2.0780971050262451e+00" cType="0" res="-9.0830452973023057e-04" rms="4.1544628143310547e-01" purity="4.9140128493309021e-01" nType="0">
        <Node pos="l" depth="1" NCoef="0" IVar="-1" Cut="0.0000000000000000e+00" cType="1" res="1.4820765703916550e-02" rms="3.8711351156234741e-01" purity="7.3068267107009888e-01" nType="-99"/>
        <Node pos="r" depth="1" NCoef="0" IVar="3" Cut="-1.9102408885955811e+00" cType="1" res="-3.6522246897220612e-02" rms="4.1562879085540771e-01" purity="4.2692542076110840e-01" nType="0">
          <Node pos="l" depth="2" NCoef="0" IVar="-1" Cut="0.0000000000000000e+00" cType="1" res="1.2648951262235641e-02" rms="3.9843493700027466e-01" purity="6.9735950231552124e-01" nType="-99"/>
          <Node pos="r" depth="2" NCoef="0" IVar="-1" Cut="0.0000000000000000e+00" cType="1" res="-1.1481877416372299e-02" rms="4.0633869171142578e-01" purity="3.1181555986404419e-01" nType="-99"/>
        </Node>
      </Node>
    </BinaryTree>
    <BinaryTree type="DecisionTree" boostWeight="1.0000000000000000e+00" itree="47">
      <Node pos="s" depth="0" NCoef="0" IVar="4" Cut="-9.9004977941513062e-01" cType="0" res="-8.6070067482069135e-04" rms="4.1406744718551636e-01" purity="4.9140128493309021e-01" nType="0">
        <Node pos="l" depth="1" NCoef="0" IVar="-1" Cut="0.0000000000000000e+00" cType="1" res="5.2801626734435558e-03" rms="4.2081996798515320e-01" purity="6.0611945390701294e-01" nType="-99"/>
        <Node pos="r" depth="1" NCoef="0" IVar="1" Cut="2.9230399131774902e+00" cType="0" res="-9.3395628035068512e-02" rms="3.8425984978675842e-01" purity="2.7289545536041260e-01" nType="0">
          <Node pos="l" depth="2" NCoef="0" IVar="-1" Cut="0.0000000000000000e+00" cType="1" res="3.4202815731987357e-04" rms="4.3547999858856201e-01" purity="4.6058091521263123e-01" nType="-99"/>
          <Node pos="r" depth="2" NCoef="0" IVar="-1" Cut="0.0000000000000000e+00" cType="1" res="-1.5038217417895794e-02" rms="3.6355558037757874e-01" purity="2.1904762089252472e-01" nType="-99"/>
        </Node>
      </Node>
    </BinaryTree>
    <BinaryTree type="DecisionTree" boostWeight="1.0000000000000000e+00" itree="48">
      <Node pos="s" depth="0" NCoef="0" IVar="0" Cut="2.0199005603790283e+00" cType="1" res="-8.2327128620818257e-04" rms="4.1346511244773865e-01" purity="4.9140128493309021e-01" nType="0">
        <Node pos="l" depth="1" NCoef="0" IVar="-1" Cut="0.0000000000000000e+00" cType="1" res="3.2363829668611288e-03" rms="4.1898027062416077e-01" purity="5.5381679534912109e-01" nType="-99"/>
        <Node pos="r" depth="1" NCoef="0" IVar="3" Cut="-2.0904817581176758e+00" cType="1" res="-1.4942634105682373e-01" rms="3.4836158156394958e-01" purity="1.7692308127880096e-01" nType="0">
          <Node pos="l" depth="2" NCoef="0" IVar="-1" Cut="0.0000000000000000e+00" cType="1" res="-4.0739323012530804e-03" rms="4.4134047627449036e-01" purity="3.9285713434219360e-01" nType="-99"/>
          <Node pos="r" depth="2" NCoef="0" IVar="-1" Cut="0.0000000000000000e+00" cType="1" res="-2.0809572190046310e-02" rms="3.2817247509956360e-01" purity="1.4333333075046539e-01" nType="-99"/>
        </Node>
      </Node>
    </BinaryTree>
    <BinaryTree type="DecisionTree" boostWeight="1.0000000000000000e+00" itree="49">
      <Node pos="s" depth="0" NCoef="0" IVar="2" Cut="2.6534881591796875e+02" cType="1" res="-7.9028413165360689e-04" rms="4.1291043162345886e-01" purity="4.9140128493309021e-01" nType="0">
        <Node pos="l" depth="1" NCoef="0" IVar="-1" Cut="0.0000000000000000e+00" cType="1" res="5.4191900417208672e-03" rms="4.1487610340118408e-01" purity="5.8931219577789307e-01" nType="-99"/>
        <Node pos="r" depth="1" NCoef="0" IVar="1" Cut="2.9385449886322021e+00" cType="0" res="-8.9139342308044434e-02" rms="3.9424473047256470e-01" purity="3.1456658244132996e-01" nType="0">
          <Node pos="l" depth="2" NCoef="0" IVar="-1" Cut="0.0000000000000000e+00" cType="1" res="2.8535795863717794e-03" rms="4.3312352895736694e-01" purity="5.4913294315338135e-01" nType="-99"/>
          <Node pos="r" depth="2" NCoef="0" IVar="-1" Cut="0.0000000000000000e+00" cType="1" res="-1.7226541414856911e-02" rms="3.6393338441848755e-01" purity="2.0957309007644653e-01" nType="-99"/>
        </Node>
      </Node>
    </BinaryTree>
    <BinaryTree type="DecisionTree" boostWeight="1.0000000000000000e+00" itree="50">
      <Node pos="s" depth="0" NCoef="0" IVar="1" Cut="2.4070687294006348e+00" cType="0" res="-7.5745332287624478e-04" rms="4.1215783357620239e-01" purity="4.9140128493309021e-01" nType="0">
        <Node pos="l" depth="1" NCoef="0" IVar="-1" Cut="0.0000000000000000e+00" cType="1" res="5.9166941791772842e-03" rms="4.0805444121360779e-01" purity="5.7548421621322632e-01" nType="-99"/>
        <Node pos="r" depth="1" NCoef="0" IVar="2" Cut="2.0485737609863281e+02" cType="1" res="-8.0135539174079895e-02" rms="4.0549623966217041e-01" purity="3.6519315838813782e-01" nType="0">
          <Node pos="l" depth="2" NCoef="0" IVar="-1" Cut="0.0000000000000000e+00" cType="1" res="6.2525511020794511e-04" rms="4.3201896548271179e-01" purity="5.4727274179458618e-01" nType="-99"/>
          <Node pos="r" depth="2" NCoef="0" IVar="-1" Cut="0.0000000000000000e+00" cType="1" res="-1.7822792753577232e-02" rms="3.7002044916152954e-01" purity="2.2324591875076294e-01" nType="-99"/>
        </Node>
      </Node>
    </BinaryTree>
    <BinaryTree type="DecisionTree" boostWeight="1.0000000000000000e+00" itree="51">
      <Node pos="s" depth="0" NCoef="0" IVar="3" Cut="2.1269302368164062e+00" cType="0" res="-7.2521576657891273e-04" rms="4.1136950254440308e-01" purity="4.9140128493309021e-01" nType="0">
        <Node pos="l" depth="1" NCoef="0" IVar="-1" Cut="0.0000000000000000e+00" cType="1" res="1.4582496136426926e-02" rms="3.8044235110282898e-01" purity="7.3957514762878418e-01" nType="-99"/>
        <Node pos="r" depth="1" NCoef="0" IVar="3" Cut="-2.2416164875030518e+00" cType="1" res="-3.3134847879409790e-02" rms="4.1261205077171326e-01" purity="4.2842882871627808e-01" nType="0">
          <Node pos="l" depth="2" NCoef="0" IVar="-1" Cut="0.0000000000000000e+00" cType="1" res="1.5186656266450882e-02" rms="3.7792795896530151e-01" purity="7.4956065416336060e-01" nType="-99"/>
          <Node pos="r" depth="2" NCoef="0" IVar="-1" Cut="0.0000000000000000e+00" cType="1" res="-9.4798579812049866e-03" rms="4.0960621833801270e-01" purity="3.3402222394943237e-01" nType="-99"/>
        </Node>
      </Node>
    </BinaryTree>
    <BinaryTree type="DecisionTree" boostWeight="1.0000000000000000e+00" itree="52">
      <Node pos="s" depth="0" NCoef="0" IVar="4" Cut="-9.9004977941513062e-01" cType="0" res="-6.8399269366636872e-04" rms="4.1017320752143860e-01" purity="4.9140128493309021e-01" nType="0">
        <Node pos="l" depth="1" NCoef="0" IVar="-1" Cut="0.0000000000000000e+00" cType="1" res="5.0140782259404659e-03" rms="4.1715645790100098e-01" purity="6.0611945390701294e-01" nType="-99"/>
        <Node pos="r" depth="1" NCoef="0" IVar="3" Cut="3.0198850631713867e+00" cType="0" res="-8.7294623255729675e-02" rms="3.8183495402336121e-01" purity="2.7289545536041260e-01" nType="0">
          <Node pos="l" depth="2" NCoef="0" IVar="-1" Cut="0.0000000000000000e+00" cType="1" res="1.4013962820172310e-02" rms="4.1637942194938660e-01" purity="6.8571430444717407e-01" nType="-99"/>
          <Node pos="r" depth="2" NCoef="0" IVar="-1" Cut="0.0000000000000000e+00" cType="1" res="-1.2187651358544827e-02" rms="3.7668552994728088e-01" purity="2.5182303786277771e-01" nType="-99"/>
        </Node>
      </Node>
    </BinaryTree>
    <BinaryTree type="DecisionTree" boostWeight="1.0000000000000000e+00" itree="53">
      <Node pos="s" depth="0" NCoef="0" IVar="0" Cut="1.0248756408691406e+00" cType="1" res="-6.5357988933101296e-04" rms="4.0965491533279419e-01" purity="4.9140128493309021e-01" nType="0">
        <Node pos="l" depth="1" NCoef="0" IVar="-1" Cut="0.0000000000000000e+00" cType="1" res="7.5073558837175369e-03" rms="4.0418314933776855e-01" purity="6.9986355304718018e-01" nType="-99"/>
        <Node pos="r" depth="1" NCoef="0" IVar="5" Cut="8.1096931457519531e+01" cType="1" res="-5.8947701007127762e-02" rms="4.0551003813743591e-01" purity="3.0884110927581787e-01" nType="0">
          <Node pos="l" depth="2" NCoef="0" IVar="-1" Cut="0.0000000000000000e+00" cType="1" res="5.3741567535325885e-04" rms="4.3871599435806274e-01" purity="4.1693392395973206e-01" nType="-99"/>
          <Node pos="r" depth="2" NCoef="0" IVar="-1" Cut="0.0000000000000000e+00" cType="1" res="-1.4070142991840839e-02" rms="3.6521756649017334e-01" purity="2.1464505791664124e-01" nType="-99"/>
        </Node>
      </Node>
    </BinaryTree>
    <BinaryTree type="DecisionTree" boostWeight="1.0000000000000000e+00" itree="54">
      <Node pos="s" depth="0" NCoef="0" IVar="1" Cut="2.1883327960968018e+00" cType="0" res="-6.2470010016113520e-04" rms="4.0904363989830017e-01" purity="4.9140128493309021e-01" nType="0">
        <Node pos="l" depth="1" NCoef="0" IVar="-1" Cut="0.0000000000000000e+00" cType="1" res="4.7623915597796440e-03" rms="4.0616244077682495e-01" purity="5.5863189697265625e-01" nType="-99"/>
        <Node pos="r" depth="1" NCoef="0" IVar="2" Cut="2.2019993591308594e+02" cType="1" res="-9.1547831892967224e-02" rms="4.0041327476501465e-01" purity="3.4561049938201904e-01" nType="0">
          <Node pos="l" depth="2" NCoef="0" IVar="-1" Cut="0.0000000000000000e+00" cType="1" res="-3.5100115928798914e-03" rms="4.3325412273406982e-01" purity="4.9490270018577576e-01" nType="-99"/>
          <Node pos="r" depth="2" NCoef="0" IVar="-1" Cut="0.0000000000000000e+00" cType="1" res="-2.0824519917368889e-02" rms="3.4363031387329102e-01" purity="1.6722038388252258e-01" nType="-99"/>
        </Node>
      </Node>
    </BinaryTree>
    <BinaryTree type="DecisionTree" boostWeight="1.0000000000000000e+00" itree="55">
      <Node pos="s" depth="0" NCoef="0" IVar="2" Cut="2.3229522705078125e+02" cType="1" res="-5.9986370615661144e-04" rms="4.0839356184005737e-01" purity="4.9140128493309021e-01" nType="0">
        <Node pos="l" depth="1" NCoef="0" IVar="-1" Cut="0.0000000000000000e+00" cType="1" res="6.8863597698509693e-03" rms="4.0894624590873718e-01" purity="6.2111997604370117e-01" nType="-99"/>
        <Node pos="r" depth="1" NCoef="0" IVar="1" Cut="2.7824230194091797e+00" cType="0" res="-6.1074305325746536e-02" rms="3.9873352646827698e-01" purity="3.6291599273681641e-01" nType="0">
          <Node pos="l" depth="2" NCoef="0" IVar="-1" Cut="0.0000000000000000e+00" cType="1" res="2.0459608640521765e-03" rms="4.2312246561050415e-01" purity="5.3867989778518677e-01" nType="-99"/>
          <Node pos="r" depth="2" NCoef="0" IVar="-1" Cut="0.0000000000000000e+00" cType="1" res="-1.5719855204224586e-02" rms="3.6556997895240784e-01" purity="2.2107674181461334e-01" nType="-99"/>
        </Node>
      </Node>
    </BinaryTree>
    <BinaryTree type="DecisionTree" boostWeight="1.0000000000000000e+00" itree="56">
      <Node pos="s" depth="0" NCoef="0" IVar="3" Cut="2.0780971050262451e+00" cType="0" res="-5.7542306603863835e-04" rms="4.0765872597694397e-01" purity="4.9140128493309021e-01" nType="0">
        <Node pos="l" depth="1" NCoef="0" IVar="-1" Cut="0.0000000000000000e+00" cType="1" res="1.3369387947022915e-02" rms="3.8232368230819702e-01" purity="7.3068267107009888e-01" nType="-99"/>
        <Node pos="r" depth="1" NCoef="0" IVar="3" Cut="-1.9102408885955811e+00" cType="1" res="-3.1617332249879837e-02" rms="4.0870392322540283e-01" purity="4.2692542076110840e-01" nType="0">
          <Node pos="l" depth="2" NCoef="0" IVar="-1" Cut="0.0000000000000000e+00" cType="1" res="1.1580305173993111e-02" rms="3.9236259460449219e-01" purity="6.9735950231552124e-01" nType="-99"/>
          <Node pos="r" depth="2" NCoef="0" IVar="-1" Cut="0.0000000000000000e+00" cType="1" res="-1.0357812978327274e-02" rms="4.0247991681098938e-01" purity="3.1181555986404419e-01" nType="-99"/>
        </Node>
      </Node>
    </BinaryTree>
    <BinaryTree type="DecisionTree" boostWeight="1.0000000000000000e+00" itree="57">
      <Node pos="s" depth="0" NCoef="0" IVar="0" Cut="2.0199005603790283e+00" cType="1" res="-5.4444896522909403e-04" rms="4.0658724308013916e-01" purity="4.9140128493309021e-01" nType="0">
        <Node pos="l" depth="1" NCoef="0" IVar="-1" Cut="0.0000000000000000e+00" cType="1" res="2.9886448755860329e-03" rms="4.1258645057678223e-01" purity="5.5381679534912109e-01" nType="-99"/>
        <Node pos="r" depth="1" NCoef="0" IVar="3" Cut="1.7572635412216187e+00" cType="0" res="-1.3359457254409790e-01" rms="3.4545096755027771e-01" purity="1.7692308127880096e-01" nType="0">
          <Node pos="l" depth="2" NCoef="0" IVar="-1" Cut="0.0000000000000000e+00" cType="1" res="-6.1254058964550495e-03" rms="4.4550096988677979e-01" purity="3.4313726425170898e-01" nType="-99"/>
          <Node pos="r" depth="2" NCoef="0" IVar="-1" Cut="0.0000000000000000e+00" cType="1" res="-2.0071670413017273e-02" rms="3.1319180130958557e-01" purity="1.3636364042758942e-01" nType="-99"/>
        </Node>
      </Node>
    </BinaryTree>
    <BinaryTree type="DecisionTree" boostWeight="1.0000000000000000e+00" itree="58">
      <Node pos="s" depth="0" NCoef="0" IVar="4" Cut="-9.9004977941513062e-01" cType="0" res="-5.2459252765402198e-04" rms="4.0613836050033569e-01" purity="4.9140128493309021e-01" nType="0">
        <Node pos="l" depth="1" NCoef="0" IVar="-1" Cut="0.0000000000000000e+00" cType="1" res="4.7720861621201038e-03" rms="4.1320952773094177e-01" purity="6.0611945390701294e-01" nType="-99"/>
        <Node pos="r" depth="1" NCoef="0" IVar="5" Cut="7.8996940612792969e+01" cType="1" res="-8.1450179219245911e-02" rms="3.7937539815902710e-01" purity="2.7289545536041260e-01" nType="0">
          <Node pos="l" depth="2" NCoef="0" IVar="-1" Cut="0.0000000000000000e+00" cType="1" res="-3.7817722186446190e-03" rms="4.2150589823722839e-01" purity="3.6673346161842346e-01" nType="-99"/>
          <Node pos="r" depth="2" NCoef="0" IVar="-1" Cut="0.0000000000000000e+00" cType="1" res="-1.6525626182556152e-02" rms="3.3333763480186462e-01" purity="1.9243986904621124e-01" nType="-99"/>
        </Node>
      </Node>
    </BinaryTree>
    <BinaryTree type="DecisionTree" boostWeight="1.0000000000000000e+00" itree="59">
      <Node pos="s" depth="0" NCoef="0" IVar="1" Cut="2.1883327960968018e+00" cType="0" res="-5.0330645171925426e-04" rms="4.0566667914390564e-01" purity="4.9140128493309021e-01" nType="0">
        <Node pos="l" depth="1" NCoef="0" IVar="-1" Cut="0.0000000000000000e+00" cType="1" res="4.5376345515251160e-03" rms="4.0334132313728333e-01" purity="5.5863189697265625e-01" nType="-99"/>
        <Node pos="r" depth="1" NCoef="0" IVar="3" Cut="1.7638576030731201e+00" cType="0" res="-8.5951477289199829e-02" rms="3.9746266603469849e-01" purity="3.4561049938201904e-01" nType="0">
          <Node pos="l" depth="2" NCoef="0" IVar="-1" Cut="0.0000000000000000e+00" cType="1" res="2.1574522834271193e-03" rms="4.3108052015304565e-01" purity="5.4728370904922485e-01" nType="-99"/>
          <Node pos="r" depth="2" NCoef="0" IVar="-1" Cut="0.0000000000000000e+00" cType="1" res="-1.4800491742789745e-02" rms="3.7917584180831909e-01" purity="2.7811446785926819e-01" nType="-99"/>
        </Node>
      </Node>
    </BinaryTree>
    <BinaryTree type="DecisionTree" boostWeight="1.0000000000000000e+00" itree="60">
      <Node pos="s" depth="0" NCoef="0" IVar="2" Cut="2.7085775756835938e+02" cType="1" res="-4.8095820238813758e-04" rms="4.0510702133178711e-01" purity="4.9140128493309021e-01" nType="0">
        <Node pos="l" depth="1" NCoef="0" IVar="-1" Cut="0.0000000000000000e+00" cType="1" res="4.7306641936302185e-03" rms="4.0925306081771851e-01" purity="5.8395564556121826e-01" nType="-99"/>
        <Node pos="r" depth="1" NCoef="0" IVar="1" Cut="2.9385449886322021e+00" cType="0" res="-8.1199474632740021e-02" rms="3.8428038358688354e-01" purity="3.1094411015510559e-01" nType="0">
          <Node pos="l" depth="2" NCoef="0" IVar="-1" Cut="0.0000000000000000e+00" cType="1" res="1.8220887286588550e-03" rms="4.2555820941925049e-01" purity="5.4668676853179932e-01" nType="-99"/>
          <Node pos="r" depth="2" NCoef="0" IVar="-1" Cut="0.0000000000000000e+00" cType="1" res="-1.6159873455762863e-02" rms="3.5534089803695679e-01" purity="2.0409555733203888e-01" nType="-99"/>
        </Node>
      </Node>
    </BinaryTree>
    <BinaryTree type="DecisionTree" boostWeight="1.0000000000000000e+00" itree="61">
      <Node pos="s" depth="0" NCoef="0" IVar="3" Cut="-2.2680401802062988e+00" cType="1" res="-4.6280113747343421e-04" rms="4.0453469753265381e-01" purity="4.9140128493309021e-01" nType="0">
        <Node pos="l" depth="1" NCoef="0" IVar="-1" Cut="0.0000000000000000e+00" cType="1" res="1.4295407570898533e-02" rms="3.7040948867797852e-01" purity="7.5338751077651978e-01" nType="-99"/>
        <Node pos="r" depth="1" NCoef="0" IVar="3" Cut="1.8113188743591309e+00" cType="0" res="-2.6554273441433907e-02" rms="4.0674990415573120e-01" purity="4.3533733487129211e-01" nType="0">
          <Node pos="l" depth="2" NCoef="0" IVar="-1" Cut="0.0000000000000000e+00" cType="1" res="1.0738088749349117e-02" rms="3.9305490255355835e-01" purity="6.8071913719177246e-01" nType="-99"/>
          <Node pos="r" depth="2" NCoef="0" IVar="-1" Cut="0.0000000000000000e+00" cType="1" res="-9.4770118594169617e-03" rms="4.0163698792457581e-01" purity="3.2415729761123657e-01" nType="-99"/>
        </Node>
      </Node>
    </BinaryTree>
    <BinaryTree type="DecisionTree" boostWeight="1.0000000000000000e+00" itree="62">
      <Node pos="s" depth="0" NCoef="0" IVar="2" Cut="2.0475056457519531e+02" cType="1" res="-4.3676275527104735e-04" rms="4.0358969569206238e-01" purity="4.9140128493309021e-01" nType="0">
        <Node pos="l" depth="1" NCoef="0" IVar="-1" Cut="0.0000000000000000e+00" cType="1" res="8.7553979828953743e-03" rms="4.0100648999214172e-01" purity="6.5555047988891602e-01" nType="-99"/>
        <Node pos="r" depth="1" NCoef="0" IVar="1" Cut="2.7199928760528564e+00" cType="0" res="-4.1053481400012970e-02" rms="3.9907881617546082e-01" purity="4.0356880426406860e-01" nType="0">
          <Node pos="l" depth="2" NCoef="0" IVar="-1" Cut="0.0000000000000000e+00" cType="1" res="2.7112485840916634e-03" rms="4.1485911607742310e-01" purity="5.5074703693389893e-01" nType="-99"/>
          <Node pos="r" depth="2" NCoef="0" IVar="-1" Cut="0.0000000000000000e+00" cType="1" res="-1.2529608793556690e-02" rms="3.7480688095092773e-01" purity="2.7069768309593201e-01" nType="-99"/>
        </Node>
      </Node>
    </BinaryTree>
    <BinaryTree type="DecisionTree" boostWeight="1.0000000000000000e+00" itree="63">
      <Node pos="s" depth="0" NCoef="0" IVar="0" Cut="1.0248756408691406e+00" cType="1" res="-4.1734313708730042e-04" rms="4.0293586254119873e-01" purity="4.9140128493309021e-01" nType="0">
        <Node pos="l" depth="1" NCoef="0" IVar="-1" Cut="0.0000000000000000e+00" cType="1" res="6.8383985199034214e-03" rms="3.9774397015571594e-01" purity="6.9986355304718018e-01" nType="-99"/>
        <Node pos="r" depth="1" NCoef="0" IVar="5" Cut="7.7707412719726562e+01" cType="1" res="-5.1984172314405441e-02" rms="4.0037766098976135e-01" purity="3.0884110927581787e-01" nType="0">
          <Node pos="l" depth="2" NCoef="0" IVar="-1" Cut="0.0000000000000000e+00" cType="1" res="7.7313336078077555e-04" rms="4.3443921208381653e-01" purity="4.2176869511604309e-01" nType="-99"/>
          <Node pos="r" depth="2" NCoef="0" IVar="-1" Cut="0.0000000000000000e+00" cType="1" res="-1.2491264380514622e-02" rms="3.6499851942062378e-01" purity="2.2044728696346283e-01" nType="-99"/>
        </Node>
      </Node>
    </BinaryTree>
    <BinaryTree type="DecisionTree" boostWeight="1.0000000000000000e+00" itree="64">
      <Node pos="s" depth="0" NCoef="0" IVar="4" Cut="-9.9004977941513062e-01" cType="0" res="-3.9952088263817132e-04" rms="4.0246495604515076e-01" purity="4.9140128493309021e-01" nType="0">
        <Node pos="l" depth="1" NCoef="0" IVar="-1" Cut="0.0000000000000000e+00" cType="1" res="4.5417184010148048e-03" rms="4.0969815850257874e-01" purity="6.0611945390701294e-01" nType="-99"/>
        <Node pos="r" depth="1" NCoef="0" IVar="3" Cut="3.0198850631713867e+00" cType="0" res="-7.6094940304756165e-02" rms="3.7689608335494995e-01" purity="2.7289545536041260e-01" nType="0">
          <Node pos="l" depth="2" NCoef="0" IVar="-1" Cut="0.0000000000000000e+00" cType="1" res="1.2228560633957386e-02" rms="4.1231942176818848e-01" purity="6.8571430444717407e-01" nType="-99"/>
          <Node pos="r" depth="2" NCoef="0" IVar="-1" Cut="0.0000000000000000e+00" cType="1" res="-1.1062084697186947e-02" rms="3.7253516912460327e-01" purity="2.5182303786277771e-01" nType="-99"/>
        </Node>
      </Node>
    </BinaryTree>
    <BinaryTree type="DecisionTree" boostWeight="1.0000000000000000e+00" itree="65">
      <Node pos="s" depth="0" NCoef="0" IVar="1" Cut="2.1883327960968018e+00" cType="0" res="-3.8258518907241523e-04" rms="4.0206992626190186e-01" purity="4.9140128493309021e-01" nType="0">
        <Node pos="l" depth="1" NCoef="0" IVar="-1" Cut="0.0000000000000000e+00" cType="1" res="4.3253679759800434e-03" rms="4.0008732676506042e-01" purity="5.5863189697265625e-01" nType="-99"/>
        <Node pos="r" depth="1" NCoef="0" IVar="3" Cut="2.0454685688018799e+00" cType="0" res="-8.0421678721904755e-02" rms="3.9464983344078064e-01" purity="3.4561049938201904e-01" nType="0">
          <Node pos="l" depth="2" NCoef="0" IVar="-1" Cut="0.0000000000000000e+00" cType="1" res="3.5352439153939486e-03" rms="4.2223918437957764e-01" purity="6.0574412345886230e-01" nType="-99"/>
          <Node pos="r" depth="2" NCoef="0" IVar="-1" Cut="0.0000000000000000e+00" cType="1" res="-1.3341318815946579e-02" rms="3.8303542137145996e-01" purity="2.8330206871032715e-01" nType="-99"/>
        </Node>
      </Node>
    </BinaryTree>
    <BinaryTree type="DecisionTree" boostWeight="1.0000000000000000e+00" itree="66">
      <Node pos="s" depth="0" NCoef="0" IVar="0" Cut="2.0199005603790283e+00" cType="1" res="-3.6596524296328425e-04" rms="4.0158522129058838e-01" purity="4.9140128493309021e-01" nType="0">
        <Node pos="l" depth="1" NCoef="0" IVar="-1" Cut="0.0000000000000000e+00" cType="1" res="2.7669847477227449e-03" rms="4.0790963172912598e-01" purity="5.5381679534912109e-01" nType="-99"/>
        <Node pos="r" depth="1" NCoef="0" IVar="3" Cut="-2.0904817581176758e+00" cType="1" res="-1.2045570462942123e-01" rms="3.4379082918167114e-01" purity="1.7692308127880096e-01" nType="0">
          <Node pos="l" depth="2" NCoef="0" IVar="-1" Cut="0.0000000000000000e+00" cType="1" res="-2.6421842630952597e-03" rms="4.3081301450729370e-01" purity="3.9285713434219360e-01" nType="-99"/>
          <Node pos="r" depth="2" NCoef="0" IVar="-1" Cut="0.0000000000000000e+00" cType="1" res="-1.8449258059263229e-02" rms="3.2561153173446655e-01" purity="1.4333333075046539e-01" nType="-99"/>
        </Node>
      </Node>
    </BinaryTree>
    <BinaryTree type="DecisionTree" boostWeight="1.0000000000000000e+00" itree="67">
      <Node pos="s" depth="0" NCoef="0" IVar="2" Cut="2.6534881591796875e+02" cType="1" res="-3.5418875631876290e-04" rms="4.0120369195938110e-01" purity="4.9140128493309021e-01" nType="0">
        <Node pos="l" depth="1" NCoef="0" IVar="-1" Cut="0.0000000000000000e+00" cType="1" res="4.5754276216030121e-03" rms="4.0439003705978394e-01" purity="5.8931219577789307e-01" nType="-99"/>
        <Node pos="r" depth="1" NCoef="0" IVar="1" Cut="2.9385449886322021e+00" cType="0" res="-7.1405328810214996e-02" rms="3.8533750176429749e-01" purity="3.1456658244132996e-01" nType="0">
          <Node pos="l" depth="2" NCoef="0" IVar="-1" Cut="0.0000000000000000e+00" cType="1" res="1.7040071543306112e-03" rms="4.2613938450813293e-01" purity="5.4913294315338135e-01" nType="-99"/>
          <Node pos="r" depth="2" NCoef="0" IVar="-1" Cut="0.0000000000000000e+00" cType="1" res="-1.4583298005163670e-02" rms="3.5892611742019653e-01" purity="2.0957309007644653e-01" nType="-99"/>
        </Node>
      </Node>
    </BinaryTree>
    <BinaryTree type="DecisionTree" boostWeight="1.0000000000000000e+00" itree="68">
      <Node pos="s" depth="0" NCoef="0" IVar="3" Cut="-2.2680401802062988e+00" cType="1" res="-3.4148196573369205e-04" rms="4.0072473883628845e-01" purity="4.9140128493309021e-01" nType="0">
        <Node pos="l" depth="1" NCoef="0" IVar="-1" Cut="0.0000000000000000e+00" cType="1" res="1.3602115213871002e-02" rms="3.6772429943084717e-01" purity="7.5338751077651978e-01" nType="-99"/>
        <Node pos="r" depth="1" NCoef="0" IVar="3" Cut="1.8113188743591309e+00" cType="0" res="-2.4639131501317024e-02" rms="4.0330865979194641e-01" purity="4.3533733487129211e-01" nType="0">
          <Node pos="l" depth="2" NCoef="0" IVar="-1" Cut="0.0000000000000000e+00" cType="1" res="1.0020233690738678e-02" rms="3.9066833257675171e-01" purity="6.8071913719177246e-01" nType="-99"/>
          <Node pos="r" depth="2" NCoef="0" IVar="-1" Cut="0.0000000000000000e+00" cType="1" res="-8.8913245126605034e-03" rms="3.9941707253456116e-01" purity="3.2415729761123657e-01" nType="-99"/>
        </Node>
      </Node>
    </BinaryTree>
    <BinaryTree type="DecisionTree" boostWeight="1.0000000000000000e+00" itree="69">
      <Node pos="s" depth="0" NCoef="0" IVar="1" Cut="2.5476846694946289e+00" cType="0" res="-3.2163196010515094e-04" rms="3.9991894364356995e-01" purity="4.9140128493309021e-01" nType="0">
        <Node pos="l" depth="1" NCoef="0" IVar="-1" Cut="0.0000000000000000e+00" cType="1" res="5.7542794384062290e-03" rms="3.9775925874710083e-01" purity="5.8959710597991943e-01" nType="-99"/>
        <Node pos="r" depth="1" NCoef="0" IVar="2" Cut="2.3455865478515625e+02" cType="1" res="-5.5407442152500153e-02" rms="3.9515233039855957e-01" purity="3.8083952665328979e-01" nType="0">
          <Node pos="l" depth="2" NCoef="0" IVar="-1" Cut="0.0000000000000000e+00" cType="1" res="-1.0312951635569334e-03" rms="4.2075207829475403e-01" purity="5.2181303501129150e-01" nType="-99"/>
          <Node pos="r" depth="2" NCoef="0" IVar="-1" Cut="0.0000000000000000e+00" cType="1" res="-1.7193131148815155e-02" rms="3.4227401018142700e-01" purity="1.7157274484634399e-01" nType="-99"/>
        </Node>
      </Node>
    </BinaryTree>
    <BinaryTree type="DecisionTree" boostWeight="1.0000000000000000e+00" itree="70">
      <Node pos="s" depth="0" NCoef="0" IVar="4" Cut="-9.9004977941513062e-01" cType="0" res="-3.1142195803113282e-04" rms="3.9937782287597656e-01" purity="4.9140128493309021e-01" nType="0">
        <Node pos="l" depth="1" NCoef="0" IVar="-1" Cut="0.0000000000000000e+00" cType="1" res="4.3238718062639236e-03" rms="4.0662351250648499e-01" purity="6.0611945390701294e-01" nType="-99"/>
        <Node pos="r" depth="1" NCoef="0" IVar="3" Cut="-1.9236079454421997e+00" cType="1" res="-7.1312882006168365e-02" rms="3.7508812546730042e-01" purity="2.7289545536041260e-01" nType="0">
          <Node pos="l" depth="2" NCoef="0" IVar="-1" Cut="0.0000000000000000e+00" cType="1" res="1.1672271648421884e-03" rms="4.2851808667182922e-01" purity="4.8681056499481201e-01" nType="-99"/>
          <Node pos="r" depth="2" NCoef="0" IVar="-1" Cut="0.0000000000000000e+00" cType="1" res="-1.2248340994119644e-02" rms="3.5842269659042358e-01" purity="2.2177650034427643e-01" nType="-99"/>
        </Node>
      </Node>
    </BinaryTree>
    <BinaryTree type="DecisionTree" boostWeight="1.0000000000000000e+00" itree="71">
      <Node pos="s" depth="0" NCoef="0" IVar="3" Cut="2.7129261493682861e+00" cType="0" res="-2.9969617025926709e-04" rms="3.9901888370513916e-01" purity="4.9140128493309021e-01" nType="0">
        <Node pos="l" depth="1" NCoef="0" IVar="-1" Cut="0.0000000000000000e+00" cType="1" res="1.7371306195855141e-02" rms="3.1965693831443787e-01" purity="8.3001327514648438e-01" nType="-99"/>
        <Node pos="r" depth="1" NCoef="0" IVar="3" Cut="-1.9032528400421143e+00" cType="1" res="-1.8905421718955040e-02" rms="4.0509200096130371e-01" purity="4.4526869058609009e-01" nType="0">
          <Node pos="l" depth="2" NCoef="0" IVar="-1" Cut="0.0000000000000000e+00" cType="1" res="1.0301695205271244e-02" rms="3.8566407561302185e-01" purity="6.9703102111816406e-01" nType="-99"/>
          <Node pos="r" depth="2" NCoef="0" IVar="-1" Cut="0.0000000000000000e+00" cType="1" res="-6.9629386998713017e-03" rms="4.0522620081901550e-01" purity="3.5302841663360596e-01" nType="-99"/>
        </Node>
      </Node>
    </BinaryTree>
    <BinaryTree type="DecisionTree" boostWeight="1.0000000000000000e+00" itree="72">
      <Node pos="s" depth="0" NCoef="0" IVar="0" Cut="2.0199005603790283e+00" cType="1" res="-2.7901981957256794e-04" rms="3.9833119511604309e-01" purity="4.9140128493309021e-01" nType="0">
        <Node pos="l" depth="1" NCoef="0" IVar="-1" Cut="0.0000000000000000e+00" cType="1" res="2.6119071990251541e-03" rms="4.0488091111183167e-01" purity="5.5381679534912109e-01" nType="-99"/>
        <Node pos="r" depth="1" NCoef="0" IVar="3" Cut="-1.9175493717193604e+00" cType="1" res="-1.1166539043188095e-01" rms="3.4247913956642151e-01" purity="1.7692308127880096e-01" nType="0">
          <Node pos="l" depth="2" NCoef="0" IVar="-1" Cut="0.0000000000000000e+00" cType="1" res="-4.3396120890974998e-03" rms="4.2669141292572021e-01" purity="3.6309522390365601e-01" nType="-99"/>
          <Node pos="r" depth="2" NCoef="0" IVar="-1" Cut="0.0000000000000000e+00" cType="1" res="-1.7755664885044098e-02" rms="3.2181093096733093e-01" purity="1.4105504751205444e-01" nType="-99"/>
        </Node>
      </Node>
    </BinaryTree>
    <BinaryTree type="DecisionTree" boostWeight="1.0000000000000000e+00" itree="73">
      <Node pos="s" depth="0" NCoef="0" IVar="2" Cut="2.8738455200195312e+02" cType="1" res="-2.7096399571746588e-04" rms="3.9800447225570679e-01" purity="4.9140128493309021e-01" nType="0">
        <Node pos="l" depth="1" NCoef="0" IVar="-1" Cut="0.0000000000000000e+00" cType="1" res="3.7295019719749689e-03" rms="4.0225219726562500e-01" purity="5.6957495212554932e-01" nType="-99"/>
        <Node pos="r" depth="1" NCoef="0" IVar="1" Cut="2.7200899124145508e+00" cType="0" res="-7.7842473983764648e-02" rms="3.7624293565750122e-01" purity="2.9834255576133728e-01" nType="0">
          <Node pos="l" depth="2" NCoef="0" IVar="-1" Cut="0.0000000000000000e+00" cType="1" res="-3.4106620587408543e-03" rms="4.1628983616828918e-01" purity="4.5378151535987854e-01" nType="-99"/>
          <Node pos="r" depth="2" NCoef="0" IVar="-1" Cut="0.0000000000000000e+00" cType="1" res="-1.9287914037704468e-02" rms="3.1749820709228516e-01" purity="1.2587413191795349e-01" nType="-99"/>
        </Node>
      </Node>
    </BinaryTree>
    <BinaryTree type="DecisionTree" boostWeight="1.0000000000000000e+00" itree="74">
      <Node pos="s" depth="0" NCoef="0" IVar="1" Cut="2.1883327960968018e+00" cType="0" res="-2.6393492589704692e-04" rms="3.9758756756782532e-01" purity="4.9140128493309021e-01" nType="0">
        <Node pos="l" depth="1" NCoef="0" IVar="-1" Cut="0.0000000000000000e+00" cType="1" res="4.0111504495143890e-03" rms="3.9602881669998169e-01" purity="5.5863189697265625e-01" nType="-99"/>
        <Node pos="r" depth="1" NCoef="0" IVar="3" Cut="1.6230521202087402e+00" cType="0" res="-7.2814941406250000e-02" rms="3.9123839139938354e-01" purity="3.4561049938201904e-01" nType="0">
          <Node pos="l" depth="2" NCoef="0" IVar="-1" Cut="0.0000000000000000e+00" cType="1" res="4.9393373774364591e-04" rms="4.2452883720397949e-01" purity="5.2028220891952515e-01" nType="-99"/>
          <Node pos="r" depth="2" NCoef="0" IVar="-1" Cut="0.0000000000000000e+00" cType="1" res="-1.3373586349189281e-02" rms="3.7264728546142578e-01" purity="2.7561837434768677e-01" nType="-99"/>
        </Node>
      </Node>
    </BinaryTree>
    <BinaryTree type="DecisionTree" boostWeight="1.0000000000000000e+00" itree="75">
      <Node pos="s" depth="0" NCoef="0" IVar="2" Cut="2.0475056457519531e+02" cType="1" res="-2.5306205498054624e-04" rms="3.9718329906463623e-01" purity="4.9140128493309021e-01" nType="0">
        <Node pos="l" depth="1" NCoef="0" IVar="-1" Cut="0.0000000000000000e+00" cType="1" res="7.8870281577110291e-03" rms="3.9590296149253845e-01" purity="6.5555047988891602e-01" nType="-99"/>
        <Node pos="r" depth="1" NCoef="0" IVar="1" Cut="2.7824230194091797e+00" cType="0" res="-3.5740289837121964e-02" rms="3.9330011606216431e-01" purity="4.0356880426406860e-01" nType="0">
          <Node pos="l" depth="2" NCoef="0" IVar="-1" Cut="0.0000000000000000e+00" cType="1" res="2.7745403349399567e-03" rms="4.0789294242858887e-01" purity="5.6794422864913940e-01" nType="-99"/>
          <Node pos="r" depth="2" NCoef="0" IVar="-1" Cut="0.0000000000000000e+00" cType="1" res="-1.0304677300155163e-02" rms="3.7650889158248901e-01" purity="2.8408610820770264e-01" nType="-99"/>
        </Node>
      </Node>
    </BinaryTree>
    <BinaryTree type="DecisionTree" boostWeight="1.0000000000000000e+00" itree="76">
      <Node pos="s" depth="0" NCoef="0" IVar="4" Cut="-9.9004977941513062e-01" cType="0" res="-2.4187933013308793e-04" rms="3.9671006798744202e-01" purity="4.9140128493309021e-01" nType="0">
        <Node pos="l" depth="1" NCoef="0" IVar="-1" Cut="0.0000000000000000e+00" cType="1" res="4.1211363859474659e-03" rms="4.0399661660194397e-01" purity="6.0611945390701294e-01" nType="-99"/>
        <Node pos="r" depth="1" NCoef="0" IVar="5" Cut="7.8996940612792969e+01" cType="1" res="-6.6959269344806671e-02" rms="3.7346732616424561e-01" purity="2.7289545536041260e-01" nType="0">
          <Node pos="l" depth="2" NCoef="0" IVar="-1" Cut="0.0000000000000000e+00" cType="1" res="-3.1125538516789675e-03" rms="4.1541099548339844e-01" purity="3.6673346161842346e-01" nType="-99"/>
          <Node pos="r" depth="2" NCoef="0" IVar="-1" Cut="0.0000000000000000e+00" cType="1" res="-1.4735897071659565e-02" rms="3.2919418811798096e-01" purity="1.9243986904621124e-01" nType="-99"/>
        </Node>
      </Node>
    </BinaryTree>
    <BinaryTree type="DecisionTree" boostWeight="1.0000000000000000e+00" itree="77">
      <Node pos="s" depth="0" NCoef="0" IVar="0" Cut="1.0248756408691406e+00" cType="1" res="-2.3360364139080048e-04" rms="3.9638134837150574e-01" purity="4.9140128493309021e-01" nType="0">
        <Node pos="l" depth="1" NCoef="0" IVar="-1" Cut="0.0000000000000000e+00" cType="1" res="6.1034997925162315e-03" rms="3.9111068844795227e-01" purity="6.9986355304718018e-01" nType="-99"/>
        <Node pos="r" depth="1" NCoef="0" IVar="5" Cut="8.1096931457519531e+01" cType="1" res="-4.4619988650083542e-02" rms="3.9564278721809387e-01" purity="3.0884110927581787e-01" nType="0">
          <Node pos="l" depth="2" NCoef="0" IVar="-1" Cut="0.0000000000000000e+00" cType="1" res="5.2640732610598207e-04" rms="4.2906486988067627e-01" purity="4.1693392395973206e-01" nType="-99"/>
          <Node pos="r" depth="2" NCoef="0" IVar="-1" Cut="0.0000000000000000e+00" cType="1" res="-1.1737375520169735e-02" rms="3.5857701301574707e-01" purity="2.1464505791664124e-01" nType="-99"/>
        </Node>
      </Node>
    </BinaryTree>
    <BinaryTree type="DecisionTree" boostWeight="1.0000000000000000e+00" itree="78">
      <Node pos="s" depth="0" NCoef="0" IVar="1" Cut="2.4070687294006348e+00" cType="0" res="-2.2454642748925835e-04" rms="3.9602422714233398e-01" purity="4.9140128493309021e-01" nType="0">
        <Node pos="l" depth="1" NCoef="0" IVar="-1" Cut="0.0000000000000000e+00" cType="1" res="4.5920540578663349e-03" rms="3.9408689737319946e-01" purity="5.7548421621322632e-01" nType="-99"/>
        <Node pos="r" depth="1" NCoef="0" IVar="5" Cut="1.0575824737548828e+02" cType="1" res="-5.7377975434064865e-02" rms="3.9203315973281860e-01" purity="3.6519315838813782e-01" nType="0">
          <Node pos="l" depth="2" NCoef="0" IVar="-1" Cut="0.0000000000000000e+00" cType="1" res="-3.7154108285903931e-03" rms="4.1356334090232849e-01" purity="4.4153121113777161e-01" nType="-99"/>
          <Node pos="r" depth="2" NCoef="0" IVar="-1" Cut="0.0000000000000000e+00" cType="1" res="-2.1184202283620834e-02" rms="2.9894748330116272e-01" purity="1.2417218834161758e-01" nType="-99"/>
        </Node>
      </Node>
    </BinaryTree>
    <BinaryTree type="DecisionTree" boostWeight="1.0000000000000000e+00" itree="79">
      <Node pos="s" depth="0" NCoef="0" IVar="3" Cut="-2.2680401802062988e+00" cType="1" res="-2.1818342793267220e-04" rms="3.9561316370964050e-01" purity="4.9140128493309021e-01" nType="0">
        <Node pos="l" depth="1" NCoef="0" IVar="-1" Cut="0.0000000000000000e+00" cType="1" res="1.2370546348392963e-02" rms="3.6409142613410950e-01" purity="7.5338751077651978e-01" nType="-99"/>
        <Node pos="r" depth="1" NCoef="0" IVar="3" Cut="1.7758507728576660e+00" cType="0" res="-2.1595686674118042e-02" rms="3.9880049228668213e-01" purity="4.3533733487129211e-01" nType="0">
          <Node pos="l" depth="2" NCoef="0" IVar="-1" Cut="0.0000000000000000e+00" cType="1" res="9.0787382796406746e-03" rms="3.8920184969902039e-01" purity="6.7351871728897095e-01" nType="-99"/>
          <Node pos="r" depth="2" NCoef="0" IVar="-1" Cut="0.0000000000000000e+00" cType="1" res="-8.2224579527974129e-03" rms="3.9542573690414429e-01" purity="3.2338732481002808e-01" nType="-99"/>
        </Node>
      </Node>
    </BinaryTree>
    <BinaryTree type="DecisionTree" boostWeight="1.0000000000000000e+00" itree="80">
      <Node pos="s" depth="0" NCoef="0" IVar="2" Cut="3.2043814086914062e+02" cType="1" res="-2.0489959570113569e-04" rms="3.9497619867324829e-01" purity="4.9140128493309021e-01" nType="0">
        <Node pos="l" depth="1" NCoef="0" IVar="-1" Cut="0.0000000000000000e+00" cType="1" res="2.8270401526242495e-03" rms="3.9879500865936279e-01" purity="5.4753309488296509e-01" nType="-99"/>
        <Node pos="r" depth="1" NCoef="0" IVar="5" Cut="7.7675064086914062e+01" cType="1" res="-8.9941263198852539e-02" rms="3.6631098389625549e-01" purity="2.7511590719223022e-01" nType="0">
          <Node pos="l" depth="2" NCoef="0" IVar="-1" Cut="0.0000000000000000e+00" cType="1" res="2.4605048820376396e-03" rms="4.2369562387466431e-01" purity="4.5381525158882141e-01" nType="-99"/>
          <Node pos="r" depth="2" NCoef="0" IVar="-1" Cut="0.0000000000000000e+00" cType="1" res="-1.5771836042404175e-02" rms="3.4611615538597107e-01" purity="2.3253588378429413e-01" nType="-99"/>
        </Node>
      </Node>
    </BinaryTree>
    <BinaryTree type="DecisionTree" boostWeight="1.0000000000000000e+00" itree="81">
      <Node pos="s" depth="0" NCoef="0" IVar="4" Cut="-9.9004977941513062e-01" cType="0" res="-1.9777267880272120e-04" rms="3.9462795853614807e-01" purity="4.9140128493309021e-01" nType="0">
        <Node pos="l" depth="1" NCoef="0" IVar="-1" Cut="0.0000000000000000e+00" cType="1" res="3.9275740273296833e-03" rms="4.0204733610153198e-01" purity="6.0611945390701294e-01" nType="-99"/>
        <Node pos="r" depth="1" NCoef="0" IVar="1" Cut="2.9230399131774902e+00" cType="0" res="-6.3021130859851837e-02" rms="3.7209391593933105e-01" purity="2.7289545536041260e-01" nType="0">
          <Node pos="l" depth="2" NCoef="0" IVar="-1" Cut="0.0000000000000000e+00" cType="1" res="4.1826203232631087e-04" rms="4.2369741201400757e-01" purity="4.6058091521263123e-01" nType="-99"/>
          <Node pos="r" depth="2" NCoef="0" IVar="-1" Cut="0.0000000000000000e+00" cType="1" res="-1.1591319926083088e-02" rms="3.5360199213027954e-01" purity="2.1904762089252472e-01" nType="-99"/>
        </Node>
      </Node>
    </BinaryTree>
    <BinaryTree type="DecisionTree" boostWeight="1.0000000000000000e+00" itree="82">
      <Node pos="s" depth="0" NCoef="0" IVar="0" Cut="2.0199005603790283e+00" cType="1" res="-1.9109982531517744e-04" rms="3.9433968067169189e-01" purity="4.9140128493309021e-01" nType="0">
        <Node pos="l" depth="1" NCoef="0" IVar="-1" Cut="0.0000000000000000e+00" cType="1" res="2.4189883843064308e-03" rms="4.0108248591423035e-01" purity="5.5381679534912109e-01" nType="-99"/>
